-3.85870209049761e-05,8.52083037185283e-06,-7.71259320670363e-05,0.000140548093140481,3.82149839940072e-05
3.7883019625366e-06,-0.000115390845073334,1.87588288080315e-05,-4.42132690351279e-05,-7.47143239040266e-05
-3.99156292577336e-05,-6.23398669643778e-05,-1.93520042743464e-05,1.67969235150182e-05,-5.59841135561316e-05
-4.28959899942798e-05,-4.49180567622374e-05,-2.36399666597503e-05,-1.3579409136624e-05,-3.27257996080345e-05
1.18657676829622e-05,-6.93007642593904e-05,8.3061472891695e-06,-0.000147025400175307,-0.000131158742189109
1.34730573278226e-05,5.55621947386741e-05,-3.58390124467664e-05,4.03263507276508e-05,-7.55307972258258e-05
-2.51062996948624e-06,-1.64075571042127e-05,5.2855905795097e-05,-0.000101940248988793,-2.18813476533883e-05
-2.88620215457184e-05,4.46358536285608e-05,-1.09915798112871e-05,1.09384055260896e-05,-2.45698992938312e-05
-1.27986518218175e-05,5.54094311115659e-05,5.69704386531908e-06,-4.95257303315158e-05,3.82901928708885e-05
3.23482772068671e-05,-5.43450954795482e-05,1.03594395743348e-05,-4.21477659891988e-05,-9.96386063249982e-05
2.10711930444635e-06,1.41601135824514e-06,1.60482083865537e-05,-0.000141412603057665,-7.13237464816861e-06
-4.33222736652182e-05,-8.47525667999698e-05,-0.000103352535758016,0.000119224581392932,2.59174925742935e-05
-1.09255005155448e-05,1.30359775315999e-05,6.32194949460565e-05,-6.73245462692209e-05,5.74842723040071e-05
3.41588519116792e-05,0.000123750162338816,9.48110447856241e-05,-3.97581200188824e-05,0.000174842432538342
1.4610913957969e-05,-1.47124051067007e-05,-0.000103454017766982,5.04495561765875e-05,-9.86601588148945e-05
2.56931167362351e-05,2.00497421838544e-05,-1.0125922500279e-05,5.66206744318517e-05,0.000114251628656943
6.98190334274209e-06,6.78404212398111e-05,4.48119320570438e-05,-2.88022763107995e-05,2.30174429926127e-05
9.95344430461626e-06,7.8639483693906e-05,-0.000105188023726391,6.07858263245789e-05,2.59752094930818e-05
5.2216046713946e-06,6.09696097641313e-05,-3.52741880789472e-05,1.43598796852656e-05,-5.3599570579677e-06
2.33406163840568e-05,9.74247951148926e-05,-5.93268761485108e-05,0.00012607303580309,6.19792813417526e-05
-3.14729838529795e-05,-7.55743220694748e-05,-3.70355933381545e-05,2.15989810544442e-05,-0.000124034114507582
2.36024866158988e-05,9.17038511725028e-05,1.70196835806765e-05,-5.43126865203459e-05,9.54647301676625e-06
-8.43791780774786e-07,4.57029065389178e-05,7.67799133684861e-05,-4.03715611576304e-05,3.27725624279687e-05
-4.11370107742613e-06,-3.99421047369921e-05,-4.03473370180513e-06,4.24803399664172e-05,1.40420520298864e-05
3.68820174335277e-05,9.92354378041896e-05,6.10978660195649e-05,1.15171631483463e-05,0.00011669341399912
-2.32559337705865e-07,8.4265448601414e-06,6.2635936843722e-05,7.80511581440047e-06,0.000133700061926406
-2.61151850968641e-05,-8.77361921232394e-05,-5.93753875722353e-05,4.61025447537409e-05,-0.000100671200243445
3.64211777822036e-06,-8.25596851157741e-05,-1.19121112875607e-05,4.06506096038613e-05,-5.63333022956077e-05
1.82656476938901e-05,-5.98050005937022e-05,6.15997092316015e-05,-2.97616905656976e-06,6.10627277531614e-06
2.09887901750913e-05,4.62870240440996e-05,-7.39900107108963e-05,0.000156193411076609,6.8420943090641e-06
2.7962982040142e-05,6.37217149330586e-06,-0.000110249556633684,0.000126249311657934,6.10637956410073e-05
-2.81670285778748e-05,2.70323375265027e-05,0.00012752405870322,-0.000131182102063591,-1.37018900345587e-05
-3.76796976989372e-05,-3.27400410686931e-05,-7.17587680182353e-05,6.83556789821813e-05,3.21178205766111e-05
-1.09051151083646e-05,-2.12642893423814e-06,-5.67599241107003e-05,-5.74428330049709e-05,-8.40079271739657e-05
2.34102989515036e-05,8.53650326380114e-05,0.000190687194210808,-0.000142920384059163,0.000140930111647851
-9.69044246352142e-06,-5.17814281192599e-05,-0.00012096035899395,1.51229927374678e-05,-0.000105941021439436
-2.39459346769598e-05,-4.75032571604356e-05,8.09960189275526e-06,4.66090638581602e-06,-6.73485789166913e-05
-1.30281398223803e-05,0.00011700817927723,-2.62860642804545e-06,0.000107205069086265,0.000127581293453242
4.66007744821826e-06,-4.84659482508328e-05,-1.18116927652457e-05,-3.85131736795418e-05,-9.38717127220538e-06
-3.3705006966414e-05,1.55090257870222e-05,-9.57341820996152e-06,-4.24720937547255e-05,1.24024120698331e-05
1.95729073808873e-05,3.77257030739228e-05,7.78121867647372e-06,3.79167991922417e-05,2.41218964450213e-05
2.3225742402972e-05,-7.31813819344345e-05,4.80673147758709e-05,-2.52162703291017e-05,-7.88555919436178e-05
1.08017912394547e-05,0.000164390900688176,-0.00020587381778893,0.000378450774164627,0.000199999652860068
1.03615071590607e-05,-7.50569994496398e-05,4.48143392449552e-05,1.52788723168857e-05,-1.74585201535164e-05
-3.5307806973326e-05,4.76737834667366e-05,-4.64645396736512e-05,1.71077748889792e-05,4.14858619063828e-05
-3.9205119291301e-05,-0.000101348573299658,-2.79404429472315e-05,-4.61002849713644e-05,-0.000191743498017173
-4.23625245162471e-05,-4.71158437642596e-06,-7.28929023799113e-05,0.000163431466504165,0.000103564388866516
9.22149751431057e-06,1.91926044344862e-05,6.50346432885184e-05,-1.01103548630078e-05,5.25996115802703e-05
5.75784796649796e-05,0.000128791970177358,-7.89545915550498e-05,0.000204505149524905,0.000104328098727515
3.75706310370627e-05,4.18860731868051e-05,-5.24021919599308e-05,0.000156461629934664,7.4828573660952e-05
4.04138553368038e-05,2.41172477491347e-05,3.72769393294828e-05,-1.92665077733078e-05,-5.60976293043903e-05
1.23557840540784e-05,-9.04231959249857e-05,-2.4458383158076e-05,8.23562358221246e-07,-9.2797190486961e-05
4.10500021916356e-05,5.83162706745609e-05,-2.36345505023157e-05,3.73274093771075e-05,3.35387768364223e-05
1.27950088966842e-05,-5.20204083756756e-05,0.000157104738903922,-0.000137529052943607,1.93029427798907e-06
2.31575804556004e-05,2.49603252719312e-05,1.355455510289e-05,3.20591126732248e-07,-1.07043418899871e-05
9.8154289953497e-06,3.75611201731657e-05,3.8117215837596e-05,1.47487194398905e-05,9.80146578977397e-05
3.29554843253962e-05,9.06917631432932e-05,9.61071461047174e-07,6.36191667763849e-05,4.38354207490606e-06
1.38771292280239e-05,5.47068723193184e-05,8.48445860303937e-05,-3.37984280427199e-05,7.20085435673905e-05
3.4010111656119e-05,3.41314174587191e-05,-5.23996597927631e-05,0.000162030038030163,4.63643632611507e-05
3.93236709986127e-05,2.41797490686958e-05,3.46123980375901e-05,-9.28409973232697e-05,-1.62364884520365e-06
-3.75121271570956e-05,2.92022750052104e-05,2.74186380034248e-05,-5.55177895921549e-05,-3.10727302267968e-05
2.47848939312762e-05,-8.20399689673116e-05,8.74642076479147e-06,9.53693175716632e-07,-1.82586767098097e-06
-9.42691912001526e-06,-0.0001098397847308,-0.000107246202979573,0.000115296691717639,-0.000105666447583515
1.31344600807922e-05,6.90139788607082e-06,2.71734796916872e-05,4.1827004301886e-05,5.19129657906665e-05
5.69093954780085e-05,9.4861116108236e-05,-5.18480169267573e-05,5.36320057187817e-05,6.24387262081514e-05
-1.36930581586811e-05,2.66278628500784e-07,1.62490176628853e-06,6.15883794180536e-05,4.6654870241811e-06
-6.41797297134852e-05,-0.000148670721704851,0.000154867097433014,-0.000276217184703,-0.000166594940833755
-2.17188758344383e-05,1.76445353222028e-05,6.3161886124632e-05,-8.64074187902596e-06,7.88387378330033e-05
-2.52868311622726e-05,7.9137047007671e-06,-4.53225448480191e-05,1.17902680553896e-05,-2.52854196472368e-05
4.5260407871667e-05,9.54520289938579e-06,-4.01603001281864e-05,6.31884692854691e-07,-1.80441435352142e-05
1.52402280658542e-05,-8.97803689473439e-06,-2.47964627218873e-05,-5.83649723456359e-05,-1.95527795643714e-06
7.56736748131174e-06,3.23789746295054e-05,3.57816719881874e-05,-4.99936488891781e-05,5.70686844317993e-05
-2.72233200025533e-05,-9.48913208344888e-05,-8.66933483701905e-05,5.29714356762899e-05,-8.11434416998832e-05
1.22610370031447e-05,1.44432023881906e-05,8.60630516221163e-05,-6.42009291421421e-05,-2.5521033118056e-05
-4.43549075766531e-05,-5.04098895509516e-05,-3.72972639783177e-05,-1.03473605027881e-05,7.12293673812058e-06
-5.23644350270875e-05,-0.000144978732637844,9.117756249551e-05,-0.000213487865270593,-0.000159567498203674
-3.74321598276965e-05,-2.0052561637292e-05,4.88377839138356e-05,-6.10237467847837e-05,-7.29772473844197e-05
8.76377485930507e-06,-3.65556554607193e-05,-3.48093097975715e-05,-6.25088096530854e-05,-9.23947909135663e-05
-4.43237672314931e-05,2.58898399993035e-05,-9.64728249907531e-05,5.93158193061654e-05,-1.0725967360899e-05
4.18044004651725e-05,3.13210177411377e-05,-1.80499730787606e-05,-4.44132435040446e-05,-3.90862909432594e-05
-2.39367094422647e-05,3.98336539288168e-05,4.82611970358411e-05,1.23781114418046e-05,1.83225645984618e-05
-2.21756897939398e-05,-3.66565430967376e-05,-6.68165467728126e-06,-3.33193341244357e-06,-0.000102951238185492
-1.81830047888602e-05,-2.26154767287612e-05,5.20873128247717e-05,-6.96790983018503e-05,8.00490645266812e-05
-1.11526457649376e-05,3.88675298117067e-05,3.78982218974261e-05,-6.16742496583004e-05,-3.44210411070292e-07
1.13516415972215e-05,3.04899035920841e-05,-8.30028750235929e-05,0.000113028549960324,8.76249982743762e-05
-4.83272163067366e-06,-0.000107580036607205,1.89277019956848e-05,1.24408524641869e-05,-7.79692665085516e-05
9.62032207012354e-06,1.2902370506016e-05,-3.1052113168083e-06,-3.8604610305864e-05,9.45013573037813e-07
3.65959886695146e-06,4.96008792376507e-05,7.68259101697051e-05,-4.89007794824395e-05,-5.3833012900997e-06
-5.32049069920574e-05,-0.000179300783889607,6.4070215284578e-05,-0.000170473581563934,-0.000188330352860737
2.72248029957274e-05,2.53747377775672e-05,3.57528803604215e-05,8.06524031711024e-06,-2.30785047654056e-05
-2.819053863871e-05,1.37809216778701e-05,-9.96557506471069e-05,0.000138445529451717,3.87115258901077e-06
2.54100791018233e-05,-2.57564855657675e-05,0.000124844795957709,-0.000188956998276647,-0.000101978966469469
-2.09870865157348e-05,5.43058127046257e-05,-5.47917297845603e-05,-3.43645163012056e-06,-2.3245120184663e-05
-1.45208304327185e-05,1.81502272776371e-05,3.86365871286234e-05,-0.000153398312088216,-8.73995540711114e-05
2.98749719344941e-05,5.00722754909562e-05,3.09250097544542e-05,3.56218647481522e-05,3.31131188258638e-05
1.11641894298958e-05,5.83777872050256e-05,-9.94421613179905e-05,9.98301595810155e-05,-6.38194475885325e-05
-7.20411053677512e-06,2.98621865210334e-05,-4.43248979347011e-05,4.22034213227582e-05,-3.23664375465733e-05
3.32952044061234e-05,6.88769018970699e-05,-3.0460373871608e-05,9.3440123313179e-05,-6.05888601865849e-07
-1.76380826952821e-05,-1.93270435728953e-05,-3.71776751670369e-05,-3.30411866816376e-06,-1.79690813889704e-06
4.0288147844672e-05,-1.01945793784351e-05,1.76209678995435e-05,-8.90654396993806e-05,-1.49283973935701e-05
1.2481401926971e-05,9.80428222770243e-05,3.53521728459597e-05,1.63033149309735e-05,1.12336768176408e-05
-4.15774861166582e-05,-7.00763977653726e-05,5.62211708656058e-05,-0.000115281170529987,-0.000133630222072603
-1.86877708982535e-05,5.43286395643387e-06,7.26750226131609e-06,1.78977187566114e-05,-3.02037579656929e-06
-4.24694261768307e-05,4.54537092625726e-05,-8.40629254367626e-05,0.000131646992177529,4.66284812654917e-05
-5.0597219445549e-07,-3.28027664485663e-05,2.88110255943023e-05,-2.98033988441649e-06,-0.000103783048587621
-4.45421635027532e-06,6.72627481934489e-05,2.08355928138524e-05,2.77482912853932e-05,7.26364822471775e-05
9.45926632370984e-06,-1.44979772223428e-05,1.88472219481314e-05,7.53581903634318e-05,-2.50574364325538e-05
-2.16519088004085e-05,-2.2315945656062e-05,-2.87128951828703e-05,-2.40708015539085e-05,1.36913426499596e-05
3.15019414360393e-06,-1.41724886866716e-05,0.000158680197452836,-0.000115806458877763,1.04335053504202e-05
2.16848718589936e-05,0.000160441055283915,-8.262925249489e-05,0.000196773947099884,0.000164215157987782
4.67598971812919e-06,6.68634484587755e-05,8.68704756324502e-06,5.48273305268511e-05,2.58183512349304e-05
1.06732114062748e-05,4.35346939903024e-05,4.69375830502448e-05,8.09046701513479e-05,9.0893888541922e-05
8.04974305254867e-06,-4.56617480828292e-05,4.91013891260796e-05,-2.38399555017005e-05,-3.487943838391e-05
-3.45507161430369e-05,3.24311566974768e-05,3.20620931979426e-06,-1.38904869438235e-05,-1.42036513957778e-05
-1.27674814723008e-06,6.420856022447e-05,-5.99118210029864e-05,8.76729343966512e-05,6.68906377812953e-05
9.7745854429943e-06,0.000111446801690424,-8.89200749166743e-06,7.08292974328872e-05,0.000157011805694896
-3.8220071402149e-05,2.17156044816489e-05,-4.23257205268805e-06,1.95962082429459e-05,8.314835397712e-05
8.94676712367708e-06,8.23412453212285e-05,-0.000108480332727677,0.000144570510245625,8.93221906367418e-05
-5.23561574222212e-06,-0.000148114122245645,4.21489577817651e-05,-0.000117758649866636,-0.000194226124128407
-2.42628211889072e-05,-2.65210636206847e-05,9.50691885438946e-05,-7.12365172835092e-05,-4.50766310057094e-05
-3.12866414170073e-05,-6.13819318500112e-05,4.54093337305316e-05,-4.3296310348099e-06,2.63854842412765e-05
1.0787873494145e-05,-3.67606363604303e-06,-8.62600629315262e-05,0.00018803766473428,0.000127612105527019
-4.81375282595923e-05,-1.1157782992963e-05,4.01596958929582e-05,-7.09871071133789e-05,-5.94236270111655e-05
-4.98867195438214e-05,-7.07035736938488e-05,-3.64053321768207e-05,-2.00581316080027e-05,-6.83710892985549e-05
-2.31699477580213e-05,3.17244226903932e-05,-3.28934190011707e-05,7.07153544796591e-05,-6.32134964009588e-06
-4.6668471787028e-05,1.50418579411315e-05,-7.17649121727242e-05,2.72309903077604e-05,-3.19169049660932e-05
-4.99939359769939e-05,1.31045359084184e-05,-3.55042358007241e-05,5.6815978023018e-05,5.18780113712801e-05
-5.29974879466805e-05,-0.000133575529907524,0.000106403719863113,-0.000169661157017121,-0.000103173741803237
-3.57972808530405e-05,2.26383377703257e-05,-8.40461293644155e-05,0.000143970087832092,8.38992655177563e-05
3.2296686161318e-05,-2.13815827998854e-06,-1.93341202212831e-05,-2.37551770881894e-05,-4.07631148166043e-05
-6.1789262961263e-06,-7.22423334072025e-05,-6.23868099918335e-05,-3.99914657317814e-05,-5.9355875191876e-05
-2.53643726570754e-05,-5.49853553092242e-05,5.47124472309327e-05,-5.18337686272179e-05,-7.73624154414699e-05
6.07833511726005e-05,8.50507109873478e-05,9.94675296980489e-07,2.85268026030774e-05,3.02550264107155e-05
5.64600409010281e-05,9.00872388466194e-05,1.28100701568799e-05,-2.07520066708964e-06,6.35752579819655e-05
2.66608633882266e-05,-3.79765218342326e-06,0.000103948763576353,-0.000100977802927475,2.4914108455617e-06
2.0122442854538e-05,-6.59563477171082e-05,7.00191803645815e-06,-6.79813880391576e-05,-2.82401063283614e-05
5.62728862141814e-06,5.79064022770267e-06,0.00013087835889743,-4.11578962040629e-05,1.84059060279597e-05
4.00615675981723e-05,0.000144568807092104,-7.63242369792436e-05,0.00011501704189019,3.13069775854344e-05
-2.73936545849762e-06,5.29962940389063e-05,1.4312657779243e-05,8.60612965203372e-05,3.33422539824087e-05
-6.68163307650655e-06,-0.000124897905811481,2.99671661041993e-05,-8.19553830634242e-05,-9.53162504697182e-05
-2.00864288507346e-05,9.37052619324919e-05,-8.62413952852849e-05,0.000165198999192123,8.82947116389364e-05
2.2173709870996e-05,-3.25491454491429e-05,4.92092496587667e-05,-8.42018799954369e-05,-9.61816956949376e-05
5.11980256170763e-05,2.22307533569818e-05,0.000121842358004712,-0.00015665217468749,-8.71043466046363e-06
-2.68780467451799e-05,-9.86764513953617e-05,-8.44188836398017e-05,-4.87000322721475e-05,-0.000180089776562167
2.31635566635817e-05,-2.47274994227672e-05,3.00189511868915e-05,-7.50121304935405e-05,-6.62733930423396e-05
-5.37068814588911e-05,-0.000123719290857204,2.43299671083737e-05,-0.000148961017054479,-0.000184801734745479
-5.34941966332835e-06,3.88351866632085e-06,-7.80730587281415e-05,0.00012589924003972,0.000124695664603158
1.57956571860876e-05,-7.87453354936463e-05,-2.11396903114172e-05,-7.20551432302743e-05,-7.46159761531871e-05
-4.04021129859771e-05,-2.01901562949262e-05,1.06812372525931e-05,-7.13727078192736e-05,-6.15174285099964e-05
2.74085708833903e-05,2.22698903882992e-05,-4.29184724251223e-05,2.73892056991632e-05,3.54520153213472e-05
1.0718092010675e-05,0.000108151933959335,4.21942158221906e-06,8.11239474974167e-05,0.000142414374067477
-4.24000868247006e-05,-6.77443763950993e-05,-5.10635546493032e-05,-4.34788760760484e-05,-9.31665304563444e-05
5.41241374106635e-06,3.02577227240311e-05,6.90866873214119e-05,-2.99234274109696e-05,-2.00345937377342e-05
-1.04516394102706e-05,-9.89223401328065e-05,3.16291407346687e-05,-5.01470559469098e-05,-0.000168039041836179
-1.70715757517804e-05,-1.80396095277426e-05,5.41935151095795e-05,2.59661869220682e-05,-1.63687674168223e-05
4.65476068088303e-05,1.8638052807773e-05,6.08018704999858e-05,-0.000122018111753737,-7.1387937969895e-05
-5.04749216719733e-05,-9.91783197055251e-05,-2.899063689763e-05,-5.91613864046743e-05,-9.87447031575418e-05
-3.54822732926565e-05,1.63328886758016e-05,6.32268444240726e-05,-0.000108008601005919,-2.90343412432614e-05
2.70540518390045e-05,-4.85325144629574e-05,-8.81008118557309e-06,-3.53657424687473e-05,-5.54430315669322e-05
-2.65610727573396e-05,-0.000109736334175187,-7.41760992122603e-05,-1.14253042500848e-05,-0.000146176800332572
-3.68401305549897e-05,-0.000102179281408944,0.000104510396232154,-0.000203820495248103,-0.000144547133894699
-2.45073172132086e-05,4.37717901558981e-05,-3.58544361779722e-05,-3.1881905333735e-06,-1.10581928059821e-05
-1.7529618571998e-05,-4.7661526777209e-05,5.96923826184785e-06,2.74362540715201e-06,7.95857398609079e-06
3.88813866449822e-05,5.46131090701611e-05,-6.87179475918544e-05,0.000175158608419829,7.10719344140881e-05
1.30306008855183e-05,0.000103051499147969,1.81933445594209e-05,-6.62441460967601e-05,0.000111033950051633
9.84369753052638e-06,9.36194370766663e-06,9.16296217382996e-05,5.22099772830035e-06,5.26382228791331e-05
-8.38914256272563e-07,-9.72970943507503e-05,0.000129193907035903,-0.000142656730641319,-0.000120411635063881
4.24447938838081e-05,0.000154681143287501,3.55338678429452e-05,1.72397975636153e-05,0.000180886904836694
-4.22896991564121e-06,-3.71736885161091e-05,-0.000110666064314788,0.000123052562671847,3.94457595651889e-05
-1.91647102309147e-05,-3.08269741067168e-05,0.000114629826458049,-0.000159544181413178,-5.68111414263723e-05
-2.46531085703067e-05,2.37383565482854e-05,-2.01078681329931e-05,-4.30738179533974e-05,-6.85425333046951e-06
-2.97344586827321e-05,-6.55675807201022e-05,-3.23578194694426e-05,-3.79735857401443e-05,-9.24992997194379e-05
-9.3393824943992e-06,1.523320648781e-05,1.11485660228413e-05,3.03265324547613e-05,2.14565721045636e-05
5.5052970188859e-06,-4.16467079497276e-05,0.000158641581858246,-0.0001855819331079,7.47211962309159e-06
-2.2902078442553e-05,-4.25327016240896e-05,-9.00134672707931e-06,-4.03301912311444e-05,-6.23178284533496e-05
-2.82222072213916e-05,-1.27794579867756e-05,-9.33563774632485e-05,4.63803728890394e-05,1.29884024541067e-05
9.34668539839063e-06,-8.11087957431911e-05,0.000128604946744923,-0.00024827559848274,-0.000188771164883841
-2.6691566406371e-05,6.00805488904252e-07,-1.55642006241475e-05,2.34045711366798e-05,4.68592756350253e-05
-1.31898048389035e-05,3.81428459678225e-05,0.000103392048351502,-2.03051477533489e-05,0.000111645916954163
2.05656506107737e-06,-9.23263420044565e-05,-2.75686891408133e-05,-1.03012061252941e-05,-5.36746203998629e-05
-5.32148750744746e-06,8.0819007191816e-05,-3.02963295259548e-05,-4.68072280373128e-05,6.23639004807608e-06
-2.74817348355035e-05,3.41365758485385e-05,-4.86902561025604e-05,9.99819648806698e-05,4.31852366954003e-05
-3.96154542609354e-05,-1.47330151824382e-05,-6.67589875207784e-05,2.03162349376171e-05,-3.94852286358333e-05
4.71167403155188e-05,1.07375832059582e-05,-3.81938121046215e-05,5.81895888611288e-05,-1.77920633795902e-05
7.61673694507083e-06,9.06814828460945e-05,-0.000122744065845294,0.000237740558305762,0.000135363923746755
1.68079263868868e-06,0.000116537233814867,-6.99776136112063e-05,0.000151500535581841,5.25477065912444e-05
-7.96003186277687e-06,-7.40911921973671e-06,-3.55588119021272e-05,-2.96644199411197e-05,-2.15565822698394e-05
1.65329860980878e-05,-1.49013230237324e-05,5.56322586688473e-05,-5.68443490298818e-05,-4.0830734536216e-05
-1.63493756831616e-05,4.13507673426561e-05,-0.000109491310017463,0.000123109495001152,4.72295519831171e-05
-4.43674718807858e-05,-0.000131624864167432,-6.99793788363368e-05,3.57961260283439e-05,-0.000112755331599241
-7.69502307983361e-06,-8.08475183464784e-05,7.26203670409626e-05,-4.61845375083359e-05,-7.30598113234148e-05
1.82906188703436e-05,7.80942477528357e-06,2.33398441234133e-05,-7.96697911270217e-05,-5.02593392428734e-05
4.31395612742857e-06,-5.96491478819411e-05,4.60809891399972e-05,-6.66554539434239e-05,-5.89881878358209e-05
-2.61608331687612e-05,2.54336213492623e-05,-8.57862766425679e-06,-8.79710181285228e-05,-1.99272580599818e-05
-1.1166052611659e-05,-0.000110786709383615,-5.94964839202715e-06,-1.42342886089539e-05,-5.88934882338632e-06
1.59144461943994e-05,-4.99884506107878e-05,-3.73405088317729e-05,3.87507996117161e-05,-5.63691613357608e-05
-2.02564198668426e-05,-9.56210848707056e-06,3.47813450693709e-05,-7.73218954392738e-05,-3.32535491717841e-05
1.78877968462662e-05,-3.23450184549398e-05,3.5874904986251e-05,-0.00013679102836585,-0.000122349531325198
-4.45982500074195e-05,-3.09988511510356e-05,4.82955481513875e-08,-0.00010950803107685,-9.84499305032778e-05
-4.59966798919771e-05,2.89770682617796e-05,-3.76574988602627e-05,7.73352465191129e-05,4.4652513555382e-05
-1.48034236898127e-05,1.69327276619352e-05,-7.65853512504878e-05,5.27993442649608e-05,3.36749372597153e-05
-2.80688200917373e-05,-6.70909041799118e-05,5.1219805485365e-05,2.5887133492725e-05,-2.96135121932956e-05
-5.30012316749369e-06,-3.97449175692369e-05,-7.88405598292945e-05,0.000132381495230728,-2.96639310818371e-05
-3.88715260824953e-05,-0.000117339504905488,-5.79154747649899e-05,6.57735274612612e-05,-2.84647536306188e-05
-5.63043488319742e-06,-6.22751601814127e-05,7.99823680239969e-06,-6.38330115488825e-05,-8.45736544898612e-06
1.02885585048008e-05,3.68792459413188e-05,-6.83306906599064e-05,0.000202011215646359,0.000141513224481354
2.56016588380129e-05,-2.86923600011895e-05,-5.41663431535514e-06,4.17592095720158e-05,4.53701710540828e-05
-8.23467985126385e-06,-6.57290933062986e-05,-4.32264337017903e-05,3.00592954733299e-06,-8.76625321506918e-05
-1.8988284971844e-05,5.92679549113548e-05,2.69856001265614e-05,1.13643936628939e-06,0.000131997926502092
6.27170023317343e-06,-9.78168743088525e-06,-6.31107272012476e-05,0.000113974060344552,3.46677478947283e-05
1.20275278394419e-05,-1.63570846425408e-05,-3.13672918358928e-05,7.40191839182378e-05,-2.69239280105776e-06
4.20966569455084e-05,7.97841163618037e-05,-1.7761749568993e-05,6.1317229937795e-05,6.53019887820858e-05
-3.10902854810921e-05,-3.53291406209766e-06,1.1960970864217e-05,-7.4444290427274e-05,-2.53224005213703e-05
-3.61542203639723e-05,9.67639577183466e-07,0.000106725632588633,-0.000133053147638281,-5.18111084208254e-05
2.551096929499e-05,4.60359684654769e-05,6.27179540396404e-05,2.25552034733273e-05,-1.27504370313238e-05
-2.43726916404259e-05,-6.28637816951449e-05,-9.90521509496121e-06,5.00880802442634e-05,-8.49099372507391e-05
-1.48957429162787e-06,-1.16594387449055e-05,-2.86354795550175e-05,-4.34798680138356e-05,-0.000127612478920944
3.67806697270143e-05,5.12413968810535e-05,6.44325139885035e-05,-0.000145775357462551,-1.31632498398255e-05
3.90046920587983e-05,1.54537371457724e-05,1.66564578700012e-05,-6.18649387648305e-05,2.38801660366925e-05
-4.51277796123271e-05,-4.02390294713683e-05,7.65422929485483e-05,-0.000106716747292071,-2.98026211859247e-05
-4.13251918893857e-05,-3.79231357656587e-05,-3.23569529476997e-05,4.84298440838799e-05,-5.35829811216761e-05
2.32028957922242e-06,0.000106605014096518,-6.97598724615698e-05,8.24116720684518e-05,9.73573685985077e-05
-9.43726513526966e-07,-9.4442214327518e-05,-5.87646612838218e-05,5.96767544507474e-05,-8.21432486916264e-05
4.90324637151273e-05,4.46726325798886e-05,-9.9695809582001e-05,0.000158522774478079,3.71112186876164e-05
-5.05690143602626e-05,-9.40622853741951e-06,-1.03473708176628e-05,4.28749505736722e-05,-1.78578264362805e-05
2.28669002492839e-05,-4.31200402490446e-05,-1.71199417085021e-06,-6.46730626763965e-05,1.19696649718605e-05
-4.63163326142456e-05,7.75689732485155e-06,3.2711556388281e-05,-8.08401970486788e-05,-3.42409784811147e-05
6.97324898414267e-06,1.35729887382283e-05,-3.619612558927e-05,0.000190824417422558,0.000147735904463069
3.87288821455025e-05,0.000127778714846784,-8.08224009218614e-05,0.000192221331782346,0.000247855854775216
4.51874626491637e-05,-1.74911760578414e-05,3.07076241419998e-05,-5.57021237969007e-05,3.47090757944426e-05
-2.04385111025196e-05,7.79187805692015e-06,2.94942373211896e-05,-0.000149917329829469,-3.18739169404759e-05
1.44637551260049e-05,-0.000131496608022035,8.14304475814961e-05,-0.000139341124791673,-0.000170256705173802
-2.53042312585486e-05,5.8540150405511e-05,-0.000136706990080874,0.000239049872541962,4.03622563667254e-05
-2.48509218092762e-06,4.52935879514633e-05,9.99119319921895e-06,5.14694811233937e-05,-2.2602399108063e-05
2.23994235900877e-05,0.000110362671802561,-0.000133694323419471,0.000181219335919792,9.1624872928952e-05
8.33834552749542e-06,-2.60407082856519e-05,-0.000116304734056639,0.00012240240601641,4.68903913584947e-05
-4.51865626814515e-05,-3.83643868452184e-05,-1.0059031934985e-05,-3.52191271599883e-05,1.00937174867416e-05
4.14406169643627e-05,4.49618974448035e-05,8.67692891992278e-05,-0.000152210136390367,-6.87621422224652e-05
2.97290384401044e-05,3.56423652199072e-06,-2.89697756854281e-08,9.68709758234397e-05,0.000117045122261126
3.15207396392927e-05,7.13587958524644e-05,0.000158509944629653,-0.000129459432455485,-2.17345177327621e-05
3.78163733060131e-05,7.12182118515227e-05,-3.88312220941973e-05,0.000147357481127032,9.82604688508085e-05
1.38969412560398e-05,-8.54687028312529e-05,-5.55316909685884e-05,-7.23287352640423e-05,-0.000102189226452672
5.87748286879073e-05,7.21553523852584e-05,5.30071017177159e-05,4.07802935066612e-05,5.91753608564492e-05
6.40482329902062e-07,7.29053124193517e-05,-3.80423377120842e-05,9.91093371577795e-05,0.000112303641200543
1.40087697280495e-05,-2.08354355269713e-05,2.11722379639983e-05,-4.31193171395573e-05,3.2610022414344e-05
-2.20157618238781e-05,3.54764327678003e-05,-0.000125126627545525,7.97996961398642e-05,1.93950200137601e-05
2.38908521551744e-06,7.06356352477149e-05,6.96055762736342e-05,4.61131028162515e-05,5.45117491591859e-05
-1.49071049252059e-05,-2.00389017547765e-05,-4.33243279915107e-06,-6.06391560964258e-05,-3.86248492374513e-06
-4.79792226905334e-05,6.35470034807703e-06,3.26379453332075e-05,-3.21708238648167e-05,1.32398194753355e-05
-1.19762367215004e-05,7.3492920542235e-05,-8.03346860981857e-06,-8.48397230028611e-05,1.81326234119141e-05
-1.0941628704145e-05,-7.0771518090045e-05,4.487668682585e-05,-0.000140868755375458,-1.48045592222056e-05
4.1192992368995e-06,-2.52339933578127e-06,-9.06336312431142e-05,0.000118276445707535,-5.12821420805037e-05
3.39754100765449e-05,6.49383019019558e-05,2.71892676370071e-05,1.02050780381136e-05,1.97966493847192e-05
5.63712915060369e-05,0.000100148311901662,4.85557808718109e-05,-4.33912242098959e-06,1.55432777894258e-05
1.19672727731157e-05,9.0268160202537e-05,-2.12276675879608e-05,5.0072979245716e-05,3.46595277425943e-05
-1.20101485224573e-05,-1.41817271848384e-05,-0.000119711186564167,0.00014819459518913,6.45077431086145e-05
-2.23672205666739e-05,4.73672348116557e-05,-7.28640046335261e-05,8.61666990268156e-05,1.33501859492188e-05
-5.11487862503769e-05,-5.69773959497684e-05,0.000112517591132873,-0.000171291912146241,-9.56402276000632e-05
-1.36522013505454e-05,1.14494617500579e-05,-3.03060438754473e-05,0.000137666846487853,4.85524846811247e-05
-1.80942723833436e-05,5.06364558160812e-05,4.7159272015698e-05,1.76590463718297e-05,3.44576833371947e-05
-4.16943853788716e-05,-2.88266212084556e-05,2.29781245469187e-06,-7.43433605959966e-05,-0.000115667860040057
4.63182333659165e-06,-6.24337073370942e-05,1.8783222321606e-05,-9.0040992998864e-05,-9.24712803081047e-05
2.87560902321344e-05,0.000154339093908447,-3.27564957653663e-05,0.000135698226407018,0.000143604927902147
-4.56052456877555e-05,-3.73465212273236e-06,-2.14000927051309e-05,-6.71327191772226e-06,3.33221166991617e-05
-3.56812327854077e-05,-4.90237925295455e-05,2.02568328623969e-05,-5.76614870083372e-05,1.73232157344285e-05
-2.11073082453441e-05,2.75509680016981e-05,6.04936959372164e-05,-8.28336305065058e-05,-6.79010030431903e-05
-3.09505522854314e-05,-2.84971992031086e-05,4.04390114110593e-06,-9.75399063307106e-05,-6.06225332045363e-05
2.99989385592752e-05,2.84573015958508e-05,-0.000117427417610919,0.000190450257563372,-3.42850174474087e-05
-2.08944885416382e-05,-4.00257443814105e-05,-1.0584580998187e-05,-0.000162264782564163,-0.000123566316944578
-2.29685117851413e-05,-7.52037756424175e-06,-3.69079060661283e-05,6.32055382816357e-05,-3.472959755869e-05
1.42115056409321e-05,4.93936532799614e-05,-3.66858421840049e-05,-1.36724852606932e-05,-3.18839141257828e-05
3.05601930956965e-05,-7.29438363248055e-05,-7.24854177890075e-05,9.58992424630141e-06,-0.000131092636992857
1.94135624923669e-05,-8.23135180142156e-06,-3.75639280940227e-05,-1.09312233165683e-05,-6.13550166444665e-05
1.73347744585783e-05,-2.72479400939109e-05,8.21174279020266e-06,-8.03606752843946e-05,-2.32447584382054e-05
1.72643056755222e-05,4.80988223373401e-05,8.67396440076335e-05,-0.000109431394977025,2.26647825932257e-05
2.32674323253778e-05,5.1108574689489e-05,-7.88027095030075e-06,6.6403191320979e-05,4.47195498089326e-05
3.15974581841023e-05,3.55146927237666e-05,7.20128165216367e-06,-8.77979302064284e-05,-3.69690697156186e-05
1.18266958897236e-05,3.26011906039805e-06,0.000125678738786581,-0.000126236787077291,-1.43740787402389e-05
3.50744040542831e-05,-6.14816570140617e-06,9.80610679021066e-06,-2.49463102624288e-05,1.13892986678673e-05
1.20438817140347e-05,-4.03671875467634e-05,2.96723648254904e-05,-7.51074849100002e-05,3.21122335080503e-05
2.88444377803183e-05,-1.94167090305837e-05,-3.06819908512856e-05,-8.31936520535138e-05,-9.93830190776646e-05
-3.81551984179751e-05,-4.96447032960573e-05,-9.68206805041476e-06,-0.000147590443329357,-0.00011676601323176
1.78274688870579e-05,0.00011664874452501,9.24338747867569e-05,-8.22404174146673e-05,0.000148747049210867
-1.72852920732342e-05,2.63295309215444e-05,-7.3986092532655e-05,1.3248489350429e-05,1.6927330220796e-05
-2.93663199821668e-05,0.000154187384505551,-0.000174314870660277,0.000376995910916822,0.000206275393989614
2.84654314704934e-05,-4.71539847515021e-06,9.38783239138192e-05,-3.56811431995766e-05,-2.41451715623267e-05
3.39145990232858e-05,4.28469487332446e-05,-0.000193346561634159,0.000222613019979892,3.69819307233856e-05
2.32278048243851e-05,-3.31442896629211e-07,-2.80939772406748e-05,0.000114110013834409,-2.01772983935754e-05
-3.52990715590212e-05,7.08117554275639e-05,-0.000151713429775966,0.000231696184309797,8.97826968653409e-05
-2.93622545278746e-05,4.65240386938078e-05,6.62612135669043e-06,4.78158909590477e-05,7.5695073829427e-06
-3.92165299378683e-05,-6.68352820813919e-06,-1.12774530256882e-07,-2.95111604258549e-05,-4.45232784850658e-05
-2.6304897409172e-05,-2.91018325825669e-05,0.000160963208748467,-0.00014559153552286,-6.80419260195501e-06
-5.14083438884341e-05,-4.5721732279753e-05,2.5030439972013e-05,-3.93678211071707e-05,-7.27649320311869e-05
1.31828211142403e-05,-7.6565195769762e-05,-1.41972311082335e-05,-1.22063056847561e-05,-0.000109054932436387
-3.63007700123178e-05,-4.69507071691238e-05,-2.39637578511913e-05,9.82971069880144e-05,-4.15431586968299e-05
1.56522720681883e-05,-7.13584242503649e-05,4.61172976454164e-05,-0.000108513400788802,-8.69123343335727e-05
-2.80765178021114e-05,0.000111394170738221,-8.65794538481531e-05,0.000173757869630738,0.000128338749279308
5.47511284334139e-06,-3.43925576913838e-05,1.73938188652056e-05,2.90644566162581e-05,-5.38005927452595e-05
-4.28321948781998e-06,4.63888639690021e-05,4.89689365716043e-05,-7.13612263645042e-05,-4.58613384517607e-05
4.48106995653076e-05,2.75894842049973e-05,-6.68215885749098e-06,2.06079001525212e-05,-1.30801677345951e-05
-2.07652942746021e-05,-2.30716629932609e-05,-0.00015201242483547,8.98127018700764e-05,-2.31224023489978e-05
-3.64313152171233e-05,-3.8402460950853e-06,-4.20316937745046e-05,4.14409762619974e-05,1.34469406028591e-06
-2.95448410753514e-06,-7.31188149206212e-06,-4.26195216132809e-05,0.000138249254068516,4.57501827570409e-05
-8.10822047219836e-06,2.96779845063616e-05,7.26920252453144e-05,-0.000155856972192995,-9.81313236602573e-05
2.55395892451194e-05,8.32735256735925e-06,7.80876847129167e-05,4.82397987982004e-06,3.45152595115607e-05
3.76856144297862e-05,2.51336677707167e-05,0.000118676462007558,-0.000131710204680963,-4.07921506704311e-05
4.64106049992701e-05,2.44142400602507e-05,0.000184294069440389,-0.000254440401721284,3.07069860041341e-05
3.61897485343627e-06,7.11637362767217e-05,4.16483071720523e-05,-5.85170362983925e-05,-4.22563156402248e-05
1.24971672873089e-05,1.43003064131993e-06,6.27313962542324e-05,-0.000197495985855839,-9.47499107697702e-05
-1.19072015900028e-05,-9.64975569345595e-06,4.09672688655817e-06,-3.18869704979735e-05,-2.94555222025415e-06
1.8747743636529e-05,-8.85164136505138e-05,-3.65600844282655e-05,2.94602987231244e-05,-1.68059235370666e-05
3.6152971556932e-05,0.000140021527886414,2.66949096297014e-05,4.49860376497442e-06,3.21139025608149e-05
9.43082584063904e-06,-6.47710240904832e-05,-4.04317368514875e-08,-5.79686293646544e-05,-0.00011165521507161
-7.16168464726248e-07,0.000106363246231298,2.27112270094458e-06,0.000112252026904275,0.000190780464452711
-2.18246249723839e-05,0.000128437367579332,8.75701552326433e-07,6.82098477226663e-05,0.000188969808491071
-1.91730136195722e-05,-4.51534539410539e-05,-3.92697003992872e-05,-3.2038111426062e-05,-2.41822310787809e-05
-1.42101524818011e-05,-0.000113980821827681,-7.45777769834512e-05,-4.45202205624094e-08,-0.000162810309139891
1.42773382920926e-05,-7.0304484699118e-05,-5.09909528529284e-05,2.95754964760506e-05,-8.49719197710758e-05
1.22507500244929e-05,-3.71626915476978e-05,1.01404882955203e-06,4.23152317527473e-05,3.09602165104206e-05
2.99303891322397e-05,8.02530995691999e-05,-2.8153685500274e-05,9.87215425627438e-05,-2.04733831615505e-06
-4.88435599827199e-05,-3.64799928385171e-05,-4.76939693697356e-05,-1.24044688553355e-05,-4.95010834722043e-05
1.85541727759091e-05,6.42875652348972e-05,8.6787006911021e-06,9.20745967672481e-05,2.83742252089967e-05
5.20448014176009e-05,7.97239881743733e-05,1.3376764574125e-05,4.55905151453927e-05,3.37855040903043e-05
4.01438295293419e-06,1.76327630021042e-05,-9.16568261524051e-05,9.06175721131065e-05,3.66961545586161e-05
5.93870264362539e-06,-6.2968298765656e-05,-4.37288508906128e-05,-2.78163526365468e-05,-3.54043694064957e-05
-1.08256142494859e-05,-7.28389852181737e-05,-4.62175496930526e-05,0.000113439464627168,4.85549211741464e-05
4.65893938532958e-05,0.000131836925300191,-2.31196427199359e-05,-4.60160678246578e-06,7.63858082137257e-05
8.45332124933106e-06,-5.88686676397624e-05,4.26890317338177e-05,-0.000133874190645354,-0.000126892434392197
1.76211439828647e-05,8.48110016042032e-05,4.25394194767167e-05,-4.16539624330287e-05,0.000152256253655822
1.79027518892997e-06,-0.000113608505039164,-2.00860100440371e-06,-5.16145957981415e-05,-6.23899242722744e-05
-2.943188027548e-05,1.34199061271772e-05,-5.89843718060845e-05,3.15189715886825e-06,-6.93368132584279e-05
5.75326590551668e-06,-8.09776350486692e-05,9.56322808511232e-05,-5.75503674887193e-05,3.23596635430808e-05
4.3581255295352e-05,4.50382852913711e-05,-9.15822683722153e-06,1.67976845884345e-05,1.8425056297964e-05
-8.76308498032742e-06,2.89060847104902e-05,6.71961375280413e-05,3.41143145742005e-05,3.05514985946416e-05
3.51924042198366e-05,4.58782835050337e-05,8.74638579337928e-05,-1.10708516179699e-05,0.000105858994076767
2.1851171145192e-05,-1.54198190319192e-05,-2.23338104518613e-05,-4.63149427616465e-05,-7.1285269718622e-05
3.80773628877503e-05,3.74977792408061e-05,-6.40768330015245e-06,9.73093796115925e-06,-4.55884652598013e-05
4.09929168602336e-05,6.74510809688324e-05,-2.10135677168924e-05,0.000107518614660741,4.67669332101561e-05
1.92233360505269e-05,9.40256053219765e-06,-8.73736464336223e-05,0.000131309937452057,3.21433071652694e-05
-1.9823707907007e-05,2.91894668290477e-05,-3.31330726126665e-06,-8.00570621320014e-05,5.58690609772293e-06
3.51187252286511e-05,2.0920281674671e-05,-4.38686415618605e-05,-5.15884046991828e-06,-2.05793112202435e-05
1.21225042156535e-05,-3.07892763442498e-05,6.89687721750626e-06,-1.99874072559368e-05,-9.30343908783498e-05
-1.68869716754339e-05,-9.62834996389989e-05,3.44562156782902e-07,-8.20499071798154e-05,-5.24452285471477e-05
-3.15476533920346e-05,-7.55785788567165e-05,-0.000126209983630503,0.000169037877214359,7.16629373296247e-06
1.77055684101582e-06,-3.01190251264409e-06,-2.29538963901505e-05,0.000102104055450584,3.8456265313196e-05
3.52481546533626e-05,5.83169417022781e-05,4.66875287563715e-05,7.61782045252978e-06,3.23845452358096e-06
-2.35681323740974e-05,6.63204750195821e-05,-1.73164097487738e-05,3.47059779932866e-05,1.44864907029815e-05
1.82171262619411e-05,2.33600113007423e-06,-2.51818255275151e-05,1.84855631191753e-05,6.01730759429142e-05
-3.03623068817451e-06,-4.87478018654001e-05,-7.73116896479638e-05,3.39745731203511e-05,-7.81538343285174e-05
-8.4022418560096e-06,-1.28583586572654e-05,3.34807748670455e-05,8.17835908770331e-06,9.44214954925207e-06
7.10206981515344e-06,-2.41095481824754e-05,-3.58856867714455e-05,4.50249171985264e-05,8.05889261384546e-05
-1.55339074986565e-05,-1.33991835885628e-05,1.50214014392765e-05,-5.35533378525411e-06,6.8177544862829e-05
5.64281066222502e-05,5.79884413121663e-05,-3.79477889206691e-05,2.96896128768403e-05,4.34692931919733e-05
2.02763309846374e-05,0.000107819870638955,-2.14352349805042e-05,3.97404213013267e-05,1.08015795436914e-05
-4.62403159981441e-05,1.10254670556712e-06,-5.24724049426291e-05,1.98384224860016e-05,-5.53705894276092e-05
5.26339914290249e-05,7.05932708470939e-05,5.76291555839204e-05,-8.88366850717896e-05,7.69465644887619e-06
-3.83633868084138e-05,6.0901671939915e-05,-1.62351033112271e-05,1.97520587977465e-05,8.4411420817817e-05
-3.01308470667424e-05,1.80056257236589e-05,2.33947344943924e-05,-0.000101879336828711,-2.10027251092342e-05
3.58242521240472e-05,4.83722064280557e-06,-5.43944022655081e-05,4.79996543863792e-05,-3.90441527291045e-05
-2.01830911304403e-05,4.79672295189768e-05,-4.57007390007057e-05,0.000131327049759696,8.58054531033725e-05
-4.40415058286372e-05,-3.08062097031034e-05,-4.16547636980849e-05,0.000110357915237395,2.52240536969705e-05
1.00216298984733e-05,-7.18836350640326e-05,-3.49081771428587e-05,-1.40308387879718e-05,-0.000116458106969617
-2.56428037526925e-05,-1.24852471213048e-05,-0.000108532653723918,0.000127045584248832,-2.02677243000249e-05
1.66175652682626e-05,-3.15247053041252e-05,4.33717657719845e-05,-9.7071066423258e-05,-6.49976106552463e-05
2.97638077791284e-05,1.38968846803485e-06,3.0166683389441e-05,6.71186663106461e-05,7.53645327415489e-05
9.57473251215761e-06,2.27639337723365e-05,2.26070067348546e-05,-8.71832482811125e-05,-3.59935171148778e-05
1.20224810904804e-06,4.06381096118046e-05,0.000114557903626469,-0.000172053217402036,-6.93091905062934e-05
5.19846761384262e-05,2.12927844537024e-05,4.71185430641806e-05,-3.01067208873884e-05,-2.23197790763574e-05
-3.13457328367423e-05,-6.68506249189334e-05,-3.15302375750919e-05,6.61074530652741e-05,-2.28741843827236e-05
-4.34932504383255e-05,-0.000107537828346927,-1.22542912700761e-05,-0.000106036966377721,-5.7879343549913e-05
3.72371324732477e-05,8.90708532411121e-05,-9.51877119047786e-05,0.000171203945602285,4.72136218071159e-05
-5.69151418261987e-06,1.23057375864397e-05,6.95306677273771e-05,-4.74678248239746e-05,9.15201788133221e-05
4.86652269278226e-05,0.000104354639723833,-1.04982722661292e-05,6.14056133007392e-05,2.84797058266279e-05
-3.64628413947349e-06,1.1616625102753e-06,-7.48075756815528e-05,0.000219460377125068,9.07323203562881e-05
-1.11528009876745e-05,-4.71719788954834e-05,2.31720776698456e-05,3.64296303378236e-05,-1.69603259311801e-05
-1.94868559034728e-05,5.26451070762873e-05,-9.84654118118575e-05,0.000138976634911573,6.8451466300552e-05
-1.06053302676529e-05,3.83932897116984e-06,6.30260255256679e-05,-0.000107461996195285,6.0169947500022e-05
2.36930930523031e-05,0.000112515614805015,6.16333998098363e-05,-8.80264079463903e-06,2.95699919329817e-05
3.1276088570114e-05,-1.44540135666892e-05,-5.78207676960839e-06,-7.02074545350265e-05,-8.12377511754573e-05
-3.28214721688176e-05,-3.45090998282426e-05,9.08514328189737e-05,-0.000187139895357614,-5.45833229901897e-05
4.94188521996337e-05,0.000101817493385963,-1.58429541913697e-05,9.77583625896683e-05,6.8719663431266e-05
-3.85739015521698e-05,5.57091958701013e-06,-4.76132831185086e-05,-9.54203880491074e-07,-4.76146954501975e-06
5.56964580056103e-06,-0.000154346849652898,0.000109019025815408,-0.000163008746146134,-0.000166619224407881
2.37381449722979e-05,-5.94613516131834e-05,-6.40429450752032e-05,1.02103837593979e-05,-0.00010599011321079
1.76000196720868e-05,1.78962690265299e-05,3.5026645954749e-05,-7.22012874440115e-05,4.26799597400332e-05
5.48405606079204e-05,6.00913670726256e-05,-3.89113667696769e-05,5.91176759470477e-05,2.73531435976198e-05
2.15790218289424e-05,-6.19261440274238e-05,-2.45139557847847e-05,5.28270773090793e-05,1.92264741243178e-05
-1.59956325388171e-05,1.92771283577128e-06,-2.46774412121497e-05,8.35534835222274e-05,-2.06861083903096e-05
-1.60222815605041e-06,-8.65508025602488e-05,2.33778274077225e-05,3.62653197248047e-05,-6.27760702100081e-05
-5.18845796932206e-06,-1.7685392224716e-06,-7.84515030898827e-06,2.95044758596776e-05,-3.21486336346582e-06
5.44738374581043e-06,-8.70717561678432e-05,3.49086984614187e-05,-6.96631299284061e-05,-2.08982824735275e-05
-2.82262056558311e-06,4.87349476309662e-05,7.34919953968386e-05,-8.72998808751908e-06,1.80178397734134e-05
-5.03172539483306e-05,-3.3728835861046e-05,6.72707236602183e-05,-0.000114364675626185,-5.85172608595224e-05
-2.4414655892708e-05,4.52680937686638e-05,-8.19685102158127e-05,0.00011973836309409,1.90633878945207e-06
9.45337740559224e-06,-4.89546680626214e-05,1.19054794753351e-05,4.7588077319807e-05,4.79468342806464e-05
4.34316460521318e-05,2.85340686201403e-05,0.000110551890566946,-0.000124681530454652,-1.01495292066624e-05
5.25093980276711e-05,0.000272395614422692,-0.000108498369953999,0.000297590491607954,0.000356912124761583
-2.555572774033e-05,2.65437829322786e-05,4.1733804993507e-05,-9.38196583088417e-05,2.32804609695216e-05
-1.08332708793804e-06,0.000121005950644661,-6.88863999802718e-05,0.000203226332556442,0.000227209130532532
3.25157623506459e-05,-3.12570223334383e-05,5.13005711925175e-05,-9.84262284388984e-05,1.81694007067871e-05
-5.54625650598529e-06,-4.71742022397083e-05,2.76616386491734e-05,-4.8153455405418e-05,2.16110173305344e-05
1.03860956210798e-05,7.70816657975856e-05,-6.75627017908822e-05,7.06926782803123e-05,-4.81712520187055e-07
2.90453485082434e-05,-8.36857194419304e-05,0.000152669420713554,-0.000303140121530269,-0.000168571105914782
-2.21474657267875e-05,2.54417460862136e-05,2.59036937579413e-05,-1.35905764071295e-05,1.77969752418123e-05
1.77436093437141e-05,5.65859167937294e-05,1.17883498096272e-05,-2.25126860184056e-05,-4.93296524726414e-05
-8.75820236112782e-06,-7.71462094538462e-05,-8.09144573933926e-06,7.33874215820291e-05,-6.8723025483183e-05
-4.33710677072419e-05,9.16708732191424e-06,-9.99211792149411e-05,7.71407890354136e-05,-2.67469814874931e-05
-2.44398679426301e-05,4.85353497250968e-05,-5.8067905543834e-05,4.90427791439638e-05,6.00180890341629e-05
5.13166225351824e-06,-5.42693892178078e-05,2.83834795869849e-05,4.57703629899736e-05,-6.09276373263134e-05
-2.74619032390997e-05,-7.72032383758787e-05,2.54891444648568e-05,-1.82487588858809e-05,-8.81524296056209e-05
-1.35053717647945e-05,-8.32428753644542e-05,-6.45602303785086e-05,4.40821441149452e-05,-5.27434756359413e-05
7.77544234220461e-06,-9.4401279550799e-05,8.01098166118747e-05,-0.000174433729413614,-0.000143497209221625
3.45963242986725e-05,-3.95580604515432e-05,6.6062041852898e-05,-7.55904043618508e-06,2.5550356697422e-05
-8.03754287267636e-06,3.95530461982236e-05,-3.5944297499812e-05,0.000162311024443074,5.34110056118627e-05
-4.00328992128425e-06,-7.99072884274093e-05,3.45976152873033e-06,-0.000101587808659372,-7.0901735044144e-05
1.42551579273173e-05,-9.40050948237874e-06,0.000105558726551242,-8.04214954676955e-05,-2.21049030797227e-05
1.24391697910858e-05,-4.92680023714811e-05,-0.000143562626022329,0.000129014146622577,-8.85602981431699e-07
1.43026968620019e-05,-7.06692709833763e-05,2.51135378798987e-05,-5.44317792125822e-05,-1.73074709393283e-05
-5.64757755127252e-05,-4.5109449437372e-05,-4.57684389077668e-05,-1.89080280160313e-05,-7.95025330628261e-05
-2.63832147496506e-05,-9.0967015554928e-05,9.57152971316853e-05,-0.000250691727654288,-0.000148402332659182
-3.51704372361672e-05,1.65839470186109e-05,-1.09676796391466e-05,3.52886657446008e-05,4.87526022234686e-05
-2.34706667889661e-05,-4.39924118522077e-05,-0.000123477600244697,0.000143571019417875,-4.01561515475272e-05
5.25263694161512e-05,0.000115026525673598,-0.000160630252105929,0.000343539390738984,0.00013535141523685
-2.1673080991054e-05,-1.41124754048124e-05,1.02457799040213e-05,-7.62891548788023e-05,-3.42104366288195e-05
3.28702905208135e-05,-3.94174255991716e-06,-1.91731863337206e-05,-2.06645711382864e-05,2.65527057001282e-05
-3.93642783445447e-05,7.90432897129619e-06,-5.27452372815031e-06,3.32129836891975e-05,4.19552971272511e-05
-1.4607895388508e-05,-1.55935797706401e-05,6.67503818493217e-06,5.12046168094462e-05,3.53571615345403e-05
-1.60109671519985e-05,-8.83371959723861e-05,0.000142891732676321,-0.00023696884543501,-2.59238783239004e-05
2.83316674734693e-05,-5.13183132312528e-05,-4.6416318008306e-05,4.06306539154435e-06,-9.13972736924e-06
-9.80363265635596e-06,6.44637884444301e-05,3.75077304455044e-05,-8.31058372726648e-05,-6.58783590058776e-05
-5.32483201667806e-06,4.92172618431576e-05,-1.31716840239911e-05,-3.08262391182738e-05,4.28898474321515e-05
-2.6491050874198e-05,-1.33699394159493e-05,-0.000114250530645886,0.000121054516063655,7.9782870039562e-05
1.18834137790408e-05,-9.51093475245695e-05,2.37517111117672e-05,-0.00016072941329852,-0.000101640021575363
-2.88904846646274e-06,-8.57972227440719e-05,0.000106267548183332,-0.000147190923469749,1.17433679357628e-06
1.41864897795285e-06,3.07995897422667e-05,5.92934136687683e-05,-9.21257464924738e-05,3.37563776010621e-05
2.13859892244556e-05,-1.26632306025754e-06,6.63802257778214e-05,-0.000146760858194507,-0.000139087006390252
-2.23832080878918e-05,2.06869848991116e-05,6.19529092557159e-05,-8.73931316637423e-05,-5.5697225785537e-05
-4.932533963429e-05,-7.17646057111941e-05,-6.56988734020528e-05,2.18929218827748e-05,-0.000120140441705695
1.0697321727756e-06,-4.21165041938086e-05,4.88424675782114e-05,8.35507489213709e-06,7.29175122813378e-05
4.84651406910016e-06,7.51087530196491e-05,-6.86421257794725e-05,7.02937999549038e-05,-2.72998642066631e-05
1.37497946764076e-05,-3.14264070569499e-05,1.89052182346768e-05,-1.4405355882212e-05,-0.000101876686291825
2.89229291248046e-05,6.18500470701625e-05,1.38179809280939e-05,-6.2177118217737e-05,-4.50152075891549e-05
1.56077233708291e-05,-1.93234039733245e-05,-2.67535843417371e-05,6.04215220751199e-05,4.95536633462021e-05
3.18068896791412e-05,0.000112187323394997,2.3170175831786e-05,5.92749584255736e-05,5.15195264337767e-05
2.95259067268534e-05,0.000101757336623539,-0.000115523807570885,0.000230128191551095,5.41829884882817e-05
1.54196370014202e-05,-2.72769149247852e-05,-2.31051703778823e-05,1.81264741560343e-05,7.53895866199988e-06
-3.90923381649451e-05,-6.88070908098042e-06,1.944777832665e-06,-3.31079431748059e-05,-6.47832762332425e-05
-1.71981973869907e-05,1.62584006190433e-06,8.31999997283368e-05,-4.27411564456124e-05,3.61320365040004e-05
2.81141280635245e-05,-3.97009424070234e-05,5.02527841612438e-05,-1.80947320881421e-05,1.43694633056454e-05
-2.5581846009597e-05,-6.35332638002671e-05,-3.47328753478276e-05,-2.09275621746398e-05,-6.08697163475908e-05
9.06117126290574e-06,8.12873888353434e-05,2.46416596634916e-05,5.95328929435447e-05,-1.35975530502133e-06
-1.04648275028563e-05,-1.49220486518967e-05,0.000142075114991576,-0.000143137725611925,5.79753309606139e-05
1.15492036893969e-05,-6.65237603680084e-05,0.000107467631265244,-0.000139494080977759,-0.0001144741525129
3.41274555474992e-05,5.45391228734325e-05,9.75957335901303e-06,-3.46485415763556e-05,-1.34309964556277e-05
-1.53538382609385e-05,-8.21442898818112e-05,-6.08831820648466e-05,4.36097845676223e-05,-8.04494105598939e-05
3.58292863452423e-05,2.34425280447503e-05,1.82057589136916e-05,3.4250659850272e-05,-1.02491300815293e-05
-2.08897695922135e-05,-8.46363081661602e-05,-1.37291248735803e-05,8.22733073077344e-05,-4.85880138745667e-06
-4.35616754745121e-05,-6.75761437017712e-06,3.50582236496015e-06,-4.35685428902403e-05,-3.14858193192676e-05
3.07940838312013e-05,1.86475992582887e-05,-3.11305126154485e-05,2.20201285714867e-05,-6.56559192436522e-06
4.72457363240107e-05,3.75827275172584e-05,8.50458746944167e-05,-0.000131610709188602,4.62851913132828e-05
2.53475256487573e-05,-2.27003258186863e-05,3.75158747773627e-05,-2.07933012473288e-05,4.03156517073121e-05
-2.55773974226731e-05,-6.57429938866239e-05,3.35681023290811e-05,-0.000138708837679849,-1.82147387409614e-05
3.18884974863588e-05,0.000197042872561655,5.66590113841751e-05,-1.27442521765193e-06,0.000125526261693182
9.32302664755777e-06,-5.73352630923969e-05,7.2190966123278e-05,-4.08451955867454e-05,-4.44574988875465e-05
-2.41586586838191e-06,4.09958657883511e-05,0.000196954315717349,-0.000185760452910794,2.53487228729391e-05
-2.18106446970765e-06,5.29889472786966e-06,2.29742843907996e-05,3.5516808386439e-05,2.25382431171863e-05
4.06855930428959e-06,-1.1486641733282e-05,4.82881582531526e-05,3.44407776034469e-05,8.46123987661097e-05
-4.10833532778858e-05,-4.05357387595606e-05,-6.81446718856634e-06,-8.38652287879788e-05,-4.79450371244327e-05
2.55779938180131e-05,2.15774845924004e-05,2.10698968172631e-05,4.46931520933912e-05,2.76710351830445e-05
-4.0236996718363e-05,-7.36824537796262e-06,1.82686568010222e-05,-8.49977362845175e-05,-5.99923617314735e-05
-2.51314100733302e-05,-7.63806122754931e-05,-4.42577863187042e-05,4.21268294121825e-05,-3.67244274977038e-05
-1.68026320713171e-05,6.92913284623382e-05,-9.08261536805026e-05,4.72780945065077e-05,-4.84755887083058e-07
7.1719725724337e-06,5.18546120922467e-05,6.03241045510052e-05,-4.56946881734336e-06,8.53943398107639e-05
-3.38962650572337e-05,4.2425137368968e-05,8.8540495668189e-05,-8.60204947652594e-05,4.071580326329e-05
3.78295016352064e-06,-1.23678279616425e-05,-1.43885281534761e-05,-3.16708655030982e-05,-7.04729741192024e-05
2.68760515234184e-06,0.000123761745276203,-7.46466682138157e-05,0.000134850233541366,0.00012806595275126
1.43196499399396e-05,-6.67376746370861e-05,-4.27765101908968e-05,8.63086621909574e-05,3.81652295368208e-05
5.78095250252942e-06,2.33637303989513e-05,1.2737458318063e-05,1.89430388541953e-05,-3.91649297186859e-05
-1.12758402052036e-05,2.03865110402156e-05,8.34149371815953e-05,-7.06424283243707e-05,-1.27516147415986e-05
-5.87216521501829e-05,-9.0156769257345e-06,-5.06524740749255e-05,0.000114649138283955,2.59123352883093e-05
-1.58861276988226e-05,1.31166425731554e-05,1.09147939740382e-05,4.05672723238582e-05,-3.42086907767611e-05
-5.96424350817337e-05,-9.94407937928792e-05,-5.4529142750434e-05,-2.79823022867348e-05,-7.7458948245308e-05
-6.79954576523846e-06,-6.05186670977794e-05,-5.09368727101109e-05,-1.38923815207271e-05,-3.80287309093473e-06
4.24977265969211e-06,4.67615092966187e-05,-7.04872275961525e-05,0.000159158861317702,7.94663877503307e-06
3.25966330506325e-05,-4.28418437588645e-05,3.64353853810119e-05,-2.30815113631524e-05,-1.92187324688181e-05
-4.07303637096271e-05,2.82629531597863e-05,-4.08038622097809e-06,3.79266019750215e-05,3.04149122660665e-05
1.74297792182563e-05,-1.7252404047378e-05,8.59779324782081e-06,1.48389234182901e-06,1.49145437518437e-05
-2.48343502292414e-05,6.67476236963122e-05,-0.000106373202122638,0.000235719141975339,0.000157759607682783
3.88429144258446e-05,6.52932554404989e-05,4.37968729685773e-05,8.24408510290891e-05,0.000121982132823316
-4.56772715630143e-05,-0.000105509984631967,2.77705892620128e-05,-0.000143648921229501,-9.07527791198473e-05
-1.64494066735237e-06,-3.54361738841129e-05,-9.1781425985308e-05,6.45618867530035e-05,4.07827979912967e-05
2.97211919397263e-05,3.48638805683518e-05,4.45719782225354e-05,-2.08657999127668e-05,6.71292745153786e-05
2.31249350216914e-05,-3.67593223981483e-05,1.00702586612392e-05,6.49640494600317e-05,2.24886428303264e-05
1.71268697715388e-05,0.000123182410079823,-9.11138402513894e-05,0.000161589224450991,5.68376960339934e-05
-2.21408282205939e-05,-2.53503778629751e-05,-3.21217279477386e-05,6.35600740031847e-05,-6.58068927270352e-06
-4.70364070051245e-06,-9.0713438903723e-05,-2.70351974742952e-06,-0.000132735684222024,-0.000147168410940897
-4.31361123569139e-05,-5.93472488674038e-05,-0.000120946769422661,0.000178572026042286,5.359584654737e-05
-2.15914912659186e-05,2.91633788428281e-05,2.67971505922582e-05,6.78758153425095e-06,1.60375442752459e-05
4.07603973942897e-05,3.52447789146348e-05,0.000113730576181414,-9.17369618861794e-05,5.57515252039749e-05
4.91519274144302e-06,-5.26913563797319e-05,-8.2859180806916e-05,0.000193057775553109,4.91227800572309e-05
6.06689195926957e-06,-6.92464103642018e-06,-6.42642185592426e-05,5.31086996595784e-05,-1.92494236227697e-05
2.81074125749266e-05,-1.94836031020022e-05,2.45858958104727e-06,7.91415001683161e-06,6.97227607139107e-05
7.98687946652444e-06,3.74474440086303e-06,-2.74894749263461e-05,4.39204473658047e-05,2.61920465304966e-05
3.48886715163622e-05,4.07957408745752e-05,-5.03413172502533e-05,0.000178514751276081,9.79659917151951e-05
-2.65065047321188e-05,-1.58393008035882e-05,3.03291223315689e-05,-8.29945349453717e-05,-4.63986078292353e-05
-1.23324975229464e-05,-0.00011003319249588,0.000119116944584213,-0.000131802534211714,-0.000109564055178321
-2.24524433313566e-06,-4.12465705279015e-05,-8.78660558485849e-05,0.000170084706984598,5.09154737344611e-05
-1.38759423852544e-05,-3.04547419281931e-06,-2.85253018230892e-05,7.6903016900633e-05,6.2539046563594e-05
-3.4443190893941e-05,5.65496464278142e-05,-1.34117216252332e-05,-5.39871186686622e-06,-4.28567391438859e-06
2.7485122297079e-05,2.67810781698844e-05,0.000109095990866158,-0.000114664176061527,-7.46084394520519e-05
8.75302231219718e-06,-6.69864452430734e-05,-2.57115599920242e-05,-5.01208476702332e-05,-1.39955922092375e-05
-2.6229588467253e-05,2.54461117848983e-06,-7.13297238531132e-05,0.000140041442877717,-1.83716371629539e-05
2.54275586812834e-05,4.06085960287236e-06,0.00014780951018088,-0.000172519054393392,-7.27322253531082e-05
1.75387341381241e-05,2.61880238460417e-05,6.69592392789252e-05,-9.27242544143682e-05,9.37221121104916e-05
-2.10816945365463e-05,-3.46720075549605e-05,-5.84140390249712e-05,8.4504024535002e-05,4.70995544586488e-06
-4.04251159543507e-05,-1.43246821264854e-05,3.07341191571604e-05,-3.09625067556146e-05,-4.3510270332665e-05
8.46993487879504e-06,-9.20911591606248e-05,-5.44459866986651e-05,5.9761505209147e-05,-3.68209815564272e-05
8.57633960956799e-06,-8.85249297854452e-05,7.7094399982042e-05,-0.000100649843535942,-0.000105589937896997
-1.8450605590738e-05,-3.0181276427224e-05,-3.19645754023662e-05,6.01336427390341e-05,-3.38122166204485e-05
1.69531056550557e-05,0.000129839882412786,3.79151106368707e-05,-2.05457859933126e-05,0.000114946827747037
-4.64001682423678e-06,-5.23982484529092e-05,-6.45877298381538e-05,0.000109543577772257,2.60481295557567e-05
1.24619046583994e-05,0.000217654762923729,-6.48041675030412e-05,0.000273992644438946,0.000316862398850561
3.77113613238421e-05,1.41957350990651e-05,7.43456978905918e-05,-0.000143778949777822,-3.42375938198473e-05
3.00656778449953e-05,0.000134751141115084,3.51681827224339e-05,5.70273812246256e-06,5.91281611835363e-05
2.29585101270109e-05,-4.53308806575937e-05,-5.58904527814326e-05,4.47720787305547e-05,-2.69566150798674e-05
-1.92862720807535e-05,1.29789707606584e-05,4.37434003614858e-05,-8.76289710343524e-05,-1.8475786799002e-05
-4.38585764997104e-05,-2.97418058970386e-05,-1.83243547803068e-05,4.56633570199634e-05,2.44352821313763e-05
2.2832830953957e-05,-5.61892313074524e-05,8.06209533882244e-05,-0.000229682834472372,-0.000139915911940746
1.21993822717956e-05,-6.90900313843157e-05,9.12325886060427e-06,-0.000108236419291721,-0.000127817391253834
6.59936562229347e-06,-0.000133834496636424,-3.74778479250598e-05,7.42240985767202e-06,-7.73785811059488e-05
1.81024254731378e-05,7.57879537835637e-05,-4.86484509327098e-06,-1.17231200760176e-05,3.23012070794641e-05
5.06374291654587e-06,-4.86067904587104e-05,-0.000128642269665038,0.000243494628676745,2.57605453073243e-05
3.49115935460959e-06,-2.83380799058417e-05,0.000107013423885529,-6.29485733347312e-05,-3.79113463459639e-05
-2.80075329119074e-05,-3.85799150304931e-05,-3.63958112781194e-05,0.000100084835733449,3.89892274274346e-05
-1.26360734899948e-05,-1.45123490536976e-05,-1.11271729334943e-05,8.53002012371372e-06,-3.67018178067578e-05
2.4493993705289e-05,3.82435581536577e-05,-1.27040070912249e-05,6.44519594828559e-05,-1.94028875455356e-05
7.52757773324394e-06,2.73643948415896e-05,-7.9415534837815e-06,0.000113647470928862,4.99794881663078e-05
3.71703273527721e-05,2.08631987778395e-05,9.1528255761734e-07,-2.1370352195303e-05,-2.35819077577713e-05
-3.85239470661201e-05,-2.54633668010528e-05,-4.59852384303768e-05,9.11391251267078e-05,-4.18843722064334e-05
-4.19937514529853e-05,-3.12374383730437e-05,-5.26904669143182e-05,-6.87333202821706e-06,-8.32191563584744e-05
-8.62785861123066e-06,4.83348417438564e-06,-7.87837880847689e-05,7.31638441088243e-05,7.243895145894e-05
4.08502417609529e-05,0.000116270963272455,-0.000102098834393765,0.000176420907572489,9.06437687968655e-05
-5.89885995196092e-06,-6.33712606329724e-05,-1.50550119073572e-05,-6.49128508199913e-05,-0.000119978828813335
-9.41206988070284e-06,3.19899438812494e-05,-0.000102526527558299,0.000148822931808935,0.000112995973948999
-1.43578598730176e-05,9.62176967527644e-05,-9.60317618965054e-05,0.00013919688384981,0.000105349723734001
-1.77048484724133e-05,-1.43769939560442e-05,3.93979948917693e-05,-2.58045632574912e-05,-1.69688420029814e-05
8.7120067199407e-06,-2.69745149239736e-05,-9.88971246792522e-05,1.10796504343977e-05,-4.69354967744721e-05
1.80211556452173e-05,-4.46146549100886e-05,9.75207246791492e-05,-8.90797995579072e-05,-2.68951061133249e-06
2.32685959839464e-05,0.0001145359066947,-2.39582605994293e-05,9.25980502290335e-05,8.8731671230764e-05
-4.61251010083646e-05,-1.39587911650483e-05,-2.33142654296872e-05,-4.53255974485268e-05,-4.8502471413066e-05
-4.02383102138823e-07,-1.47889423335533e-05,-1.75194616762583e-05,4.7413349724075e-05,5.39168856186156e-05
2.65671492689222e-05,8.85917335923697e-06,3.98062242939202e-05,-6.59470465580636e-05,0.000105980773910361
3.97544774764562e-05,6.72363014685001e-05,-2.85860828648571e-05,6.5960395667677e-05,8.50929564748955e-05
-3.61560477981958e-05,1.4212998824227e-05,5.1130377685378e-05,-4.18933126222919e-05,8.04346114130431e-05
1.87643306693948e-05,7.33008708675015e-05,-2.89623292343996e-05,6.62306732539163e-05,3.82924566425842e-05
-2.40646048920925e-05,5.0185472688771e-05,-3.31830877877026e-05,0.000152543924288349,8.70128683326578e-05
1.32928136998687e-05,2.42064605903364e-05,-1.7693917764061e-05,1.16736687733991e-05,-3.63799920380851e-05
4.45396569219792e-05,7.25321675947977e-05,3.46282437904522e-05,1.127667251559e-05,0.000172326420999153
-2.94857548461237e-06,-2.22970653805922e-05,6.26889440329194e-05,-1.41920716870394e-05,4.30801039065488e-07
3.77512365432307e-05,1.99550091254985e-06,0.000177937779840664,-0.00030374993367716,-0.000157733249556686
-1.99550941052181e-05,2.41160574822102e-05,4.53455740719872e-05,-9.82469470325703e-05,-2.85342407408982e-05
6.63588132462395e-05,0.000154096999829733,9.74955836470865e-05,-3.0335298580902e-05,0.000167524415130498
1.13862249946207e-05,-6.65544073371135e-05,-3.4286525771102e-05,-3.31082838609759e-05,-3.97252440212141e-05
3.6761049975995e-05,0.000124151104243936,-0.000151619147390265,0.000232753285326701,0.000164446492436704
-1.2465102376546e-05,-6.40997458113449e-05,0.000162670511191319,-0.000193561147271269,-6.30593542589361e-05
-4.05805108236882e-05,8.02338574792892e-06,6.33740554591171e-05,-9.2343693047473e-05,-2.93949636580513e-05
1.40100886767723e-05,3.12145604221485e-05,9.69452435006859e-06,-9.93753762307472e-07,6.76442944644346e-05
2.52093988601912e-05,-3.70342648606241e-05,5.87794795687712e-06,5.82025470366849e-05,1.84582245973628e-05
1.16356383446633e-05,5.62509547133591e-05,0.000125105571937618,4.72999220708125e-06,7.89666446535793e-05
-3.92639686695997e-05,-6.8570667437649e-05,-2.13830854076227e-05,6.96675493410366e-05,-5.68126157845863e-05
3.79946181097195e-05,5.24083516113871e-06,3.2167008063488e-05,-5.35778701479299e-05,3.08049858844949e-05
7.73336420079764e-07,-9.6462407464772e-05,8.31734220033631e-06,-0.00013032082579649,-0.000188593246759707
3.14957596769865e-05,-2.45090695251013e-05,-9.95232681236531e-06,-2.57526586942056e-05,3.27134363656285e-05
2.77980573502564e-05,-1.08900930086359e-06,-3.22223985087802e-05,5.86625666395534e-05,2.83495434412501e-05
-1.53887116489401e-05,4.88140792867024e-05,3.87288639852513e-05,-0.000137032338507425,-3.95069295357397e-05
-8.84880980987821e-07,8.07405220544747e-06,2.87406495048044e-05,-0.000102987399795083,-6.23011705142637e-05
-1.25021711800871e-05,3.51700213785736e-05,-0.00011409675022691,0.000133125170645184,0.000103951185264814
-1.0421994278998e-05,4.72865607326739e-05,9.96823641966433e-05,-3.86532126280504e-05,1.19202229765494e-05
-2.85513068327254e-05,-2.53470441677719e-05,3.80871520335389e-05,-7.05248642116298e-05,1.43505348563528e-05
4.8613170173338e-05,8.23460540180706e-05,-6.57945021657936e-05,8.83062760768079e-05,3.5892640112772e-06
-4.72069532777946e-06,-0.000141432396410036,7.33530408744502e-05,-0.00012204448852184,-7.71190894333054e-05
-2.56867980008767e-05,-2.09481086291853e-05,4.69267261619834e-05,-0.000135557117507591,-8.60587619638206e-05
-4.14836996943264e-05,-0.000115811168594419,-6.35777565462083e-05,-7.27451227225013e-05,-0.000179630405863916
6.28219522648003e-06,4.87023357295441e-05,5.93784234626243e-05,-3.56278268803858e-05,1.86969324852028e-05
2.01949225607811e-05,-4.30266453410537e-05,-9.00056284492922e-06,-2.52642068263548e-05,-7.62429748849183e-05
-1.67654219518051e-05,-0.000138788634454781,2.30642088892968e-05,-0.000116168217923991,-5.02540644505534e-05
-2.47176030998085e-05,-1.804885826097e-05,-2.92888329591655e-05,-5.42219124277518e-05,-3.69020849134713e-05
3.31527119417708e-05,7.32549363007079e-06,-6.04052649083459e-05,3.37169956024528e-05,3.2448818106003e-05
-1.38242359258042e-05,-3.14491119162039e-06,-1.49556812759462e-05,3.53390595326318e-05,5.24092498586403e-05
-1.56877668501026e-05,-5.35822095259895e-05,-4.88997795610899e-06,-3.81694364183932e-05,1.35658814422093e-05
9.04167951863451e-06,-5.22645892798702e-05,-6.51825372283996e-05,1.31911964967707e-05,-3.27765632955211e-05
4.64486131485738e-05,1.4478992898656e-05,7.91134986719103e-05,-0.00020563583623692,-8.54832886115254e-05
2.93858682731314e-05,-3.49845756995417e-05,4.31400059927262e-05,-7.05840304950926e-05,-1.05335640469368e-05
1.53411162126038e-05,7.14064410069103e-05,3.33047576814569e-06,5.54281597495272e-05,0.000126240073998278
-4.28087944370695e-05,-7.63389672896359e-06,1.87590804552477e-05,-0.000127561345745277,-7.74539331857231e-05
-1.12062847035279e-05,-6.92329834565885e-05,9.76369069106909e-06,-2.17145348506525e-05,-8.08867995041814e-05
6.21973144772919e-06,4.1484947314007e-07,-3.46761954129353e-05,-1.84279528662332e-07,3.30621295049824e-05
-3.82945832029799e-05,4.61357194968569e-05,6.54638609524902e-05,-9.71780657486724e-05,1.20471358718168e-06
-7.11184903112783e-05,-0.000170579821090082,-0.000193533728950114,0.000168352685731698,-0.000108470148374082
3.03918031956865e-05,-9.27032182256504e-05,6.60208891832883e-05,-7.93499939820398e-05,-7.59112222171947e-05
1.74197978879653e-05,0.000110393301859101,0.00012852129670017,-7.16143538979531e-05,0.000154706234672637
2.03803239210926e-06,0.000141539206859215,-8.6503940442482e-05,0.00017477197730341,5.83512475621465e-05
1.55126673019782e-06,-8.67397846678606e-05,5.41973707001064e-05,-0.000162623395802495,-0.00010393265247493
-3.94960603551883e-05,-5.20512108425648e-05,8.26437671308142e-06,-7.86958092052493e-05,-0.000124777226988549
2.17546361122706e-05,-3.0806653292631e-05,-1.88762355685595e-05,-8.74739588643844e-05,-1.8250178580998e-05
1.3721965906233e-05,7.57992350352629e-06,5.92631949674676e-05,3.9864895910009e-05,5.52465302385912e-05
-2.67780432305163e-06,1.84959869130514e-05,-7.39536545300426e-05,7.71002052330661e-05,3.59961549077659e-05
-2.23311329956534e-05,-9.84973835800771e-05,-5.9720205924972e-05,4.88015192740113e-05,-8.92195392393301e-05
1.75699674353797e-05,-3.39114660218751e-05,-2.72194849870985e-05,5.47912095604765e-05,6.77295278505762e-05
4.41059626443664e-05,6.24122511704675e-05,-6.25434943624991e-05,8.34649700717934e-05,1.66982534272221e-05
1.47521569388243e-05,-2.22404210148538e-05,2.50590800160363e-05,-0.000126012464590462,-1.96253187467804e-05
4.75292499588677e-05,0.000168610543116992,-2.22220767228764e-06,1.09369841256741e-05,0.000123819657337699
-3.56832631890685e-06,-7.40041991421051e-05,1.35298343391376e-05,-6.45530906963644e-05,-0.000133123034658837
1.82265895709792e-05,-2.83543843079904e-05,-8.50721320391714e-06,-4.74372251989119e-05,2.48462232413163e-05
-1.61863265171023e-05,-0.000113883105562926,-3.19214108576789e-05,3.165826748576e-05,-8.71304400589129e-05
3.87540850623543e-05,1.49596176835923e-05,3.46916851653178e-05,-1.35463939521529e-05,5.18188407460694e-06
-3.70182761663496e-05,-2.98126180540266e-05,7.1071528303069e-06,-5.459890945504e-05,-7.29523916873178e-05
-1.18192961990395e-06,3.32915444512083e-05,5.36963742531529e-05,-5.27104996054597e-05,-1.01129055148091e-05
1.1931178676448e-05,-6.09313542193052e-05,-4.84885312651356e-05,-3.34805511988514e-06,-4.96938446452749e-05
1.1986647405561e-06,-4.33662205171557e-07,-0.000124647204638558,0.000149479184232221,-1.34755941525979e-05
-1.98741797340086e-05,3.48148453160073e-05,-2.22226265441839e-05,6.08670752530441e-05,-2.7865997229808e-06
-2.99717600657807e-05,-3.72138341825656e-06,4.12968774211043e-05,-9.27373295829052e-05,2.78535335162021e-05
-4.73079371030459e-06,-5.40546925882804e-06,-1.27215582330304e-05,6.02322453474622e-05,7.23705615018549e-06
-3.97858178624875e-05,2.14492145734546e-05,-6.08882404789032e-05,0.000114217350150231,1.24665496600391e-06
4.99000941787996e-05,3.6578962633661e-05,-3.95869878897414e-05,0.000121544228674955,4.93579956699356e-05
5.86225175618464e-05,8.38404820203857e-05,-2.92667112105762e-05,9.74377529559508e-05,6.29487891514164e-05
6.25571055769514e-06,2.72600089598338e-05,-4.51457893557982e-05,2.55504744636143e-05,9.20800988166227e-05
-3.23182868288752e-05,4.89021790195444e-05,-6.22753615223911e-05,9.65585719309897e-05,5.85717514447527e-06
-2.64010651704999e-05,-3.6543796705982e-05,-4.44971912042045e-05,-4.16180268637054e-05,-3.30260964448451e-05
9.58986162395934e-07,2.19527168879017e-05,3.85337460885411e-05,-0.000127760328877865,-4.54058447998903e-05
-3.8916907800669e-05,2.44825682408732e-07,-4.53437006712011e-05,7.69785510713051e-05,1.60337860865551e-06
4.91287896766083e-05,1.75794410265927e-06,-1.73863231635202e-05,-8.73631883061712e-06,1.65243051882712e-06
-1.91694206749501e-05,-6.22695165367725e-05,-2.88896351812517e-06,-6.10421008581976e-05,-4.19937141905455e-07
1.20658341005529e-05,1.29090945584731e-05,3.84859629194809e-05,-4.87937782004328e-05,5.68800530899826e-05
-6.51152766285103e-06,-0.000121423617745809,9.39290461601993e-05,-0.0001945071329141,-0.000220272179354183
-6.90830208059308e-06,0.000106281474017757,-3.0704874560224e-06,7.133880093911e-05,9.53015493797569e-05
-5.02582057113348e-05,-7.93663899098638e-06,-5.16311793497482e-05,2.01216871850723e-05,-3.58575874391564e-05
-4.50368721625773e-06,-3.73870902358766e-05,0.00015266661045668,-0.000214388080895787,-0.000130581202515612
-5.48170407108352e-05,-0.000117340672180611,-6.35693965742744e-05,3.11316981720647e-05,-5.37635482879903e-05
8.48998097600178e-06,-0.000113139441516106,2.52134018772819e-05,-3.70315099412688e-05,-8.08452540445298e-05
-4.70150921847034e-05,-5.91135011282812e-06,-4.82535496553188e-05,-2.54018772404719e-06,-2.04075351112109e-05
-2.20009794111906e-05,-0.000143605145754177,-3.76166382851505e-05,7.93751365310842e-06,-5.79286229438687e-05
2.30466666697428e-05,0.000163673874320402,-6.31896232291633e-05,0.000148116074832284,0.000159672245866019
-1.92570754929677e-05,6.70749326223068e-05,-2.71118635460256e-05,-4.81514010929923e-06,5.37137127661645e-05
2.29279027944068e-07,-1.40675914956733e-05,9.33634320731715e-05,-3.54282131277147e-05,5.36487705576105e-06
-4.00719039110172e-06,1.16559141532654e-05,3.10640261000432e-05,-6.67301179232695e-05,-5.51726679713741e-05
6.10432923504309e-06,-6.41534360044731e-06,-1.79584763685564e-06,7.44549331914221e-05,-8.38918951821369e-06
2.00645679748093e-05,9.32234825387145e-05,-0.000101809987100944,0.000190232257865731,7.3855872808443e-05
-3.75846205176473e-06,8.20290587576288e-05,-4.62315077530076e-05,8.52775463994442e-05,7.88932036818367e-05
1.71695506505091e-05,1.87933478154523e-05,-3.18839353454251e-05,0.000102744293779192,-4.67059015222005e-06
-7.00966871239292e-06,-7.72266185288931e-06,-4.09668063891931e-05,7.12744418238818e-06,4.76068506465312e-05
3.88615461999489e-05,2.87741669015407e-05,-0.000127552617221227,0.00010801861941942,-3.0110832090947e-05
-1.82150556945513e-05,-2.50111118093526e-05,1.40539448450415e-06,4.19029950323053e-05,-4.45601235110569e-05
5.61208435717602e-06,4.52682866061331e-06,3.02088500635051e-05,-5.39920414891401e-05,-9.65695989223514e-05
-1.99424075038591e-05,-7.21935572712051e-05,-0.000117973671179238,0.000189333913785627,2.98255365492858e-05
1.68003404832183e-05,-4.61864624000492e-05,4.57568618886697e-05,8.12971740188992e-06,1.52747180221031e-05
-3.18533546413103e-05,-2.31254761792052e-05,-5.90386989962278e-06,-2.04958501060987e-05,-6.03294765320883e-05
2.78333473105355e-05,7.24318451913664e-05,-0.000104169703874157,9.02709334639683e-05,-4.79059898450739e-05
-4.2378714956203e-05,-1.36114702688175e-05,5.19028562129004e-05,-0.000135191799038451,-6.30396971584567e-05
1.36798872584532e-05,4.57625453407955e-05,-3.79902154667682e-05,6.86671092641323e-05,1.29262928063527e-05
2.7214755214538e-05,-2.7533926788222e-05,-6.09395122774478e-05,9.31563119155458e-05,-2.63012243288634e-05
-1.38490197554409e-05,4.07122620281819e-05,2.08017481112138e-05,-8.68425436488559e-05,-2.51232176213932e-05
-2.99662125038202e-05,3.952474494198e-05,4.17199447813351e-06,-8.64510050775578e-05,-2.60182244301948e-05
2.79605453723506e-05,8.5360156755324e-05,-5.08276903823058e-05,1.79505391987681e-05,-2.49446257061821e-05
-1.49124342538558e-06,-6.70575185875823e-05,9.71732272732224e-05,-0.00014863660517575,-0.000168419086192686
-3.47343742493072e-05,-2.03346244709669e-05,-3.03926047469157e-05,-2.53522365565901e-05,-8.48619084070502e-05
-2.38095399538578e-05,-4.89879408112162e-05,-0.000147183597723333,0.000155191859651058,-3.12418335776696e-05
-3.37333153763777e-05,-5.70428691312917e-05,1.32468280114936e-05,6.513436489232e-05,2.50822082037562e-05
2.19026700630737e-05,-6.64377786356177e-05,2.96990247337001e-05,-0.000133084109267198,-0.000180436633746531
-3.89028934363398e-06,4.62566240114856e-05,5.86180796298889e-05,-3.46431344553808e-05,9.85752731207299e-05
1.71375956547746e-05,2.47763637434894e-06,4.61069822611403e-05,3.47810609906405e-05,3.95588115730254e-05
-4.09956439626612e-05,-2.26899136307093e-05,-9.20390426809473e-05,0.000127957788100761,-9.96530508288067e-06
3.76225568921657e-06,4.95171199174127e-05,-0.000130677752746169,0.000134966121619317,5.91666568793094e-05
-4.81894139052809e-05,2.22777151127881e-05,-5.7114330126576e-05,5.93473673350365e-05,8.71276197907478e-06
-3.14088773664347e-05,5.57129116959048e-06,-3.91739401326124e-05,3.40518527108637e-05,-1.18287822167608e-05
-4.97022275797954e-05,2.58972168489694e-05,-2.30738085755336e-05,4.57792392530264e-05,8.19862680219784e-06
2.68158774874543e-05,5.31173898971604e-05,7.64854954336277e-05,-0.000103820790363925,-4.00413224005364e-05
-2.95192464739697e-05,5.54086121703384e-05,-9.0944340024805e-06,9.27276335806368e-06,-1.23883315936844e-05
-1.11029066741933e-05,-9.86745315859458e-05,-9.49868764509779e-05,0.000110078842378748,-5.40305133097688e-06
-1.01420347986093e-05,-8.55907635430038e-05,-1.9158982311111e-05,-6.20746425097432e-05,-8.07558276807868e-05
-3.61227062904486e-05,-3.12788133109017e-05,2.16351382362655e-05,-0.000101586107372002,-7.40036776986801e-05
-1.06619550016302e-05,-0.000130371809436098,3.25438207805187e-05,-6.33300259042968e-05,-8.05698938407317e-05
2.51732951156329e-05,8.52258724975772e-05,2.23132168406809e-05,-1.58562747021436e-05,6.55856410261596e-05
3.71060455910851e-05,5.95398395250623e-05,6.24085852691101e-05,-1.33962024578606e-05,4.64282142283964e-06
1.12771299284935e-05,8.77901180505101e-05,3.22121015397748e-06,3.90867549742861e-05,0.000127672589071619
-1.63871758346467e-05,-3.17149961517284e-05,2.40021322421872e-05,6.14948143811629e-05,2.7170523923824e-05
-1.5350637587122e-05,1.41709946227425e-05,1.91659680579242e-05,-3.78212342453021e-05,-4.73457038265445e-06
-1.40531947094408e-05,-2.20119073045037e-05,7.08971958637159e-05,-0.000106037730774839,-4.70073932396425e-06
-2.5330458797986e-05,-0.000107647023663951,-5.89421965415531e-05,3.6507244967798e-05,-6.84578401336472e-05
1.03650484992299e-05,-2.28355712506361e-05,9.87089227490911e-06,-7.13017505613589e-05,1.96890909193475e-05
1.99250892263958e-05,-3.73377690300795e-05,1.89514512345914e-05,-3.55459331516665e-05,5.03084082374805e-05
7.56306529287558e-06,-4.08560901492112e-05,3.80338703829555e-05,-7.70650358175976e-05,1.82379515456439e-05
3.60778246992592e-05,-4.06888348142307e-06,2.70985846222324e-05,2.09968157696357e-06,-3.54881740447775e-05
-2.47692892450581e-05,5.35669471952197e-05,-9.37135569928039e-05,0.000142275801903235,5.98652730811758e-05
1.59784483125245e-05,-2.64203660439913e-05,4.87820063049152e-05,1.27408285232427e-05,1.78840706305711e-05
6.60279549955311e-05,6.62312868069555e-05,0.000101176036600905,-0.00010259196020859,4.71744828944293e-05
1.27518558544895e-05,-1.50654375848066e-05,-7.44915926829358e-05,3.83497833364584e-05,-4.94217833509355e-05
-1.27499996849716e-05,-9.22065342437826e-05,5.88324445878343e-05,-8.0411643155925e-05,-0.000108384330923749
-3.59614566217058e-05,-9.46567061567419e-05,-2.63008041930232e-05,-9.99888030675622e-05,-0.000188559568276044
6.0549279654799e-08,-1.53550859745708e-05,6.53172325985591e-05,1.22884370310187e-05,-2.87313236932413e-05
3.32272124527803e-05,-3.3778644276539e-05,0.000133303444098265,-8.23932271943886e-05,3.20534921510684e-05
3.38300296028028e-05,1.58716665447818e-05,6.34400487778547e-05,-5.18102186440396e-05,-1.50108280321963e-05
5.92504372598123e-06,-2.51652789130414e-05,-9.31641722296844e-05,7.6898301037257e-05,1.18232589245427e-05
-3.67794670841018e-07,-1.28152659290927e-06,6.36079528798373e-05,-6.81646085289681e-05,-4.24476621671896e-05
2.61814496932024e-05,7.56346610604345e-05,-4.91372429677557e-05,8.08886284317414e-05,5.35898652405061e-05
-8.87816987096868e-06,1.0034490321372e-05,2.66070083247365e-05,-5.33281604327561e-05,-4.26916942762175e-06
-1.86870931014008e-05,3.49759597318503e-05,1.11738840552342e-05,-6.70163690001164e-05,-5.87903648419049e-05
-2.40522602016655e-08,-0.000111672221720415,8.04278893286919e-05,-9.99013052510387e-05,9.41865451676234e-06
1.36847828701626e-05,8.52070337461907e-05,-8.28079392779379e-06,8.25428249279663e-05,0.000125745581000939
-5.56009977578164e-06,-4.40176448538429e-05,5.34711221914332e-05,-2.15850656109092e-06,2.41195462182644e-05
2.39672986411439e-05,2.98053155210117e-05,0.000110304310215234,-9.37893965910296e-05,3.06864518037543e-06
-2.38050647143225e-06,8.54206227922422e-07,-3.62319853632547e-05,2.95596233483856e-05,9.07341767741974e-07
-5.22719314554495e-05,-0.000118912579572333,0.000113944538798498,-0.000207761314340098,-0.000128138119021158
9.39639545652047e-06,4.26865007902204e-05,-0.000125810064569853,0.000128483390921606,-6.75442685630997e-05
1.38474576160985e-05,-5.53553264108302e-05,0.000121922910049072,-0.000177864199578594,-0.000121002050187756
-2.06281759192666e-05,1.56835913534607e-05,3.92004341012117e-05,-4.90299257172549e-05,8.67188034422121e-05
1.38328006632928e-05,8.48948008384823e-05,-7.59559035880782e-05,0.000195546581425878,0.000148665527093484
-3.62724957874956e-05,-0.000129092419850045,4.19497143505695e-05,-0.000221181683179841,-0.000133646256882855
-3.23244092140504e-05,1.3000985532873e-05,0.00010306073886701,-9.07508130227003e-05,6.90852921760527e-06
3.00792122309564e-05,-3.74132830433146e-05,0.00011365630464339,-0.000125963315455874,-0.000116534913439173
1.30328012356709e-05,7.18339604017445e-06,0.000148867715966195,-0.000285390365204707,-0.000107092799248501
4.427393008238e-05,-4.13141311243337e-05,9.33889753668057e-05,-0.000184070512483208,-0.000101925651167389
5.81847560348215e-06,3.49285694888846e-05,-8.68320952857027e-05,0.000148571725691828,-2.82627389780032e-05
-2.3968834391633e-05,-2.65156160658941e-05,0.000147821330526315,-0.00015065876975505,-6.45546076172135e-05
-9.58759955645415e-06,-1.65074814846901e-05,-5.58011634660053e-05,1.21800128064224e-05,-0.000118912124474496
-3.27903546236301e-05,6.99015697374416e-05,-0.000122275874418684,0.000182334060880881,8.03333154812066e-05
-2.51764534371139e-05,-5.68314532630929e-05,-6.79610861599001e-05,3.20031236728203e-05,-2.46211763451338e-05
-5.8941206926188e-05,-0.000126672696985849,-3.0961160307805e-05,-3.20037442204025e-05,-7.95408392831469e-05
1.74305320400385e-05,5.20292739884942e-05,0.000154342772187299,-0.000147803425824767,-7.19593899799849e-06
-2.24571256722665e-06,2.94337640721406e-05,-0.00015283210334977,0.000213445668104806,0.000117079317087954
7.97686169564443e-06,-3.48180143919946e-05,-9.43122732656623e-05,0.000129177406780889,-5.25964739091476e-05
1.72922656754563e-05,-4.13881886211896e-05,-3.66248206975443e-05,7.79179225503416e-05,4.07409838442342e-05
3.85323419361061e-05,7.61610718902862e-05,0.000114235773263477,-0.000112157156267052,8.66571561551059e-05
-3.34478381993556e-05,-5.22354240185713e-05,1.40528949664411e-05,8.92597798252581e-06,-5.35803978962886e-05
7.96576906128941e-06,-1.04811728753975e-05,4.05348758981538e-05,-3.13362913522436e-05,-4.68435629640473e-06
3.13711261113676e-05,6.66996249330657e-05,-8.22556202752119e-06,7.94014233380857e-05,5.90204125961923e-05
9.83637354041869e-06,0.000100172213659673,-0.000136507764422689,0.000289779163387036,0.000159978168254627
7.23570470889819e-06,0.000115762773530788,-5.24380727978897e-05,0.000164238701883833,0.000114452699560753
1.41787506894713e-05,-5.65694714569523e-05,-4.22731556990058e-05,-8.85089619871071e-06,7.6244302080612e-06
3.41547882416068e-05,8.67746276656996e-05,1.03605300566494e-05,4.40398770562074e-05,0.000119007889158611
-2.02148107202506e-05,-1.90901724751874e-05,1.79299099130561e-05,1.9605435083525e-05,5.98455471355531e-05
-1.61789283355581e-05,1.84286004104289e-05,-3.60129336961397e-05,3.84457995393071e-05,6.67947589007482e-05
-3.01377721246573e-05,-2.63186662873419e-05,6.08582587419096e-05,-0.000108925149952233,-6.29419476674966e-05
-1.63640353093578e-05,-8.7625481504625e-05,8.22647866474526e-06,-7.85250302264543e-05,-9.95277462247617e-05
4.48882856943902e-05,3.07516045458467e-05,2.52873515998771e-05,2.46352732882936e-05,-7.28647389051598e-06
-9.29666346422318e-06,3.51957742461712e-05,4.50891972548963e-05,-0.000153917107544911,-4.1525345288326e-05
2.35829269347493e-05,8.54367550526851e-05,7.00121927256921e-05,-4.6976850279955e-06,5.15055107645211e-05
1.13423253193767e-05,3.80698518710792e-05,-3.75035211412257e-05,5.38267333478052e-05,-2.1445228255086e-05
-4.82786408798079e-05,-2.16370725334754e-05,-6.22729751279576e-05,8.00277748841462e-05,8.21390939993229e-06
-5.73987884761677e-06,-9.13062340066197e-05,-4.01491041560465e-05,-6.16695065513477e-05,-5.75008226533166e-05
-7.97392489949788e-06,5.97903685691479e-05,2.03606205783527e-05,-5.80688305482963e-05,2.28474750402228e-05
2.29008100465542e-05,-1.85519147488783e-06,1.2934384820236e-05,5.76146058178984e-05,1.94021891005348e-05
-1.81687428623345e-05,-5.23529360523617e-05,-8.31708845393966e-05,8.72481642103512e-05,-4.73580809970437e-05
-4.05327139840835e-05,-2.7895819285047e-05,-0.000181002871768484,0.000198597401953816,5.28591321964467e-05
-2.65545326133154e-05,1.91516649241502e-05,-8.28670316787909e-05,0.000212287223738105,3.74295615455865e-05
-1.78144544083333e-05,-5.17778328449913e-05,-4.65864786327511e-05,2.7174772692635e-05,3.58161157222788e-06
-1.61382260142463e-05,-3.41340587900762e-05,2.07137851358815e-06,3.85425394891137e-05,2.06201557087161e-05
-2.58585418836648e-05,1.38059315559836e-05,6.67047184712346e-05,-9.34162705269203e-05,5.91027138707883e-06
4.05143873216563e-06,1.796076870058e-05,2.3962973942564e-05,-3.254710104531e-05,1.23933830949422e-05
2.43761704728735e-05,-5.472338533857e-05,3.57258372198525e-05,-2.49798833286276e-05,4.70762783991813e-05
3.65042131362415e-05,9.48145951462516e-05,6.10039591910942e-05,1.38814397512402e-05,9.93465214538597e-05
-9.47302414805185e-06,0.000112886257960118,-0.000191658255220502,0.000344956873965437,0.000144937471889783
-2.43412261881781e-05,5.18322093647222e-05,4.21608103114222e-05,-0.000104071543837563,-1.72580155588055e-05
3.54595150573885e-05,3.44869190592024e-05,-4.91580802231767e-05,0.000103346981621161,-9.76448710003844e-06
1.79854237681974e-05,-2.64924975113661e-06,-9.02150960475541e-05,0.000148840805973846,-3.36821505862261e-05
4.93019782317202e-05,1.11702588257838e-05,4.66492797182004e-05,-6.38591107290134e-05,-1.72965425830576e-05
1.30082105975182e-05,-9.352798199797e-05,0.000101118636056408,-0.000172792745776264,-0.000138150738314433
-4.29436996393227e-05,-3.39515078921715e-05,-7.61253540865011e-06,1.11612273852068e-05,-6.3734439950859e-05
-4.45182232219569e-05,4.55887229014419e-06,-3.02688148451985e-05,2.96578751271598e-05,-4.65033534294994e-05
-5.8297540899351e-06,-3.37610188929739e-05,2.13747293454272e-05,2.705547976975e-05,-1.60245698776055e-05
-2.12233887653189e-05,-5.57715240205783e-05,3.04231906797519e-05,-9.86073666091432e-05,-5.42742074700907e-05
3.28068901048872e-05,0.000102403083341807,-4.31548395717617e-06,7.36289136476579e-05,4.03089830960303e-05
-1.75084330518901e-05,1.32210000036134e-05,3.75737722125929e-05,-9.20820903713641e-05,-7.83556227610048e-05
2.81374555507417e-06,0.000113442824905478,-6.07422199589826e-05,0.000132952990418742,0.000129329961332532
-2.94084675025246e-06,1.91393090820741e-05,7.22858490577957e-06,-2.68064021285679e-05,-5.90419986920908e-06
3.49019490539124e-05,6.82156939147293e-05,8.54216104506481e-06,-6.13484936693134e-05,2.51065708715927e-06
-2.9414319922648e-05,-7.990520480166e-05,0.000162443115699652,-0.000315058612544248,-7.61725039183125e-05
-3.22075907385418e-05,9.853874995799e-06,-1.03957966290984e-05,8.75664608199307e-05,3.71626616958983e-05
-2.24940606304762e-05,3.38952382833325e-05,2.62964778705007e-05,-7.10022392982721e-05,2.51379973047959e-05
-3.05291073381196e-05,-8.00906041077081e-05,-0.000151671360031653,0.000116957800762349,-4.84602064445355e-05
2.69412623120033e-05,1.64332198251503e-05,-2.67468003653402e-05,2.2161964117891e-05,7.40148370916805e-05
3.97194390194251e-05,2.22298151977504e-05,-3.10168108876433e-05,6.31934020212898e-05,-6.27477569506617e-05
3.21654249096011e-05,1.89040770859134e-05,7.71440275000546e-05,8.88223229732269e-06,2.20287324413806e-05
-4.15566481049669e-06,-6.89431982409759e-05,6.34702120998232e-06,-1.28417607634432e-05,-3.40719963241463e-05
7.60604919601059e-07,2.0513959782596e-05,8.87576969838298e-05,-0.000111215663588931,-4.09958337120534e-05
-1.56744102202871e-05,-3.13817107854148e-05,9.36003919961932e-05,-0.000110541006758096,2.03825449825259e-05
9.10281336376262e-06,-2.44126011578947e-05,3.40806928485214e-05,-1.81387193119481e-05,-5.52350187653389e-06
2.30734135174393e-05,-2.74546112340795e-05,-4.54064095535163e-05,4.0361049828109e-05,5.24720701804268e-05
6.58899763256845e-06,7.83195168617075e-05,-4.83734925994177e-05,0.000144217049388026,9.41350165251849e-05
2.72327773125452e-05,-1.22692700272613e-05,2.84850870913675e-05,-4.36182401823626e-05,-4.69208205049704e-05
2.19768192800793e-05,1.43579364703123e-05,1.75960790772497e-05,7.33246999289981e-05,-2.53706590944877e-07
-1.04229302125413e-05,-1.08598888169219e-05,1.33553598902097e-05,-9.40755526380375e-05,-0.00013969887197108
-3.68731557486197e-05,-2.61300650840539e-05,-0.000119138730259759,7.20407863736685e-05,-2.62409096283995e-05
3.4088989991745e-05,3.05135016307841e-05,-4.93908570093938e-05,9.93267775441112e-06,-1.98457728623827e-05
-3.06658475528976e-05,5.27236876381925e-05,-2.09089757213594e-05,2.86317223324832e-05,9.41854579547514e-06
2.22691655148944e-05,-7.76091703270043e-05,1.73397042925174e-05,-0.000130020615926714,-0.000144534907689018
-3.17736026151524e-05,0.000122843245036123,-0.000130073798469703,0.000246737726513234,0.000194390487580091
2.97193334426202e-05,8.26645605223725e-05,-3.833095124843e-05,1.41082126794522e-06,3.27989946121135e-05
2.52042589148952e-06,4.3859011143107e-06,-1.48060302175078e-06,-5.38744028518476e-05,-5.78404983816028e-05
2.29756957550746e-05,-7.07432261312897e-05,8.26804374850979e-05,-2.69589156453081e-05,-1.00562046840139e-05
8.5918504463707e-06,6.90212587398321e-05,8.1581610052887e-05,-0.000113358931804122,-1.94283559825616e-05
3.2461082059241e-05,0.000176320667894357,-8.59076447150087e-06,3.43693357893943e-05,8.58498477416324e-05
-1.66179115055379e-05,5.13134425221633e-06,5.39446607104391e-05,-7.06326007111376e-05,-1.68721761629307e-05
-9.83895387614154e-06,-0.000183352299691317,0.000109466129052826,-0.000187610485753248,-0.000154068462842356
4.49859854904988e-05,-6.37800502365666e-06,5.4432695421239e-05,-6.70696767711649e-05,-3.02969698226561e-05
1.72081652152908e-05,7.93600237714375e-05,3.47571793178644e-05,-9.54877695370829e-06,-2.75564754740302e-06
3.6363472632258e-05,1.31004823237478e-05,-5.6361541911907e-05,5.08380734552129e-05,-4.04663910357823e-05
1.49523216136274e-05,-4.57864222015107e-05,2.87862546897098e-05,-1.97945364185615e-05,-7.97835820091383e-05
3.05856281107498e-05,2.04689233221853e-05,7.10695704802775e-06,-6.99740931874633e-05,-5.13906618123259e-05
1.08156956821657e-06,-2.34043813989051e-05,0.000103036875328728,-0.000133507143109432,-3.53618962435946e-05
1.46203404774714e-05,-3.11644493401541e-05,1.48940697995417e-05,6.39680727393647e-05,2.25489474631494e-05
1.81445160526199e-05,2.30341961347663e-05,-4.56166714491768e-05,2.6726400578028e-05,6.23075691804281e-05
9.56670980015076e-06,-1.1091214255234e-05,1.51983646962472e-06,5.67062834182501e-05,-8.20542935415109e-06
-3.16402674558796e-05,-3.38037822614668e-05,-2.92591274528365e-05,8.66857814668051e-06,-3.70265747279259e-05
-3.29953736364977e-05,-4.49556485687844e-05,5.23218458705345e-05,-3.0072803593629e-05,-7.12175216359085e-05
-1.36164427882647e-05,-6.8375379342914e-06,-1.17164877890793e-06,-0.000127778830041858,-0.000117452371580197
-2.49147681785453e-05,4.93495308472283e-05,0.000105177945575945,-9.70079060174629e-05,2.99056880753169e-05
-9.51354419301768e-06,-7.223829914337e-05,8.28125498526132e-05,-0.000106954478884863,-6.34110022871172e-05
-1.30486432659195e-05,-3.99327351086641e-05,7.35420841306333e-05,-0.000117005412207882,-0.000115826099744441
-2.35266677527266e-05,-0.000101656342389243,-7.39682314975222e-05,1.34383492908544e-05,-9.67916169925422e-05
5.04347349752271e-06,-1.08330971383708e-06,9.47286983620191e-05,-5.96540067858694e-05,-1.15040539088197e-06
-2.45983861566993e-06,1.42980938595407e-05,-2.70097991170603e-05,3.58760396355288e-05,1.47611882651291e-05
-2.06247809849343e-05,-2.57270116061909e-05,-6.21277257417829e-05,-1.42298026070979e-05,-6.31973864777592e-05
2.48929124055855e-05,-4.08220811912437e-05,-9.44521446032296e-05,4.80032163381529e-05,-7.7258288899238e-06
1.46312950923248e-05,0.000127511758081277,-7.27434648031961e-05,0.000266962419919738,0.000195621433379372
1.23141574616109e-05,4.67309212075042e-06,4.8638451524789e-05,-0.000155109802565694,-4.82118100769695e-05
-4.01332514415761e-05,-6.88505081987457e-06,-0.000125421139998554,0.000146260481524042,4.66283887001861e-05
2.07343686536332e-05,7.0866199615975e-05,-3.63153462438757e-05,6.57041673353648e-05,-2.56825377968847e-05
-1.32050010629178e-05,-1.91325655008057e-06,-4.83867669003429e-05,-4.29364792159431e-05,-4.50739898358299e-05
1.27643966600792e-05,-1.97280351717044e-06,9.20628249444665e-05,-0.000100637349576944,-9.65390364450365e-06
-8.87306813926992e-06,5.676586574024e-05,-1.15880308385643e-05,3.48657836153497e-06,-4.04954097196624e-05
-4.02014988180814e-06,-9.34694322893222e-05,-1.47658417299509e-05,-1.14287318844539e-05,-1.81789212475874e-05
1.37086150238575e-05,8.48851064663888e-05,6.21403989106983e-05,-2.58040964351398e-05,4.5306788633719e-05
4.64081028584027e-05,5.34584318247432e-05,9.4504512376861e-05,-0.000122959947596408,3.36392971388836e-06
8.71641087078152e-06,3.79466034773356e-05,8.56017207272819e-06,-6.96302438180103e-05,-2.18554201484762e-05
2.51000000708022e-05,-4.45851047011355e-06,6.69338431458599e-05,-0.000105248647660115,-0.000132761518985177
2.68732546220069e-05,-9.17342841644699e-06,1.98640000386264e-05,4.06953537410922e-05,3.59931650234487e-06
1.3263726374273e-05,-0.000164651928101812,6.93682953853618e-05,-0.000124541104168354,-0.000161545838387046
4.43967068536879e-05,0.000134446387682258,4.41337788427401e-05,-2.13168279011227e-06,0.000123181525083645
9.69872073245766e-06,5.36279236298182e-06,5.16509880274913e-05,-6.21806091492737e-05,4.7597545684356e-05
-6.55507471499006e-05,-0.000145575069739625,6.80209709991924e-05,-0.000114438244899231,-9.73466778671387e-05
3.43135756433854e-05,4.84269706538352e-05,5.94535947286506e-05,-0.000144785201023304,-2.70046373788123e-05
8.49930638654042e-07,3.76978839406424e-05,-0.000101509152835395,0.000200053750457667,9.34477811075149e-05
-4.98539636810011e-05,3.17642613795629e-05,-0.00012952323613409,0.00020823812748834,7.93078871638388e-05
5.27108616589762e-06,-4.26692838277899e-06,-1.28639460881254e-06,5.9736104880095e-05,-3.61183658189346e-05
-1.5236413213875e-05,7.10564633628647e-07,0.000114882124862209,-0.000195349669929508,-3.33627697863721e-06
-3.30951794583673e-05,4.75912652381736e-05,3.31400786778304e-06,4.23084308877434e-05,5.16530192667903e-05
1.12738338866868e-05,3.16402206331701e-05,-2.25389852066842e-05,6.56948109085798e-05,7.2947688250713e-05
9.56974089874062e-06,-1.48444528504488e-05,-7.00965957261475e-05,9.06695724834905e-05,3.32599955724935e-05
-1.50601116724793e-06,3.59556769855781e-05,4.92882695674516e-05,-0.000160157723165425,-6.87999955334131e-05
5.16213737177433e-05,8.86374820962668e-06,7.57072866758566e-05,-0.000158247191879695,-3.60580059730189e-06
8.81321816723662e-06,5.44723695356065e-05,-3.31487596326048e-05,7.27058946979258e-05,1.85119764979662e-06
4.19040040521905e-05,4.56279999192284e-05,-7.60353848837262e-05,0.000116081225998828,-3.89378529279309e-05
-3.86194824983027e-06,-2.2401375255912e-05,4.27305953067575e-05,-0.000108033659044221,-1.31187874110183e-05
-2.75929604131106e-05,4.90914510536612e-05,-3.72189173125094e-05,3.51856681040059e-05,4.0827722884331e-05
3.29033382977131e-05,3.39156145112766e-05,-0.000100564386016708,0.000145089243465315,-2.51343558199056e-05
-3.86949136480757e-05,3.69897262125278e-05,-2.03518077501047e-05,1.07445440332635e-05,-3.61278687841255e-05
-4.00073188911638e-05,1.27954386374002e-05,-0.000103146276314605,0.000110468843331732,-1.64944562011602e-05
2.84842470919607e-05,-4.09532538249032e-06,-3.93933312997605e-05,-5.07871142772166e-05,-2.99785481531875e-05
1.94972081233975e-05,0.000119003485796355,-0.000217349552790601,0.000351503074268522,0.000204380994194653
-4.22737928650479e-05,-3.099954581446e-05,-3.52479445799179e-05,1.64884848647956e-05,-8.02631836211479e-05
5.6749203756763e-06,7.36595379012936e-05,-1.5410355612563e-05,4.67588575094558e-05,8.38810814194054e-05
-4.55366459322372e-06,-0.000148885640249936,3.03179737804333e-05,-8.59586109431245e-05,-0.000121624819834402
4.65748895598549e-05,3.22272144926112e-06,-3.16934956185074e-05,1.21435112495344e-05,-1.83171486901761e-05
8.32153802570869e-06,-3.10498616049609e-05,5.22198080380837e-05,-9.65167099325036e-05,-0.000101466550950213
3.86661412006062e-05,5.70573620195455e-05,-1.09123771581813e-05,1.45320291666224e-05,7.0103263739164e-05
-4.41780632910172e-05,1.74963991448919e-05,-5.72753165716614e-05,0.000148192475469894,5.93872566062458e-05
-1.6379905527176e-05,4.79890294021233e-05,-6.84924174457132e-05,-3.78485861871234e-06,-3.33570471685565e-05
5.25037042802487e-05,9.1033043612935e-05,-2.91846363896807e-05,0.000114848535446919,0.000137766320663102
2.41006086353005e-05,0.000102747941952976,3.75723097737294e-06,-3.29957483498129e-05,0.000107457013014069
-4.65630486101392e-05,-2.00958606884153e-05,-3.5290181954835e-05,2.14142287626678e-05,-4.55567661987564e-05
3.28504805003766e-05,-4.12911606877e-05,6.06847510484371e-05,-7.71239414849434e-05,1.08048466333587e-05
-4.09730258461519e-05,5.20304499086081e-05,-0.0001364025225436,0.000155317059993946,4.29955596348822e-05
-4.42707211200482e-06,-0.000107731172047939,4.58303242128609e-07,-0.000115479020671366,-7.64663874048994e-05
-1.86713789478451e-05,2.85890586703691e-05,5.28878462696829e-05,7.34114456690976e-06,-7.65114722187644e-07
-2.15145467682599e-05,2.28326037413429e-05,5.77715648711247e-05,3.82324591051985e-06,7.9704100053227e-06
3.28237923557901e-05,2.34709595847238e-05,5.00925074362193e-05,-8.76401718876983e-05,-7.38780491398683e-05
-3.38707738648046e-05,3.04514472405453e-06,-4.86284116895308e-05,-8.93451696481693e-07,-1.89821923207353e-05
-4.29261865919902e-05,-0.000120263009810765,7.93756720020675e-05,-0.000195545643022814,-0.000209599543140219
-3.5155472296983e-05,3.99834875573712e-05,-2.04403519964397e-05,-2.26313764638005e-06,1.88032020454717e-05
-2.23561285182575e-05,5.30322733500662e-05,2.40636886483132e-05,9.10597448239307e-06,5.78917516799188e-05
-3.23147151885456e-05,5.45837157270266e-05,-2.72610465729432e-05,9.38661634182831e-05,1.43026736725179e-05
-1.1565893526794e-05,-0.000130277565006133,-3.36504594186766e-05,-0.000105532158899146,-0.000166060585341405
4.79127361776101e-05,4.01471923778615e-05,-0.000131091172156765,0.000187554862441521,1.12117020876711e-05
-5.99899698123578e-06,5.44951354286409e-05,-0.000142500304435827,0.000131074705712873,9.08301139617805e-05
4.58447403439592e-06,5.83377819519122e-05,-0.000175104369931102,0.000185162067075446,9.79638658511722e-05
-4.46971503076685e-05,-1.15714727070682e-05,1.84888556016165e-06,-1.10382861941248e-05,-4.35348455826786e-05
-5.05733687553607e-05,-0.000130243965324268,2.9847465101994e-05,-0.000173973282026145,-0.000159011011665675
9.40035590153484e-06,-8.62821725349698e-05,-3.94303644158494e-05,-2.19077658770517e-05,-0.000113163881090811
9.60689393796211e-06,4.07951881042316e-05,4.59721293760115e-05,-4.03741999764172e-05,-3.49480714841973e-05
2.40268439050148e-05,-8.37982766540124e-05,2.28348828763638e-05,-7.13203587042732e-05,-5.75626095584799e-05
-3.98553289882981e-05,-3.44372257276254e-06,-1.85686168687605e-05,5.31519848466505e-05,-1.15462270376225e-05
1.47917427716159e-05,-1.69634443778977e-05,-3.85832131630824e-06,3.6534719787588e-05,-5.20273550972081e-05
9.52262582300901e-06,9.51687947353631e-05,-2.99864530551513e-05,1.89010735382184e-05,7.42623950032518e-05
-2.55446767747202e-05,-0.000142053591191092,0.000113820627802028,-0.000233461411142448,-0.000176654563901143
-3.33257777237389e-05,-9.14644851364816e-05,4.1833679239324e-05,-7.88064838082257e-05,-8.95105417487731e-05
7.09771059521245e-06,8.34154522993406e-05,0.000105830323326553,-1.69910216389668e-05,0.000139068858486553
4.73035597390144e-05,7.33969166739286e-05,-4.23278014757485e-05,0.000113788633389585,3.08965276430712e-05
3.76078297301073e-05,9.83203703058533e-05,0.000131948740160724,-8.72112071921298e-05,8.43583242650378e-05
-2.56404346266924e-05,2.31712685962831e-05,2.1165261111361e-05,-7.22883586983172e-05,-8.25996813694513e-05
-3.12350465651616e-05,-8.48063299606983e-05,-0.000217312674307316,0.000291668902419847,-2.47249712553578e-05
-5.15037135042961e-05,-4.8756724224982e-05,-9.25424968173576e-06,4.51701382438765e-05,2.49707767753985e-06
3.05654749838819e-05,-3.36512451629762e-05,-8.04163164588277e-05,7.97714069519918e-05,-3.69934708260466e-05
1.4232665830703e-05,-1.46914497901647e-05,-2.44021181105391e-05,0.000102548987897563,6.35607162705989e-05
-6.24575079992407e-06,-8.35459789305709e-05,-2.34471869859866e-05,-0.000109965827926804,-8.75151023935947e-05
-2.60091776878651e-06,6.21150294555363e-05,8.59056279138617e-05,-7.24257344013611e-06,2.49953948375683e-05
-2.49444780131407e-06,-3.61036835268555e-05,1.36374347311718e-05,-8.59611813095662e-05,-1.81474747412437e-05
-2.55717472187864e-05,-4.56188377677601e-05,4.32543164336753e-05,-8.43944852117582e-05,-6.51058259839351e-05
5.4601576072387e-05,6.96110905027109e-05,5.09886253489839e-05,4.7734030924339e-05,0.000149879637403006
8.31246786697698e-06,8.98027040914412e-05,-0.000107810402043917,0.00020998379633918,0.00020817667907391
5.09251371089681e-05,4.36085140850447e-05,3.02011953200956e-06,-3.99204558294479e-05,2.28267229958017e-06
-3.64940390229843e-05,5.16006625238712e-05,-5.54869608786022e-05,8.90633054029507e-05,9.08944065052349e-05
-3.03350824722733e-05,6.41104872783043e-05,-1.7119572405451e-05,8.06630407507475e-05,9.52800431431031e-05
8.45209465432199e-06,0.000107111063198784,-2.80769854437329e-05,2.32316268693348e-06,7.04213908345678e-05
3.45091741614361e-05,-2.39940449867839e-05,4.44482153363971e-05,-8.18363059450521e-05,-6.08805711587552e-05
-3.49970279745899e-06,3.78167026983221e-05,8.8248548794102e-05,7.30470411847433e-06,4.64329781924747e-05
1.00728601655831e-05,4.01194072474094e-07,0.000124161683391889,-0.000176901584270447,3.86425136760315e-05
1.50834912959184e-05,5.35958218676929e-05,9.95529203686265e-05,-0.000121363572097452,-7.73422079901016e-05
3.13912295569178e-05,-4.57054646694584e-05,-7.54779146832617e-06,1.29901920396165e-05,1.79175602091368e-06
-3.06472896478673e-06,7.65291104457696e-05,5.76229655751619e-05,2.43498930416876e-05,5.22749500188567e-05
3.11424193555925e-05,0.000114746718402661,-4.52003555117319e-05,0.000129377219394426,6.95620115070227e-05
1.58907409599383e-05,6.98476029481804e-05,-2.30758372492119e-05,1.22679048786427e-05,6.81760936727194e-05
3.35772644701975e-05,-4.87607857333553e-05,7.30772717403896e-06,4.08178152338036e-05,3.44243608187049e-06
1.95600860138193e-05,-3.46669556202337e-06,4.09832157711224e-06,1.08806199955373e-06,2.34448873217416e-05
-2.05606382503649e-05,6.7461222806841e-05,4.1550419693555e-05,-3.30342048502243e-05,1.10260488574308e-05
5.61118625117399e-06,-0.000133480358082002,1.90782842984578e-05,-6.73621821663528e-05,-8.70703476464304e-05
3.87379870117557e-08,-7.73592008772852e-05,-5.14454340220196e-05,5.12176836811985e-05,-4.8313113936006e-05
-4.10370475098001e-05,-9.95655945864047e-06,3.82596572487306e-05,-7.31536921842372e-05,-1.97502932484146e-05
4.62910068720609e-05,4.02429905598938e-05,3.66687489987289e-05,-6.67950086200433e-05,-3.06473159797337e-05
3.85743503201792e-07,-5.48472148921006e-05,-9.28391492475077e-05,0.000124639079474939,2.67115390237702e-05
-1.28781771698791e-05,-6.03495377515563e-05,8.83348776100835e-05,-0.000160498632042723,-8.32036607682729e-05
8.37828998824888e-06,4.70239699674799e-05,1.24764239726102e-05,-4.17111016237174e-06,4.3185768277714e-05
-1.40777833885376e-05,2.63717495530537e-05,6.04614908102424e-05,2.65382116407291e-06,3.0044647417558e-05
-4.36007591953562e-05,-7.05099279378219e-05,-0.00010551506189636,2.10661075904464e-05,-5.1516963197402e-05
