-3.29772695567684e-05,2.13511358231477e-06,8.31429192645574e-05,9.11975726154449e-05,-1.97696154977742e-05
6.04974529488489e-07,-0.000105747326805755,-4.93204212848089e-07,5.4859938226929e-05,4.39357474109471e-05
-3.40955197907439e-05,-3.64653399655218e-05,-1.18005336299141e-05,7.43283255013691e-06,1.96015223189201e-05
-3.34684961794042e-05,6.70651537826305e-06,6.93490026969508e-05,2.18544139366918e-05,-1.38977357135915e-05
3.31456729803698e-06,-6.82538280028913e-05,-8.67719730446745e-05,-0.000105089235634863,0.00013381721245786
1.36021490417912e-05,2.88744177376607e-05,1.01859961401525e-05,4.09259647019832e-05,5.44685715853556e-05
-9.61430159466517e-07,1.58680390120577e-05,-6.05782394951191e-05,-0.000101836916239461,1.21186115220301e-05
-2.05596965425043e-05,4.22044106273796e-05,-1.65018738833173e-05,1.67880672470284e-05,6.70323224038056e-07
-1.46478298068194e-05,2.29408604339713e-05,3.387605942533e-05,1.96247288756484e-05,-1.07510141488037e-05
3.68248385333218e-05,-2.54190597640777e-05,-6.24951167625356e-05,-2.12328378711354e-05,6.42832289525539e-05
-5.87992303000218e-06,-1.98911072242283e-05,-5.6546140631894e-05,-0.000118606371767517,5.93350456357005e-05
-4.39196440675491e-05,-7.43324506979424e-05,0.000122791798340246,9.1698595197457e-05,-2.05652677147605e-05
-8.53992356916387e-06,4.52377165606628e-05,1.23587456549742e-05,-5.52003103347757e-05,-4.30741433345181e-05
3.30134806656315e-05,0.000127607246382079,1.11933661829085e-05,-5.99639136229545e-05,-0.000128107940895679
7.3300430317146e-06,-5.22437759573654e-05,5.59804499859639e-06,4.06592291283527e-06,0.000117044062982508
1.89034554337143e-05,-1.24871108428635e-06,4.36088021320245e-05,5.04357017201737e-05,-8.17112655003117e-05
1.67447649189332e-05,7.37422713516793e-05,-3.00097251279297e-05,4.30033261643916e-06,-4.5015952444426e-05
5.76791269625397e-06,4.02679563618825e-05,0.000111987067671809,4.63024570306332e-05,2.4426789758139e-05
-2.76939459596172e-06,2.14228389075974e-05,5.07320100178549e-05,6.18275916122236e-07,2.89711365144258e-05
1.13948718765623e-05,3.31262770235672e-05,9.89713819124171e-05,7.65886022460324e-05,-3.10472701558e-05
-2.84307566013184e-05,-7.38196180961479e-05,-6.85754313763337e-06,4.97068936433837e-05,8.42929447189986e-05
3.23339461006486e-05,0.00011242836693039,-1.06021292519736e-06,-3.84064873449506e-05,-1.61542582465144e-05
-6.01214789389813e-06,4.19034961109499e-05,-2.2105884408002e-05,-4.14908077211376e-05,-3.83617089082919e-05
-4.50277325585183e-06,-2.77007614629021e-05,1.15626737331646e-05,2.18417248993291e-05,-1.0531918142519e-05
2.31219108624728e-05,5.63033377538728e-05,8.2337439443391e-05,4.01889681352219e-05,-9.33225174551235e-05
2.45967515363413e-06,2.90496453966783e-05,-5.38366996058362e-05,-6.9397184627277e-05,-8.96768503411968e-05
-2.64939272557051e-05,-7.22522534840657e-05,4.01766161602724e-05,5.12643572745733e-05,7.85391921736098e-05
-5.1849725757279e-06,-0.000109970003745029,-8.92516725679493e-06,6.23812477221817e-05,3.70757609352017e-05
2.400813900206e-05,-2.31428659290011e-05,-7.61149868265807e-05,-1.1928704148994e-05,-3.08295809244045e-05
2.02374732711514e-05,2.45248887078448e-05,0.000101981183646289,0.000104402132288985,-2.22746513294916e-05
1.64280438164596e-05,-6.74198981821246e-05,8.10692124112722e-05,8.19359381389453e-05,2.19183309242143e-05
-2.56055979049292e-05,3.42254038334059e-05,-0.000136733997475346,-0.000107657676386076,2.95251771114526e-05
-3.12903251546825e-05,-1.28055504115877e-05,3.12439664117627e-05,2.59838977763575e-06,-2.60044069464817e-05
-5.26719175206565e-06,-4.98219130634131e-06,-2.88905511248653e-05,-4.65720133787167e-05,8.7563523915408e-05
3.1932330858413e-05,0.000161051062770028,-4.64224992816746e-05,-0.000120581283198567,-0.000149589841044045
-9.89490141892113e-06,-7.08792748897061e-05,-5.20810440054542e-06,-5.68793097296387e-06,0.000134972678847598
-2.3265047468983e-05,-3.28223819376189e-05,2.14659818106098e-05,4.26282397645284e-05,4.22810440054242e-05
-1.22907569660285e-05,6.70675526612641e-05,2.46358229286425e-05,6.19659864057845e-05,-8.53878546815939e-05
1.80649956477034e-06,-4.01140865620786e-05,-5.45229714727265e-05,-4.83571360055737e-05,9.36519639737234e-07
-3.64138598148166e-05,-2.13781182237645e-06,-1.2060642287544e-06,-1.98974527779278e-05,8.46588083879592e-06
2.06684664559292e-05,3.46138837108912e-05,8.32257035483338e-06,1.78286986380367e-05,-1.90028116389299e-05
9.00961331732698e-06,-8.55894234487555e-05,-4.02034650861112e-05,-2.9694492398918e-06,5.71980108735693e-05
7.12126537829231e-06,9.43106604515091e-05,0.000324853167233416,0.000271092569455756,-0.000177425487599165
-1.00461178906358e-06,-9.36835491432416e-05,-6.14090914725977e-05,-9.87296758172116e-06,2.45535521538848e-05
-3.25743325696535e-05,2.41935579806075e-05,3.35945527226495e-05,1.23238211712921e-05,-7.50407840142704e-06
-3.6612539321759e-05,-0.000110977642425531,-5.19613242405241e-05,1.39179400686023e-05,0.000133454314321724
-4.0315914999945e-05,-7.76582127587384e-06,0.000118132614101982,9.82057818221105e-05,-8.94347260305404e-05
-2.29860296324486e-06,2.17028332314811e-07,6.58648117278749e-05,5.91917028359258e-05,-7.54748491797294e-05
5.5792974502612e-05,9.06072080583421e-05,0.000134394518351033,0.0001119744121629,-9.286031778024e-05
4.24857232935025e-05,3.8532486060882e-05,7.19485724704163e-05,0.000105832258960147,-9.45534939184317e-05
3.31143263731983e-05,2.21700101221651e-06,-4.00160061520882e-05,-9.92862722408622e-06,3.98437231335719e-05
-6.2956141950371e-06,-0.000118573974331449,1.05155109805674e-05,7.25617329287675e-06,8.63222081219929e-05
3.37554076819435e-05,2.89451481039415e-05,1.83412990809019e-05,-5.24710294805413e-06,-2.25786834932492e-05
1.76607922263717e-06,-3.77643988298648e-05,-0.000120339254740124,-0.000101768517677253,-6.11933178077719e-06
1.09521742061999e-05,-7.16524783824897e-06,7.14248303951728e-05,5.37765082462639e-05,-1.14071300814921e-05
6.6778137428195e-06,3.14034404542165e-05,6.34116085320883e-05,5.80697658715941e-05,-7.57573907744025e-05
4.02587068612139e-05,8.89412429127615e-05,8.79793725495771e-07,2.38837470273606e-05,-2.67475996958056e-05
9.81835039694724e-06,4.17482466066943e-05,1.76155716872563e-06,-2.13886563377605e-05,-6.22328093661844e-05
3.21817662250058e-05,1.01070170533385e-05,0.000108825720517642,0.000135318613105582,-4.4310388226589e-05
2.33157617230462e-05,-1.06052401431148e-05,2.6163719886211e-05,-2.29743364115493e-05,4.82038837590499e-05
-2.5287659801016e-05,3.86770961245508e-05,-5.49579432884736e-05,-1.38078219717346e-05,2.24174838920295e-05
2.35870616061953e-05,-6.24610546534616e-05,-6.12377375326035e-05,-2.45499371126807e-05,-5.30560238605722e-07
-9.94203445754474e-06,-0.000134387523378581,1.26293429798692e-06,7.46707126406248e-05,8.87656492975735e-05
-1.23485129288961e-06,-2.69679602461836e-05,2.55455121088988e-05,4.25113844573458e-06,-2.70003161805704e-05
4.56011969753382e-05,5.29599634794875e-05,7.72068469165735e-05,8.25063033335554e-06,-7.93537058587716e-06
-1.53336947463817e-05,-5.8949939152751e-06,1.72502280839281e-05,4.46618643313843e-05,-2.5568005209488e-05
-6.26128534422373e-05,-8.55025889121516e-05,-0.000196121106631794,-0.000191659689023558,0.000138553615528468
-1.48192862117355e-05,6.1936664298289e-05,4.32284290678842e-05,2.24464612651786e-05,-9.63182332614231e-05
-2.6033598869716e-05,-9.77042608052714e-06,5.1027620919533e-05,3.26436451857152e-05,1.62055083384208e-05
4.08479040040779e-05,3.24971857377774e-06,6.33912068211237e-05,3.01618432369478e-05,1.74452329678545e-05
1.98601182386112e-05,1.47871211758077e-05,2.75808643393651e-06,-5.00081303530198e-05,2.82811983892401e-05
3.16224536731685e-06,3.60047864218879e-05,3.03902906801317e-05,-2.63529777309015e-05,-5.54844613982668e-05
-2.92835798548842e-05,-0.000101883955473723,-1.74558074641583e-05,-2.37597829077099e-05,9.9955004760498e-05
6.41989660112066e-06,5.27011965298281e-06,-3.4118623433683e-07,2.99190052003201e-05,-7.0397313052994e-06
-3.55177079340958e-05,-1.20093112859713e-05,3.8983044460982e-06,-3.4795684484047e-05,1.38959587944942e-05
-4.60854554411759e-05,-8.06664835021522e-05,-0.000189853931618814,-0.000166497390772392,0.000139212516548713
-3.63145695875725e-05,-8.55303695576995e-06,-4.43134848495465e-05,-1.38491007446295e-05,2.79412069011119e-05
6.65323559283099e-06,-2.99448227175323e-05,-1.44762491684542e-05,-6.74249822269551e-05,9.47616248986308e-05
-3.86928879090507e-05,1.45330954492115e-05,8.16803150023497e-05,6.74228906963155e-05,1.71073034029782e-06
3.47470555691643e-05,4.80361178998544e-06,-9.11023722228051e-06,-4.87353071194149e-05,7.98694827621069e-05
-2.23359058982163e-05,2.30159272536915e-05,-4.87028828007981e-05,2.45437921976037e-05,-2.40646898138685e-05
-1.5257711622111e-05,-2.96547794265837e-05,-1.40090190310196e-05,3.39174340310417e-05,7.92556329470533e-05
-1.62505928615555e-05,1.63393260943261e-05,1.17597611221492e-05,-4.74983463679244e-05,-5.88348673975456e-05
-1.79368129994526e-05,1.33379298227872e-05,-2.57699975363779e-05,-1.45513128725929e-05,1.36221451420423e-05
1.1513207304241e-05,1.58724724853323e-05,0.000117836075948558,7.82566968127474e-05,-6.82806309054692e-05
-1.73252901257021e-05,-0.000115038480369041,-5.92185362349103e-05,-1.76921962674941e-05,5.63140886474768e-05
3.85551139135369e-06,-1.88764090400144e-06,1.62936424150074e-05,-4.46270343787366e-05,3.27970967808469e-05
-1.02753150205473e-05,-6.83299487866894e-06,-4.67065150303825e-05,-1.57225668040004e-05,4.55246824943723e-05
-5.56511887683177e-05,-0.000139758721056722,-0.00017446468453169,-0.000143698566201272,0.000161052297337696
3.23402427695572e-05,2.90009864560197e-05,-1.44630227457763e-05,4.59072976311331e-05,-6.83389413749482e-06
-3.32078850876147e-05,-3.10432581373277e-05,-7.28616990759501e-06,-8.69125251297534e-06,4.20080130063232e-05
3.15892061017935e-05,2.19834613583054e-05,-0.000170702587696655,-0.000153702933383832,7.95690350101303e-05
-1.11141814850083e-05,4.81787610026925e-05,-6.78690347554576e-06,-1.49674813354472e-05,3.75780536072457e-05
-1.43935872929333e-05,2.47052200141769e-05,-5.15788474670944e-05,-0.000101951160116738,8.66527570373155e-05
3.508720652722e-05,7.94905742481468e-05,3.26212664852812e-05,4.15056774638885e-05,-0.000105954721044116
1.19156759218444e-05,2.9738216330152e-05,3.94841482409516e-05,4.60331448132807e-05,5.95007637598607e-05
-9.1111343197522e-06,-1.07599122383856e-05,5.88029537732942e-05,8.27939505203111e-05,5.58728408436217e-05
2.72319936426987e-05,1.62330688699979e-05,1.40716369093906e-05,6.10252656996713e-05,3.16363872953543e-05
-2.4724839961793e-05,-2.79959444041871e-05,9.64485408857226e-06,-4.0731604521926e-05,2.01826799025988e-05
3.63215481131825e-05,-1.06735835240156e-05,-2.86752435898403e-05,-3.89637853398101e-05,1.33377365573734e-05
2.37644666631451e-05,0.000110303834068251,-3.40123390846657e-05,-8.58275437367791e-06,-2.66905732025612e-05
-3.91407630571367e-05,-2.29904627045448e-05,-4.74927455729924e-05,-6.5770497688818e-05,7.12241964103845e-05
-2.13612987776896e-05,-1.79203287729913e-05,4.0946087286381e-05,6.63011479610128e-05,-1.28877819114715e-05
-3.66230954543107e-05,2.42136397395258e-05,0.00011564241991845,0.000138870184963251,-6.68670932841925e-05
-3.72989919277141e-06,-5.47406620837557e-05,-5.24585573702163e-05,2.77227808146186e-05,7.06170283622984e-05
-6.87250070748923e-06,5.30030988227247e-05,0.000116013231701049,9.90804972907051e-05,-8.06629847641654e-05
1.99186338666602e-06,-3.43372926289158e-05,3.27133410968972e-05,8.53655877851222e-05,-2.31863127252592e-05
-2.51471281627154e-05,-2.14722969192704e-05,1.00222909825869e-05,-4.26507586919113e-05,1.59138262977277e-05
-7.56303949547117e-06,-1.66195651628584e-05,-8.05703286734806e-05,-4.381389307297e-05,-3.0760023769694e-05
2.75977352893923e-05,0.000110288239155524,0.000127810651275995,0.000119874070711165,-0.000110798290010548
1.17358021211221e-05,7.42162911921778e-05,2.24621318231014e-07,4.03862663264605e-06,-4.8069382585208e-05
5.07863544016209e-06,4.28728066054094e-05,6.20166094326684e-05,6.69683771506863e-05,-0.000126813302350328
7.30243845007389e-06,-2.17202294048547e-05,-4.12358400266555e-05,-1.75061756653058e-05,1.85843221251615e-05
-3.28534118644149e-05,3.41009201287858e-05,2.76179005671113e-05,1.79468407913005e-07,5.6865233081463e-06
-1.05523113182638e-06,4.23731677966449e-05,0.000146916514663903,0.000130429429620203,-6.44170858462034e-05
9.95422407327222e-07,5.31091490302359e-05,8.31462447989383e-06,-4.41234502966934e-05,-4.84834221819396e-05
-4.3217145183769e-05,5.39549523650081e-06,3.41422840930429e-05,-5.42163712424383e-06,-3.93198785465802e-05
2.21664327117052e-05,8.28007738153937e-05,0.000102526776956823,9.62815413132299e-05,-8.85793202889721e-05
-1.80258403226776e-05,-0.000147445120858998,-9.16112649429073e-05,-2.81774291488387e-05,0.000141336393148286
-1.23691363433485e-05,4.75883927124618e-06,-0.000117613796115155,-3.92871524189382e-05,5.10223402809705e-06
-3.1993820134759e-05,-5.33674422314135e-05,-5.72767467289964e-05,-3.67732364181144e-05,-2.35156454916613e-05
1.74771710650511e-05,2.09372974188603e-05,0.000146351504524123,0.000128439112041464,-0.00011220891369302
-3.85310010533571e-05,1.82392918749667e-06,-7.20206207039212e-05,-3.05693730899785e-05,3.13077901853687e-05
-3.77214921185493e-05,-3.84521406003414e-05,-2.07136786979455e-05,-7.70635411300282e-06,6.85115487804465e-05
-1.78069650058579e-05,1.76603764057699e-05,5.12785293426022e-05,7.4637130180066e-05,1.42942198086043e-05
-3.59134665898311e-05,2.35074856500936e-05,4.975376582759e-05,3.34375826300143e-05,1.62085719486298e-05
-4.12107726289379e-05,3.53572185305763e-05,7.35342233607663e-05,3.85252193775817e-05,-4.69664480928297e-05
-5.44166929881649e-05,-7.81539004406064e-05,-0.000122273728037719,-0.000129954941894076,8.58838480303976e-05
-3.18372488661503e-05,8.97555029402968e-06,0.000124582838585294,0.000128473797621344,-5.79916216200851e-05
2.06887216120035e-05,-3.17967815270079e-05,-2.54584940822169e-05,-4.16502263820819e-05,5.82831293639771e-05
-1.25733054768035e-05,-8.07768564460473e-05,9.16330842774602e-06,-2.50573925685612e-05,7.33089021902026e-05
-2.50529712678026e-05,-6.14743256173319e-05,-0.000106984567182835,-3.28505258851375e-05,8.47765095005926e-05
6.01768610458764e-05,8.35619784038725e-05,1.52935201781558e-05,-6.93190445324561e-06,-3.06177208735135e-05
5.5124876642372e-05,8.67216255291296e-05,2.18381915350024e-05,-3.46011706304938e-05,-3.51306966444613e-05
2.66484734843712e-05,2.82094356793392e-05,-9.89727860617163e-05,-0.000123179718764217,7.17977839458712e-06
1.23193664438061e-05,-4.6491925670145e-05,-3.15329330963602e-05,-3.79604256525053e-05,-2.42820396490635e-06
5.97012861262349e-06,2.10436945797016e-05,-0.000105844694671038,-6.31218367512541e-05,-3.14953291263927e-05
4.11521085767955e-05,9.60046950926342e-05,5.7204891168899e-05,5.22513638143345e-05,-1.60111727681121e-05
-5.94320576854204e-06,2.5264671832869e-05,3.95456209375375e-05,9.26265693598679e-05,-4.1513262257818e-05
-1.17691649206203e-05,-9.45450512571727e-05,-4.5297172631418e-05,-6.17069399854754e-05,7.44955826247372e-05
-2.41040356589065e-05,3.16695331120654e-05,0.000143026162952137,0.000159799451416269,-8.96231641356006e-05
1.07694114779855e-05,-4.68003407585339e-05,-1.25039442276596e-05,-2.0441161482103e-06,7.15938308169289e-05
4.69089410731304e-05,3.99888463739133e-05,-0.000123371256775937,-0.000153059123828797,4.74190326585924e-05
-3.51541513497004e-05,-0.000124849743273607,-5.16745792127072e-05,-5.11466836750992e-05,0.00018284177117588
1.34385274529206e-05,-2.19759750943373e-05,-4.16523709150114e-06,-5.00296075684863e-05,6.19077533595215e-05
-4.96954703010165e-05,-7.90025972893152e-05,-6.69667674960049e-05,-4.98343712460346e-05,0.000129431136618734
-1.63896109326564e-05,-1.87147263476931e-05,0.000138385834329591,7.89480366073334e-05,-8.38007543598391e-05
1.6385465641373e-05,-5.35660886525343e-05,-1.11113915313029e-05,-4.99364596842261e-05,7.51563961471056e-05
-3.92056436385407e-05,-2.88410021484801e-05,-6.50843689713257e-05,-2.94541504298032e-05,5.16174087425476e-05
2.30466386485092e-05,1.12182174757574e-05,8.54252188353933e-05,3.53765391147447e-05,-1.27213673062854e-05
1.66566427205157e-05,0.000117486596114196,8.72654153898316e-05,2.55107107767496e-05,-0.000140283444120159
-3.13363183639768e-05,-4.37931454849251e-05,-6.51284924827169e-05,-6.80431546693383e-05,0.000102242676619705
1.25414562396398e-06,1.09425181415442e-05,-3.45947980054288e-05,-4.86560449848168e-06,3.53575203897197e-06
-1.1700163657067e-05,-9.65988172809708e-05,-0.000106865290734558,-2.36377118761425e-05,0.00014155167075468
-1.19436651520528e-05,-6.48107001550196e-06,-3.56786528690369e-05,4.5703858773982e-05,-3.11395487848501e-05
3.95083665498306e-05,2.20189288994668e-05,-7.36690082989032e-05,-0.000106287389191566,8.57669510221199e-05
-4.8372737523884e-05,-7.10730626803193e-05,-2.89967089768841e-05,-6.61988439030125e-05,9.77993337963164e-05
-2.36585554288801e-05,5.16293231567008e-05,-9.00936181378737e-05,-8.24627508588611e-05,2.59548716430953e-05
2.76660256742131e-05,-4.26333876993095e-05,-3.35254240860453e-05,2.52610202961908e-05,2.02904725816661e-05
-2.83978025097567e-05,-9.69353773509124e-05,-1.45443372105778e-05,-2.80543151918417e-05,0.000157323306437075
-4.31662049810326e-05,-9.54438883503708e-05,-0.000168974202279279,-0.000130264229300162,0.000125462990692336
-1.00321695868963e-05,4.68413618647602e-05,-4.40028006408933e-05,-3.44932574497292e-05,1.53140984591802e-05
-1.94412729710144e-05,-3.72156102506869e-05,-1.9819712831491e-05,-2.20313583724715e-05,1.15389396425511e-05
2.82428887774728e-05,2.64511492333356e-05,0.000134206848954461,0.000114084739296276,-7.27322974438514e-05
1.24127335639049e-05,0.000105744546368794,6.21334652610355e-05,-3.36923747268591e-05,-8.05755673280976e-05
8.37110398368808e-06,1.41951988027284e-06,-4.38329123091933e-05,3.15677138707076e-06,-5.00599817993074e-05
-9.96202560438809e-07,-7.3994907204121e-05,-0.000210207308592992,-0.000114688555075866,8.34535637861346e-05
2.69040185138919e-05,8.23024456477811e-05,0.000111967554263107,5.44167859890867e-05,-0.00010668218140773
-1.0393061170753e-05,-5.99886098858843e-05,7.79378132075131e-05,4.62413096076321e-05,-1.04365007960453e-05
-8.85869515236683e-06,4.62567461333111e-05,-0.00012670514384112,-0.00016219959213819,3.02726508715894e-05
-2.20845591783161e-05,2.21605074092245e-05,1.43781746772805e-05,-8.4456871689043e-07,-5.61924471632968e-06
-2.8813751759406e-05,-4.25275363078451e-05,2.12064559553071e-05,-2.45136494718685e-08,4.38396373303215e-05
-1.0575014999306e-05,3.27207993476809e-05,5.95592437099289e-06,-4.53850797470586e-05,-1.06398937039492e-05
-1.17804264809494e-05,-2.22200442017148e-05,-4.71974013917636e-05,-0.000105549730541238,-4.08452675805165e-06
-2.41906070907044e-05,-3.50101551484665e-05,1.89902077431888e-06,-1.55585104244207e-05,7.32130957094967e-05
-1.66191862113862e-05,-6.0983336241086e-06,3.61290680330213e-05,3.09738826185815e-05,2.9049996783188e-05
4.08206881836612e-07,-7.23260538278624e-05,-0.000201626245366178,-0.000164301682712826,0.00015913311284769
-2.21360679213355e-05,3.42397568393941e-05,2.67379428458546e-05,-1.54847271922595e-05,-4.89307910182035e-05
-1.05895034657724e-05,7.73593372699001e-05,-3.26365421060773e-06,-3.98438307223476e-05,-0.000126506455038611
-7.20974783104734e-06,-8.74367432025421e-05,-7.18901251384686e-06,-2.36646903468622e-05,5.12796302112743e-05
-2.54108224479177e-06,5.14925974409778e-05,-1.28133958123491e-05,-5.09319401320992e-05,5.24080336834668e-05
-3.8995449373143e-05,-2.32330361842845e-05,6.97976961452022e-05,6.48533276559692e-05,-1.06849920580469e-05
-3.71441314048349e-05,-1.92039032660043e-05,1.73223720855997e-05,-7.37265941446927e-06,4.49117805918376e-05
4.20764906414506e-05,-8.55327417821278e-06,2.63970438903349e-05,1.35202958225101e-05,3.43587139701927e-05
-3.95289173889307e-06,2.47916765182845e-05,0.000186207991718753,0.000142791906144333,-8.5352281585834e-05
1.64172488016027e-06,4.23307964111779e-05,6.4020214940989e-05,9.66804878629583e-05,-1.50776311385644e-06
-1.6782102160163e-05,-3.79495855614819e-05,-1.28852966660468e-05,-5.13364697225545e-05,5.83828549725987e-05
6.49264357440105e-06,-1.7169866594071e-05,-2.50775393634052e-05,-5.36928837673135e-05,4.1490450467541e-05
-1.51172376727934e-05,1.13063821197374e-05,9.87246297021553e-05,6.63482756238598e-05,8.46483166705044e-06
-3.31145437258436e-05,-8.3347545247255e-05,-1.81836472666146e-05,1.5437576478047e-05,6.10980040523653e-05
-5.87293592125254e-06,-5.61270601780538e-05,-9.76692934290698e-05,-2.16432172928535e-05,4.96239219805517e-05
8.65989244536067e-06,-1.75262927423582e-05,-1.75462446151083e-05,-2.99698953162913e-05,4.51971768790829e-05
-5.13127731237309e-06,-6.46059188979552e-05,-2.27720438476453e-05,6.28847379425859e-06,8.99081632242222e-06
-3.06782542527789e-05,6.54176937558476e-06,1.64231098871178e-05,-2.42133212198839e-05,3.79055886952189e-05
-1.66312811545633e-05,-9.09054878505359e-05,-3.07171970905444e-05,-4.62874582664846e-05,4.03919006088253e-05
1.68419516307071e-06,-6.6454523729833e-05,7.9157188624116e-05,6.06933415905211e-05,4.76961995300689e-05
-5.298607953935e-06,3.22616294829995e-05,-3.44883659009137e-05,-3.28851833472455e-05,2.44523006200745e-05
1.59990968698917e-05,-2.20619596576272e-05,-7.09667708581275e-05,-6.28969840278785e-05,9.93591011148226e-05
-3.29268992433523e-05,9.41445469018518e-06,-7.88146660321673e-05,-9.43162823397446e-05,7.90572921263012e-05
-3.54773415240208e-05,2.42526272003887e-05,7.67083045609512e-05,0.00011026545470921,-5.71376769749455e-05
-2.36164772144094e-05,-1.90094905232221e-05,5.5547903370966e-05,-6.00208059237517e-06,1.18335456853733e-05
-3.37347686623564e-05,-6.26428247574309e-05,-5.34135695394008e-05,-2.1455135483669e-06,2.50198057120704e-05
-1.749909558967e-05,-9.4322407361897e-05,6.05391455217128e-05,9.65197041322595e-05,4.61624123364826e-05
-4.22170942988095e-05,-0.000122184555563319,-2.13033746798269e-05,7.4082748515384e-06,6.64622773954517e-05
2.41972000323335e-07,-1.97896784115234e-05,-3.22814293414577e-05,-4.79467464361297e-05,1.70489244241779e-05
-3.95879393994741e-06,-1.03203838947998e-05,0.000175937826769521,0.000181040173975835,-0.000127840828052919
2.30539682673441e-05,-2.98612635360383e-05,-1.66996945920528e-05,1.07501981184923e-05,-4.46070715667278e-05
-5.73472374704889e-06,-6.09184811776896e-05,1.28167449924164e-05,5.10249583162074e-05,6.06766003882753e-05
-2.15086403971719e-05,5.68566249328283e-05,7.78039029906449e-05,8.68984801805212e-06,-9.73101962815751e-05
7.71811459900047e-06,-1.60252157538047e-05,3.5709447044117e-05,8.34766718873245e-05,-6.87195207334331e-05
4.22849006050017e-06,-3.39645721629078e-05,-8.13678138613128e-06,1.19347744287096e-05,1.02549301119881e-05
4.49238523015118e-05,8.84541348444595e-05,8.74443192561252e-05,4.23699156728615e-05,-5.48175861153068e-05
-3.68382177365601e-05,-1.29275120437655e-05,-2.93559650364001e-05,-7.5223847941102e-05,5.69480149671006e-05
-3.66719673302712e-05,1.23276340752236e-05,-0.000105912563528841,-9.24064422047105e-05,2.71175406376226e-05
2.72525060243071e-05,3.84589099049069e-05,-4.0870752777192e-05,2.92103470479494e-05,-2.34001438252864e-05
-3.19221819204891e-05,-8.51877588331066e-05,1.65926541633139e-05,7.34645181633675e-05,5.29629050697694e-05
3.84650539348643e-06,-1.67667684786939e-05,-1.19253856616072e-05,2.04741159965036e-05,0.000113893648021433
2.47012082648974e-05,4.14130988823562e-05,-5.1372231901181e-05,-0.000146525732063192,5.94982887152415e-05
3.54766582957047e-05,1.15489065000252e-05,3.70119898154202e-05,2.30051326639278e-05,-3.85041214025572e-05
-4.4728354378058e-05,-1.65192093535907e-05,-5.26858528027635e-05,-5.29884762377166e-05,-1.42018700013218e-05
-2.87035518892663e-05,-1.87775493578155e-05,-2.4914087442892e-05,3.25937763333979e-05,4.67280003247192e-05
3.7543488700254e-06,6.81063847347191e-05,0.000121409140445145,6.98581049772971e-05,-6.65770385601284e-05
-3.98897081384255e-06,-0.000109570138016661,5.09329623136527e-06,6.63566446638551e-05,7.65365519542867e-05
4.29335614431182e-05,-1.61285999405357e-05,2.59338243932967e-05,5.6695252947045e-05,3.38157656350868e-05
-4.4728492770436e-05,-8.59069616872162e-06,-1.58888053883915e-05,3.05818158662422e-05,1.6012221266801e-05
1.46460323360949e-05,-4.60861958992879e-05,-1.11172412135575e-06,-2.56854755139126e-05,-5.11886054098531e-06
-3.15338474579252e-05,3.82792089070216e-05,-5.57481651226983e-05,-2.9026221261623e-05,7.06078282589367e-06
1.22584523685878e-05,1.69040609041482e-05,7.0089737083701e-05,0.000129777826635147,-0.000157197103559436
3.93022299526629e-05,0.000107627170832253,0.000203934100783119,0.000126136654572139,-0.000203261157994496
3.38153188020937e-05,-2.15774320022289e-05,-3.54609697950771e-06,-3.45874042736039e-05,-2.50017767020858e-05
-1.0582383098676e-05,4.01857533346472e-05,-5.19579998408921e-05,-8.57942397227703e-05,5.31349683072405e-05
1.4111837546103e-05,-9.87936550696201e-05,-0.000138596249771817,-5.9298890020112e-05,0.00011071989782455
-2.1627423290035e-05,9.50149349424424e-06,0.000127652067047261,0.000173442554168171,-2.62634504603131e-05
1.94080047378395e-06,4.70582701219669e-05,2.20519049008874e-05,4.0126412464944e-05,-4.31905072632801e-06
2.28069595397938e-05,6.80893393697908e-05,0.000107152020280835,3.0691075246395e-05,-1.25731425708594e-05
-7.88422597029908e-06,-7.77888382899121e-05,7.78455427495061e-05,5.89456274703337e-05,1.61595678429278e-06
-3.65945177921776e-05,-3.43008853445317e-06,-6.57584394064466e-05,-0.000106976776809385,4.33953960493405e-05
3.86073345441376e-05,6.28035305166134e-05,-5.93742992550633e-05,-9.35632036329442e-05,5.14435663485325e-05
3.155592437047e-05,2.5094064038256e-05,1.44749648201383e-05,1.93418084168901e-05,-0.000105181449411489
3.74321849648096e-05,0.000103220128629379,-0.000141499843874149,-0.000130086338492867,1.66192852071008e-06
3.32210823571236e-05,3.66868496900067e-05,0.000141418012757868,0.000160961921298839,-0.000101379025569339
6.61278944707845e-06,-0.000104348116379787,-2.29179860753917e-05,-2.33848802544373e-05,0.000106375337345843
5.48493443391802e-05,6.8612871309545e-05,7.83118007462695e-06,2.17133068588392e-06,-5.96408337904195e-05
-1.00259283553414e-05,-7.94743881359229e-07,0.0001142545527578,0.000129243258326178,-5.85336722575627e-05
1.56612875513966e-05,5.56622963809033e-06,-5.98254101335373e-05,-4.50123527053497e-05,-4.44546396151144e-05
-1.51124038317793e-05,3.0357829345352e-05,0.000115452208642337,6.62736205346283e-05,-1.57062898252988e-05
9.09866232962993e-06,7.81762155601589e-05,-1.22411858392118e-05,3.51174749859105e-05,-7.40713465826954e-05
-1.30282065609724e-05,5.08330169281593e-06,-2.30473471203858e-05,-8.20602104625267e-05,1.10188878212049e-05
-4.26232897214826e-05,3.11762283146456e-05,-3.34261169524764e-05,-7.03621550295462e-05,6.79917970246409e-06
-5.31980340755304e-06,8.04754310584094e-05,4.95594934589598e-05,-1.28601544808345e-05,-8.42468870016921e-06
-1.03782270087376e-05,-2.34022751944833e-05,-5.03428071136856e-05,-0.000109772140368098,1.39978345708294e-05
3.30091116798307e-06,-2.34384329534177e-05,7.16117059861145e-05,0.000123081942373299,-9.10308092711332e-06
2.72081132064818e-05,2.5947021086737e-05,3.11584961487968e-05,5.16011944861869e-05,-2.45189749343504e-05
5.13186829822168e-05,9.35510510026122e-05,2.99391841583472e-05,-1.03154410676303e-05,-3.03587892490581e-05
1.8853459585402e-05,8.28359824780723e-05,2.25063930106986e-06,-9.0521503699279e-06,-1.16918338048095e-05
-1.9026845109236e-05,-5.19577104033312e-05,6.42736561559204e-05,5.76494531311601e-05,-2.8825638744476e-05
-5.34220181184294e-06,7.69759258475794e-05,4.18327598100654e-05,3.85325319155734e-05,-4.08241565004907e-05
-4.16717362561789e-05,-3.75526945108996e-06,-0.00013000288661468,-9.94433527366817e-05,6.9854285387257e-05
-6.10757313215981e-06,1.4586184742363e-05,4.5629112541558e-05,8.46428261697667e-05,-5.69948310542357e-05
-1.31392610319137e-05,5.18059226236526e-05,-1.10725262084112e-05,3.92227540216955e-05,-5.26956947134039e-05
-2.8012284407728e-05,-8.03926487283755e-06,-5.51437065248683e-05,2.94599946077843e-06,5.55481563170865e-05
-6.83356829912825e-06,-6.79597585352013e-05,-5.30230969387906e-05,-6.41879531510522e-05,8.81558685326189e-05
2.323470363251e-05,0.000104933445764709,0.000193699755884959,0.000162553370750263,-0.00012563933094698
-4.67850273084088e-05,-5.66608137758263e-06,3.3394782487581e-05,-9.47626901880342e-07,-1.57192182535446e-05
-3.78969780542376e-05,-2.79056927013078e-05,-3.36385963181243e-05,-8.25511082282504e-05,1.18220732533174e-05
-9.90613972681815e-06,3.8783703784867e-05,-0.000100715343846237,-5.84354297861148e-05,3.95285223843441e-05
-8.21374141921178e-06,3.01862547146118e-05,-4.13216109965525e-05,-2.49684250323894e-05,2.12350671781239e-05
2.90497224197253e-05,-7.44107041573021e-06,9.66908282726304e-05,0.000153208038290375,-5.06677567785832e-06
-2.06978022712632e-05,-2.74041120728973e-05,-5.4066142996712e-05,-9.48930573744455e-05,0.000120041503201941
-1.97731411732853e-05,-3.10696647657464e-05,2.35073905386842e-05,7.50258488071905e-05,3.85947850584091e-05
1.99731640474361e-05,4.57091694417104e-05,2.04103194462054e-05,8.95676615307048e-06,4.63509154564257e-05
3.14497330585362e-05,-7.41964218463393e-05,6.48333199096801e-06,2.52163698616259e-05,9.47805959310891e-05
1.4683553681192e-05,-2.9198621404145e-05,4.10787600697828e-06,-2.03525114866574e-06,7.99557315481122e-05
1.58930660833654e-05,-7.30714868859736e-06,-1.31142922921022e-05,-3.69970989811397e-05,-3.27015841793023e-06
1.22092287368913e-05,4.24441249770226e-05,-7.31078203107839e-05,-0.000136177460023534,3.26191836899324e-05
7.28950756379742e-06,2.62266419929671e-06,0.000110979362542735,8.83618340457293e-05,-6.36235426692721e-05
2.7997916513824e-05,4.09765926596877e-05,-1.37125044853308e-05,-8.34723469691068e-05,5.60613648154937e-05
1.46335673090473e-05,5.24320264218425e-05,-5.63034693167865e-05,-4.89037415536344e-05,-6.77624501909532e-05
2.53271166432822e-05,-3.10938810510648e-05,-9.25822481943122e-06,-1.30824472429373e-05,-5.77766896045867e-06
1.28767482618911e-05,-5.87380136140847e-06,-5.56590480903126e-06,-5.81883800585585e-05,-1.0841326423787e-05
3.10880875693027e-05,-5.97530825960152e-06,-2.76785856752536e-05,-4.83516723097249e-05,8.24480870002631e-05
-2.95730725875097e-05,-3.04905734689286e-05,-0.000112886273142584,-0.000116220256285809,0.000128420316249143
9.87480147126544e-06,0.000107913067317347,2.53564348209447e-05,-7.31972262682547e-05,-0.000111701114040753
-2.14667505840314e-05,1.81085971421563e-06,8.00141364879631e-05,1.36452178520774e-05,1.39551369934766e-06
-2.1882851316918e-05,8.77747527376706e-05,0.000219478242278006,0.000248693620951924,-0.000155632411439542
1.58604436620548e-05,-2.68394303452477e-05,-4.08165159840129e-05,4.49062644602794e-06,1.59574166817529e-05
3.44056930218909e-05,2.46711455499633e-06,0.000148130406878939,0.00011718147070197,1.25863166568755e-05
1.77310698450313e-05,-2.34289603544902e-05,7.09844374098959e-05,0.00012098557126573,-1.78262151614497e-05
-3.05319568812605e-05,2.32962850291579e-05,0.000170992388090821,0.000186065825451837,-9.44873828367706e-05
-1.84313606372226e-05,5.52576363019522e-05,-5.76067651756412e-06,4.80418115653435e-05,-3.66507537181468e-05
-2.31056557193057e-05,3.11522859308862e-05,-6.1013138033764e-05,-5.0949163267106e-05,3.84076056245589e-05
-1.97461620596236e-05,1.87916539831562e-05,-0.000136523277597248,-9.72634809794004e-05,-2.35483811574866e-05
-4.48960994955428e-05,-3.66050849925448e-05,-8.38665883956922e-05,-2.62468456605484e-05,5.11893998845029e-05
1.17040788460854e-05,-6.83148492336748e-05,6.14168662327135e-06,4.12599091324631e-05,4.75151272263025e-05
-3.71755939870356e-05,-6.70394484281171e-05,2.94318515588418e-05,0.000123698250325172,6.69472909871506e-06
2.19112377366702e-06,-7.77007415898086e-05,-4.31412121329861e-05,-1.28815837583143e-05,5.54856191234946e-05
-1.783617955789e-05,9.97032544981701e-05,0.000173065651852989,0.000140254159173626,-0.000131494109510035
1.57908406272524e-06,-3.3968140681328e-05,-1.83477417336646e-06,1.12020883481651e-05,3.72940320815632e-05
-9.27060866611739e-06,2.37307906749511e-05,-7.70686644487298e-05,-5.73677157425076e-05,4.58825890602868e-05
4.59490885699136e-05,3.4196433935084e-05,6.55442428045055e-05,4.63734507054685e-05,-6.64630556683598e-06
-1.51241177318955e-05,-3.30782528649246e-05,0.000114624449094836,9.35081554440812e-05,3.26982130055918e-05
-2.95472658357983e-05,-4.43657370821444e-06,2.87727393096107e-05,5.12749881725804e-05,7.80745760907942e-06
-1.06149748106169e-05,-3.68932479260827e-05,8.36638280869876e-05,9.62795435706709e-05,-2.31604600046817e-05
-2.53240797112503e-06,4.18282165295473e-05,-6.79228410120828e-05,-4.62819508963818e-05,5.72483510313661e-05
1.67434999521494e-05,-2.00836724206217e-06,-6.30379574728718e-05,-3.65704061229458e-05,-3.77871497802731e-05
2.98065701629495e-05,2.55722423713533e-05,-0.000135894290142426,-0.000148588943348587,4.91272748830741e-05
4.28665273496704e-05,6.47359769818713e-05,-0.000111725296432983,-0.000164528023505447,-3.69426848137303e-05
1.44338252005047e-05,9.51115335529856e-05,-4.948707784519e-05,-5.90492971045969e-05,2.4522043377362e-05
1.96408715022706e-05,3.03552127146602e-05,-0.000176298265412719,-0.000215348010075239,0.000126399041986326
1.04167204186205e-05,5.39294617740645e-05,-1.51339478873991e-05,-2.02953546449785e-05,-1.4545810699295e-05
1.56543426838677e-05,-8.1013760913562e-05,-3.77453214313944e-05,-1.8700490906539e-05,2.18853865119816e-05
4.0031267079409e-05,0.000110212963140842,-3.62686923425561e-05,-3.74948911758529e-05,5.42304652813631e-06
7.05710650452672e-06,-6.35459168401198e-05,-6.01785539623824e-05,-1.85645237420639e-05,9.32630971937776e-05
3.65759089711735e-06,0.000105601013490298,6.43728231982292e-05,1.34644832446871e-05,-0.000140953760107302
-1.43007510317789e-05,0.000110668349638253,5.40947023720376e-05,2.76496680511871e-05,-0.000129972282321315
-2.75033125894976e-05,-6.00710729082908e-05,1.40416120996011e-05,-2.72681438140325e-05,5.47697858013629e-05
-1.49824149132e-05,-0.000109093885295968,3.21492953859976e-05,6.86509659357221e-05,9.65539590577017e-05
2.17816640996893e-05,-4.54123790993859e-05,1.8560571124411e-05,7.60817700717415e-05,4.05084934017861e-05
-4.03754204627911e-06,-6.68890540026252e-05,2.70205966069689e-05,2.23331109560941e-05,-1.20105560022124e-06
2.83651684236052e-05,3.84196718379408e-05,2.87144014350652e-05,8.10041765198296e-05,-9.43993880702716e-06
-4.10944379054034e-05,-2.37206477989716e-05,2.5511801769344e-05,4.25568935360286e-05,2.48089511442062e-05
1.71779201346803e-05,4.23959535668203e-05,5.06514884781467e-05,8.27891850696866e-05,-4.62302746686569e-05
5.43424013249129e-05,7.87717192532363e-05,3.55006364392816e-06,1.96130689283972e-05,-4.06905183724219e-05
9.47800155285566e-06,-3.83378930982363e-06,2.13731442159691e-05,3.37473426436452e-05,2.17946401174015e-06
4.20294651334049e-06,-6.1825627605519e-05,1.01451663199107e-05,2.14352484056618e-05,2.31483482008305e-05
-4.62236765906559e-06,-4.25276028769668e-05,4.07747764032782e-05,6.48808049475218e-05,-4.21029050191709e-05
4.74666558542962e-05,0.000104533200301533,3.74118342315377e-05,-3.31891142702262e-05,-1.67817351905443e-05
1.29462509325689e-05,-2.61937181554924e-05,-6.00907989386731e-05,-4.36929355377068e-05,7.95121779898259e-05
1.29054423577497e-05,7.18550851898163e-05,3.01788587571651e-05,-6.99166662312995e-05,-7.32147716801391e-05
-5.47920456992892e-06,-8.55503858730753e-05,4.93501059444828e-06,-4.21740817733567e-05,5.74118059109497e-05
-1.85246677148273e-05,-1.22784966719252e-05,1.06365168038386e-05,4.7802860664858e-05,7.3149493520935e-05
9.80127906039778e-06,-1.32897917537964e-05,-9.27313613275359e-05,-9.15470126647336e-05,-4.41046217133853e-05
3.04796928790154e-05,4.32824225003418e-07,1.21803898347451e-05,-2.57041769931966e-05,2.07905064745973e-05
-3.79141015833443e-06,3.03199673399106e-05,-6.11820463529182e-05,-2.5061345743002e-06,-4.63562665732239e-05
3.73635926579043e-05,6.4718346635442e-05,-3.71876177721028e-05,-3.45686623174014e-05,-9.40040015551378e-05
1.66246658325729e-05,-3.02730548053568e-05,-5.9047126923525e-06,-2.69649461758551e-05,8.71625471287744e-05
3.09055736587612e-05,2.07606292530984e-05,-3.69820915483831e-05,-3.53034977002791e-05,4.76171997309711e-05
4.96231297999274e-05,9.34605794121689e-05,9.13311379519433e-05,7.95522093916081e-05,-8.67287520333882e-05
2.18543250563468e-05,3.76879493412506e-05,7.52670274248105e-05,2.64072037084204e-05,-3.63402972233635e-05
-1.7919824736154e-05,4.18512816169534e-05,-1.06990375695734e-05,-8.91504650057899e-05,1.90497027139895e-05
3.33040817283516e-05,9.99659188957223e-06,5.5281325476393e-05,1.54025550346575e-05,7.53678506866833e-06
1.73243696743367e-05,-1.55761473021115e-05,-9.88984552655398e-05,-5.26496982955401e-05,6.91754224420907e-05
-1.59485224571182e-05,-4.5521269699487e-05,-2.95525608798489e-06,-5.05679477228517e-05,4.83090362313489e-05
-2.43182766255715e-05,-4.60178395414629e-05,0.000128987434725398,0.00011129187729893,-2.61937808069884e-05
-1.70755733849603e-06,-1.56463871620462e-05,5.14655415774093e-05,7.566654997819e-05,-5.73219408594264e-05
3.34151789997471e-05,5.06786797607183e-05,-1.32163847017389e-05,1.74427986032846e-05,-4.18527580872769e-05
-1.50431487971354e-05,6.33897394755623e-05,2.99493653063785e-05,5.72466493326542e-05,-3.79553626907734e-05
1.78315323751399e-05,-5.10307648606388e-06,4.82612542097201e-05,5.61005372776614e-05,-3.65318699317878e-05
1.3805873317102e-06,-2.78091946857143e-05,5.89026377975128e-05,5.49881279652911e-05,2.08177886183855e-05
-1.31479364507356e-05,-8.61587366155366e-06,7.02805777934889e-06,-2.45733670796368e-05,-8.69476231386746e-07
1.22526837384778e-05,1.95012366118843e-05,9.10494425529765e-05,3.17620570301044e-05,-8.01361020869038e-05
-2.04587287182724e-05,-4.25286801690972e-06,2.31804515407182e-05,-1.96839740426628e-05,-3.39580444526426e-05
5.71143388325584e-05,6.72908959087294e-05,6.51898680339826e-05,1.00736937943171e-05,-3.17394553841539e-05
2.58111276285602e-05,8.14995833890739e-05,4.18409878763354e-05,7.64272217437546e-05,-3.19954515220667e-05
-4.76729407280001e-05,-2.56017690740246e-05,3.65210610977174e-05,5.29663754593509e-05,3.31301858357548e-05
4.97922348773974e-05,6.5231651094131e-05,-6.68875307539334e-05,-0.000110484789012942,2.44447671457984e-06
-3.67897678562079e-05,5.71600115020569e-05,6.07345588340674e-05,5.90270232864963e-06,-7.28414831420159e-05
-2.53220626064571e-05,3.95177894960801e-05,-4.03339153329726e-05,-0.0001082249599566,3.62406493455575e-05
4.05148008113779e-05,1.19156316680109e-05,-2.79241918166187e-06,2.22392805068619e-05,3.18976686443617e-05
-1.47559001839016e-05,3.76505215841372e-05,5.38900962151559e-05,6.04670397682252e-05,-5.62724244700698e-05
-4.18312079795869e-05,-3.7248137135401e-05,4.28936991838756e-05,6.11089700591479e-05,-4.04821427009143e-05
5.37405038123986e-06,-8.64565593399817e-05,-5.42104716077465e-05,1.10011240377569e-05,8.55563626776762e-05
-2.30218225750104e-05,-7.91454338992332e-06,0.000147407725530967,0.000114419539069781,-1.54478564114593e-05
1.12477027878627e-05,-2.23145310302549e-05,-2.60989042662874e-05,-2.47924579520451e-05,5.80179658432617e-05
2.69344225196493e-05,3.53775760955467e-06,2.3584360889955e-05,4.35618056827659e-05,-6.56157604004673e-05
1.42880242031915e-05,2.95575588487314e-05,-7.37645003488489e-05,-5.06919632210687e-05,1.96635652276839e-05
6.0673562834324e-06,6.43806979857356e-05,-0.000131738334060367,-0.000155692563688499,5.98541505267622e-05
4.69959261408085e-05,3.22023882104816e-05,-3.78248596610661e-05,-3.36185619029482e-05,1.78255369664966e-05
-3.43910455183267e-05,-8.10189775947819e-05,2.28413562831523e-05,0.000105214309287424,-1.44689397958346e-05
-4.03815438042811e-05,-6.09936584760178e-05,-5.85617336266779e-05,-0.000125075936898421,7.63645818232518e-05
3.6351652949356e-05,6.03882297448842e-05,0.000113822544799163,0.000105598383631329,-2.34422676389043e-05
-8.93537942271484e-06,2.92234015632972e-05,-3.01139072076508e-05,-9.00771282415701e-05,-6.34600731269335e-05
4.51702932641363e-05,6.56186544624143e-05,1.59847955530547e-05,4.99560959352007e-07,-4.21588027160375e-06
-1.42409953765309e-05,-6.95939631781865e-05,8.26151134089248e-05,0.000146179217173058,-4.24527946977882e-05
-1.69388204391859e-05,-4.85688490148025e-05,-2.00951262460032e-05,-1.90513214364976e-05,2.3432953140305e-05
-2.28947588301423e-05,-4.23958969446251e-06,0.000169849075539638,0.000176175716506097,-5.44171738697231e-05
-1.28923920627944e-05,2.04234117306566e-05,1.95076409943587e-05,-3.55249581703459e-05,-4.16274019300097e-05
2.35568904302696e-05,9.07376685329353e-05,-1.36983375211644e-05,1.21408644303027e-05,-4.25864474553377e-05
2.70556859554015e-05,-2.11014851216564e-05,-3.65252427825913e-05,-5.39567039251683e-05,0.000101705148807828
-1.96816708307064e-05,2.63388030736492e-05,-0.000100107768276431,-0.000110084342413359,5.75630222061766e-05
4.54320223659453e-05,6.74489805426182e-05,9.80260898946876e-05,7.56697499076723e-05,-6.78262293495864e-05
-2.97703197002135e-05,7.5588213171586e-06,3.55026802304139e-05,5.04608010658019e-05,-5.42850634249607e-06
-6.35873703070531e-06,-0.000151862952764894,-0.000165541442416917,-9.30803858629912e-05,0.000146362390263612
1.66697106031792e-05,-8.23966898548669e-05,3.98924137069166e-05,5.89802185997918e-05,9.48072859733424e-05
1.39803540873242e-05,2.15577899809326e-05,2.50675220526584e-05,-3.58698384567105e-05,-9.60331265837002e-06
5.34647507456361e-05,3.5017020465195e-05,3.64868621062053e-05,4.77268592346031e-05,-1.47870526313042e-05
1.77288276409314e-05,-5.84311618805457e-05,-2.86451323297761e-05,-1.41274552997114e-06,-1.35382281938795e-05
-2.08018201574591e-05,-4.26282047187406e-05,5.93830372822067e-06,5.48384611656926e-05,2.59239085461722e-05
-2.39577191217893e-06,-8.72432088827752e-05,-6.22520114405971e-05,1.72293561309753e-05,4.3004710387034e-05
-1.96415140412777e-05,-3.72275306957613e-05,-2.24238087676193e-05,-5.71986633856857e-05,4.58963127942027e-05
8.56356348256235e-06,-4.36454821517345e-05,-9.1465807214354e-05,-8.31717318864182e-05,1.61037719407107e-05
-1.09405087007161e-05,2.62476696057054e-05,3.51844095204508e-05,3.05290561801072e-05,-4.22827599381398e-05
-3.9612151574299e-05,3.53986903154039e-06,-8.72144451855808e-05,-5.56835347088181e-05,3.13323694514643e-05
-1.6218777714472e-05,1.82341552378613e-05,3.11261181777961e-05,6.66671984753661e-05,2.21232137600338e-05
1.84874478918525e-08,-3.37477167395197e-05,4.68063100033526e-05,3.53109157318501e-05,-4.90227060790038e-05
4.44810178546709e-05,3.98221121025888e-05,-8.23148680635774e-05,-6.86691189131848e-05,1.2307292108301e-05
5.38917008513202e-05,0.000223719767687525,0.000286555163512484,0.000185630830026762,-0.000316916278240418
-1.90079946715219e-05,5.19512407086193e-05,-2.63587817984983e-05,-4.27335706275325e-05,-3.5364604278619e-05
-1.28107541516332e-07,0.000108972924953576,0.000250421057377945,0.00019803814179382,-0.00024255058095333
3.73732206812184e-05,1.61658120826523e-05,-2.54786910748674e-05,-6.05151795596293e-05,-1.78912427174112e-05
-1.43022099067338e-05,-2.99291954216401e-05,1.66628195057712e-05,-5.92279162948375e-05,1.7430302533638e-05
1.56651197746792e-05,4.65806980173383e-05,1.71777696514922e-05,-8.31186329896003e-06,3.98321831581119e-05
3.16127516584992e-05,-1.84799354344215e-05,-0.000172340836852446,-0.000181995356092269,0.000129169419526322
-1.38373523751598e-05,4.8567504468149e-05,-3.65815060954304e-05,-5.47282613037791e-05,-4.4417138398481e-08
2.23030319003409e-05,6.23734062152435e-05,-7.58969527485196e-06,8.38481859185949e-06,7.17760493339255e-06
-7.68477771214733e-06,-8.52511167413405e-05,-4.27207421143248e-05,5.12791898068079e-05,6.42530688045192e-05
-2.69193371216171e-05,1.5635534791664e-05,9.7687719627219e-06,4.41171815629692e-05,1.13190356974651e-05
-2.24719342426434e-05,3.83460944943728e-05,8.24944227155312e-05,3.38818693334749e-05,-3.6993437146526e-05
6.65048518655804e-06,-5.9493345519016e-05,-8.17345958389496e-05,3.05798870301415e-05,2.18425048919654e-05
-2.77934902599844e-05,-6.92132950863415e-05,-4.42518578000688e-05,6.14007346950847e-06,5.26257683260146e-05
-1.39329121216179e-05,-9.28194627901276e-05,-2.35386513901192e-05,9.70859266954771e-06,7.94195963583672e-05
-7.23806077534929e-06,-0.000102732478266134,-0.000157735575812654,-0.000132846115144401,0.000147179524024819
3.01946499962195e-05,-2.28234520176852e-05,-6.95503664251723e-05,-3.84155266110495e-05,-3.13149773366292e-05
-1.42333124283554e-05,5.35492583794114e-06,0.00013932621357002,0.000167972875058485,-8.59509706529165e-05
-4.6841830556953e-06,-4.94624625034856e-05,-6.13479028251407e-05,-7.27695968708027e-05,6.88395070019825e-05
6.30988204090616e-06,-3.73743681541038e-06,-2.18313779758798e-05,-1.39043498913545e-05,-7.81801144336795e-06
1.29431434855992e-05,-6.07842745422991e-05,0.000151677108083719,0.00014949142449675,1.04623468507134e-05
1.0740908310307e-05,-4.77106107204288e-05,-3.73929348826201e-05,-3.16261558723458e-05,-8.41637129971152e-06
-5.56677698930726e-05,-5.04380759453262e-05,2.08824353475697e-05,2.55312269975147e-05,6.25176873041017e-05
-1.69103630015876e-05,-2.52323523408161e-05,-0.000181028638945116,-0.000189923288866652,0.000152966191191723
-3.30414353927783e-05,3.3789482732685e-05,3.21186924434735e-06,-5.63109124321536e-05,-2.06910887297545e-05
-3.51315867834522e-05,-9.0854848966489e-05,0.000111621922697271,9.05626720257268e-05,5.80530657626285e-05
4.93293098895951e-05,4.45263368961863e-05,0.000268428821677335,0.000296530964523351,-0.000143906311432516
-3.15706825669686e-05,-2.96674167948884e-05,-2.86787743979066e-06,-7.10014351873729e-05,6.2602871748853e-05
3.01008899608888e-05,4.49804103027307e-06,5.39241838549135e-05,-1.05054142702395e-06,-1.73740491724587e-05
-3.11621629749055e-05,3.51257434994545e-05,5.51085782333655e-05,1.59459563941863e-05,-5.05590188197278e-05
-1.41593952953909e-05,-5.71689665811188e-06,3.45591195928761e-05,5.61699744102873e-05,-6.003865299793e-05
-2.15873044547658e-05,-4.42285972643375e-05,-0.000133400637929921,-0.000166662357828053,3.33243389334303e-05
2.22748600703777e-05,-5.12881334069075e-05,2.66649325841151e-05,-1.03966940636851e-05,3.6371535272764e-05
-6.9880719771321e-06,5.98568404958164e-05,-6.55992498970398e-05,-6.33419531175539e-05,5.02072541152458e-05
-2.63842037329671e-06,6.29185664546423e-05,4.67637315962423e-05,-2.88589583210093e-05,-1.72939266393917e-05
-3.09370239498441e-05,-2.97234884030202e-05,0.000132964820646552,6.45532066420566e-05,-3.50428369908807e-05
1.10336792215169e-05,-5.67043806694568e-05,-9.09469452020568e-05,-0.000146237254859932,9.27424179664314e-05
-4.45819485311936e-06,-3.55012509987711e-05,-8.18282093604613e-05,-0.000103263803505259,6.04242727925371e-06
-4.55102919367715e-06,2.41818114833755e-05,-4.60905155177268e-05,-0.0001082839529946,5.9585034466185e-06
2.11790017409131e-05,-2.86157004063571e-06,-9.8635281648853e-05,-6.16422420225838e-05,0.000114871302599156
-1.58244985945805e-05,2.74036687722413e-05,-8.53968331485218e-05,-5.45447941318401e-05,6.25285670759152e-05
-4.71954094606599e-05,-5.77437109914693e-05,5.21926732182573e-05,5.92615062456617e-05,5.58407507490766e-05
1.38344212264781e-05,2.96120402234956e-05,-2.29652884520731e-05,-4.30441270132481e-05,-7.23163249857534e-05
-4.1476756169941e-06,2.45800248232481e-05,8.29572755486239e-05,4.56697488185235e-05,2.97602372440645e-05
1.47465112461892e-06,-7.09894790993854e-05,-5.3537156943732e-05,5.37359056292157e-07,9.17416091558207e-05
3.2708435038374e-05,7.1424739717475e-05,-5.89714341037821e-05,-9.43021417353084e-05,6.71784335440374e-05
1.22550623250723e-05,-4.69155407573772e-05,-3.93034041219513e-06,2.39752364807822e-05,-1.89601196130296e-05
3.57774847317498e-05,9.68027363266713e-05,1.51080213255375e-05,3.79674000449946e-05,-4.27804403341136e-05
1.81426751847694e-05,2.184478644513e-05,0.000194809911755503,0.000192015757356901,-5.16284630980654e-05
9.50789542480891e-06,-3.04896221823115e-05,1.37326967977341e-05,-1.7598876038444e-05,2.3118364887048e-05
-3.53170691413677e-05,4.65908314258552e-06,2.11788467790552e-05,2.45301187526508e-05,8.89157957365825e-06
-2.44062815136926e-05,1.31287296672892e-05,8.89525033110019e-07,-1.37220683065593e-05,-6.00188190407718e-05
2.82093682655653e-05,-1.15014197301864e-05,-3.76397058061276e-05,-4.26577545820746e-06,-5.0138860995986e-05
-2.57981255365837e-05,-4.77415195699326e-05,-2.30046698051225e-05,-6.01969857761407e-05,6.82619409967009e-05
5.18556543461014e-06,3.02533547831128e-05,-3.06005231118582e-05,4.46637075170148e-05,1.57315752789328e-05
3.72446293174857e-06,8.55895425912751e-05,-5.19951360384647e-05,-0.00011885796892998,-8.51169436581305e-05
1.78373141201969e-06,-6.48466246334683e-05,-0.000188067531585452,-0.00015393771041912,0.00013102058102351
4.15238173553366e-05,7.11545738989116e-05,-3.49429062762214e-05,-7.23279004296275e-05,1.82656149313722e-05
-7.96660854837662e-06,-7.5771255549298e-05,-5.35687105726273e-06,5.88030805867167e-05,8.16954566667184e-05
3.37554694433645e-05,3.00670266098861e-05,3.21820458333443e-05,2.06054277547129e-05,-3.20749997861652e-05
-1.16110571397159e-05,-5.544909764958e-05,2.35306336967721e-05,9.27582225557591e-05,-1.76488091567773e-05
-3.75419587202122e-05,-6.37858489626245e-06,-4.42149249828696e-05,-6.08988151520835e-06,1.60092885876653e-05
2.26968368999306e-05,9.35317556758333e-06,6.63372666969823e-05,-7.96351385522376e-07,9.74877856989962e-06
4.94944684857415e-05,7.31511765890183e-05,-3.85095182962792e-05,-7.9611199723504e-05,-5.45844238589358e-05
2.65103824960569e-05,-1.70739597424282e-06,-5.95298343311862e-05,-2.89551281352768e-05,-5.13054602824077e-05
-2.88152927874837e-05,-3.50237718158977e-05,-5.4115841998594e-05,-0.000124148993142924,4.39451709173109e-05
2.58143009481555e-05,0.000146925018178229,-7.72348528526281e-06,-7.81984595354744e-05,-4.15690165853733e-05
-1.74059353535872e-06,-5.0912787854088e-05,-2.32633364565817e-05,-2.46425969939994e-07,1.17825952116069e-05
4.09275782886713e-06,8.92352676156449e-05,-0.000162749207466403,-0.000155930239657919,-5.73629137834289e-05
7.39171321475932e-06,3.14159431577012e-05,1.43991273263247e-05,1.18053914058377e-05,-4.07198285124858e-05
7.28001102700365e-06,1.56439823628292e-05,3.02141809623182e-05,5.36979606547245e-05,-9.88712008899241e-05
-3.51140483634621e-05,-2.11257104453524e-05,-7.95147516249772e-05,-7.61405529952381e-05,5.63232124801208e-05
2.80604179743551e-05,3.15294599840602e-05,3.23615396520335e-05,3.69187528642297e-05,-3.28870793388892e-05
-4.37030626734034e-05,-2.30215757832012e-05,-4.0246461182183e-06,-1.03745693066847e-05,5.43392854288937e-05
-2.59068603469885e-05,-7.62470455667527e-05,-2.40297374994769e-05,-3.00540140866265e-05,8.53877494175979e-05
-7.97036013808105e-06,6.11550904705263e-05,4.99978458761186e-05,3.66194651255839e-05,-6.69839478968577e-06
8.68919566309139e-06,4.81921487105258e-05,-2.05337390287665e-05,-9.25143368147566e-06,-7.66034127996645e-05
-2.96587038327289e-05,6.55260839778576e-05,-6.64389555952048e-05,-0.000102593749915752,-1.35018012071807e-05
7.93115490629262e-06,-9.64774484020467e-06,-1.64933851867662e-05,1.82332595157461e-05,6.11264085561918e-05
2.02949402692259e-06,8.53916164059493e-05,0.000136612794795021,7.86919291299596e-05,-0.000107226162570019
5.72486160100722e-06,-7.06140494818887e-05,4.08162332665236e-05,5.63544742985116e-05,-2.57139451432449e-05
-1.40212236894102e-06,-3.22126822913258e-06,2.18434078764946e-05,4.11979334965462e-05,7.10498649103112e-06
-1.40895867167752e-05,1.80620167105333e-06,-3.34893651676444e-05,-2.14762529736277e-06,2.88296236046274e-06
-5.75009877319988e-05,-3.08602970166848e-05,4.0918644275067e-05,8.60401682881995e-05,-1.14857205297535e-05
-1.28855803333646e-05,1.12857621818402e-05,-4.39155418697745e-06,4.05668454266077e-05,1.12650654561243e-05
-5.08007723353311e-05,-7.39249971770731e-05,-2.72507385098762e-05,-2.73139981672068e-05,8.8583060627711e-05
-1.33851895718087e-05,-5.49805084053936e-05,2.34612383746902e-05,-3.66761887954099e-05,4.33196048993917e-05
1.32068395033748e-05,3.94533524350309e-05,5.51117291392134e-05,0.000100158642524653,-1.21440150128006e-05
2.09355576172554e-05,-4.49410761797631e-05,5.78789411909274e-06,-8.2868375579416e-06,6.03471980406378e-06
-3.98762571125545e-05,2.34276546883525e-05,4.36073633148853e-05,5.01400864406021e-05,-4.43332600475098e-05
1.9443221978864e-05,2.21073467807281e-06,-5.13253324783439e-06,-1.88045671616511e-05,-2.33550544473142e-05
-2.68346396681884e-05,1.89049270446982e-05,0.000214782833995281,0.000216813808484549,-0.000120517018345848
3.78005197447975e-05,7.42249814196681e-05,1.24183555307143e-05,1.0773601132261e-05,-0.000112380297648122
-5.00752910100294e-05,-8.37662244366117e-05,-9.18031662652919e-05,-0.000120318490291439,0.000108374366146657
-8.63495769223501e-06,-5.10752501154024e-05,0.000139130564778167,9.32874988831537e-05,-1.76299355264695e-05
4.12916458116225e-05,8.75502343927804e-05,-1.26026299817465e-05,-5.12683443428369e-05,-6.38209908729123e-05
2.21410283834433e-05,-3.57964730670823e-05,-3.93320168219619e-05,2.45001183237074e-05,-4.05008185288046e-05
1.96857566231885e-05,8.38962929889784e-05,0.000107419096365953,0.000102493011184441,-4.13314502679997e-05
-1.53376894247204e-05,-7.51964519550203e-06,3.56727213889012e-05,3.99022014649104e-05,-5.53852103670581e-06
-7.53159676066068e-06,-5.8037571703563e-05,-1.9398287194075e-05,-3.92675664115072e-05,7.33334263208711e-05
-5.03302601106428e-05,-9.954518085099e-05,0.000102640760125847,0.000114376135528586,1.06612006333663e-05
-6.32981434074214e-06,7.58167429068739e-05,1.43185904342347e-05,2.89207853075807e-05,-6.22774529813969e-05
3.92600246428229e-05,4.26627125610441e-05,-1.40415064272253e-05,6.94353976264099e-06,-7.02521054023153e-05
-5.64416902860701e-07,-0.000102676407357756,2.91507050412625e-05,0.000123554971313426,-1.78036539585743e-05
1.51502506070736e-05,2.93865119357542e-07,4.68890205737404e-06,1.60075455882075e-05,2.79689534143995e-05
2.3493388683075e-05,-1.05047768111557e-05,-1.04347031550067e-05,-2.49029380707237e-05,-5.30225103977291e-05
1.06521627562398e-05,-1.15796715609604e-05,2.26791187131843e-05,7.63432106726105e-05,-3.86844996035074e-05
3.25813757240767e-05,3.07371534735327e-05,0.000136397795522883,0.000138960254766407,-0.000117909593964476
-2.3599526830493e-05,-9.08396355025003e-06,-8.21207234353497e-05,-5.65753054082576e-05,3.23866935341863e-05
-1.73122420492024e-05,-9.67626478699528e-05,-0.000149624120915279,-6.72147072424512e-05,6.73611164643968e-05
8.47236439770777e-07,-4.65706788540352e-05,4.8565574340713e-05,9.94322584857367e-05,-6.30454053551633e-05
-2.58442333359695e-05,-4.52740756204324e-05,7.86199144320851e-05,7.35053098630746e-05,-1.66020752897027e-05
-1.8067165456821e-05,7.67617059615086e-05,-1.54249603586303e-05,-4.13841002630373e-05,4.49777569811083e-06
2.01703131616455e-05,1.78355577734645e-05,-8.80381996317106e-05,-6.1292796766244e-05,5.69313248888308e-05
7.6312780511764e-07,-5.98136455214e-05,7.70820776471253e-06,-5.28324405704933e-05,3.76544935669156e-05
-2.5893237482317e-05,-2.18890509455112e-05,5.30054173603516e-05,8.8081815576672e-05,1.81267661753786e-05
2.27863011398273e-05,8.28634890364951e-06,-0.000174341422351754,-0.000147008984104622,7.37518751767423e-05
2.11450415388615e-05,6.15419528558396e-05,-2.45204613341452e-05,-7.26336085076519e-05,-7.99964309881343e-05
-2.35123258443616e-05,-5.29793424590902e-05,7.92217141384279e-05,8.58156887010438e-05,8.15726052021691e-06
-3.16910404309743e-05,1.5152561578686e-06,-8.53318315135934e-05,-4.52919952113641e-05,4.09417436841528e-05
3.1059179930283e-08,-0.000137346214651875,-5.69431733002151e-05,9.70926101410273e-06,9.10782191853468e-05
-9.42226345882259e-07,-5.19311983361034e-05,-2.7002019906911e-05,-2.25964213572597e-05,3.45250225858484e-05
-2.04210878367438e-05,-4.14594167460154e-05,9.70664586393561e-06,3.16446114838032e-05,2.23234659512939e-06
2.03055220866544e-05,0.000118551290099162,6.979384359458e-05,1.50038217281074e-05,-8.31074127574268e-05
-1.02311659981635e-05,-7.85602449006851e-05,1.41596304586192e-05,6.32536213340988e-05,-1.04746761421005e-05
1.27968093993587e-05,0.000176630940143698,0.000247637461543863,0.000149266245983402,-0.000268492900852844
3.08732488952816e-05,4.59214728397923e-06,-6.0737716328169e-05,-7.86795982877178e-05,4.94190256949654e-05
3.02126994479462e-05,0.000106997017524805,7.51353835384102e-05,5.91251528308659e-05,-4.9678756073001e-05
1.33924156460696e-05,-5.89076938239798e-05,0.000109669202482131,9.4290724397271e-05,7.01424494755637e-06
-1.55635417510258e-05,4.54072057970452e-05,-1.37089419226663e-05,-7.03019586275655e-05,-2.34540308564834e-05
-4.28955688493935e-05,-1.50614766820383e-05,2.88649849662693e-05,-6.84724301007487e-06,-2.68764024130223e-05
2.87523105344693e-05,5.87845845919978e-07,-0.000125570114745023,-0.000138293499948198,6.6731604611614e-05
2.3729310636027e-05,-8.02895174358547e-06,-6.14333617466076e-05,-7.54246682421588e-05,9.06949969441221e-05
-2.43330055457829e-07,-0.000136804790704086,-3.53562695970911e-05,1.73473836940008e-05,7.25255719845073e-05
2.58365265281854e-05,7.87370339256961e-05,-2.55135488606271e-05,-5.63950345903062e-05,1.32811996937463e-05
-1.89058436537619e-06,-6.83984965622507e-05,0.000144134617919376,0.000159531936337006,-4.31606596392865e-05
-8.54663492160623e-06,-5.12377376282571e-05,-5.48128935589126e-05,-4.8301541284798e-06,2.32853604348571e-05
-3.02624690481306e-05,-3.56946342734131e-05,3.40547894200971e-05,1.53121394130924e-05,-8.76273743547804e-06
-1.70816859370797e-05,-2.53444721605188e-05,-1.01641099215769e-05,-2.30265881067458e-05,3.54682941868156e-05
1.82568718696242e-05,2.67910532332424e-05,4.85758854333357e-05,5.51256568895419e-05,-2.05208712453021e-06
1.12538584356107e-05,2.10432059493361e-05,3.24791406939953e-05,6.89193338034241e-05,-4.32035233650992e-05
4.16343397158049e-05,3.69038651379782e-05,8.56694878579565e-06,-9.44584920071091e-07,2.67783801070403e-05
-3.34464434326578e-05,-3.2958187792373e-05,1.74005023466488e-05,7.26273005833706e-05,3.47137132289718e-05
-3.97152928318947e-05,-4.63216636234574e-05,4.04294517611645e-05,5.74578895430899e-05,5.70753521630541e-05
-6.48542517587396e-06,-3.5595091296636e-06,4.9026102675855e-05,1.24834455473629e-05,-2.63662925483529e-05
4.23116706705793e-05,8.97876586586067e-05,0.000145665675469965,7.18748450347238e-05,-5.98219770682673e-05
-5.5587427475831e-06,-4.03363438929957e-05,3.66870185609031e-06,-2.73522348062289e-05,9.57209838150404e-05
-1.04038144031545e-05,2.74810012482856e-05,0.000151546796436395,7.06451091839098e-05,-8.87864532734259e-05
-1.64404721995293e-05,3.05865502635583e-05,0.000134405609835797,0.000141620538145991,-3.53176798401254e-05
-1.33224513500098e-05,-3.02618301369098e-06,-5.72451582171505e-05,-3.26944779792575e-06,-2.6152381163054e-06
8.96379186367355e-06,-4.70123996278437e-05,4.75159688823671e-05,3.96001997841031e-05,6.32799390887526e-05
1.06382041733852e-05,-3.31720195725472e-05,-0.000114403879387339,-0.000110593761705895,1.83560647354869e-05
2.0816277318581e-05,4.96430097798033e-05,0.000116828475742933,0.000151731520167373,-5.48047076270891e-05
-4.4240244119491e-05,-2.01137390097095e-05,-4.76587531784614e-05,-3.84423942946778e-05,5.07746151112183e-05
-6.15465148625948e-06,-3.38510233146187e-05,2.37305543000977e-05,3.90393264153186e-05,-5.81956040151478e-05
2.53684911444532e-05,4.04718894004425e-05,3.83061200560824e-05,-2.70581662021003e-05,-0.000104373010676385
3.63584653787202e-05,5.60670652895898e-05,9.26430744025372e-05,2.79324229167707e-05,-5.83066827767411e-05
-3.21381663905526e-05,4.01914177836851e-05,-4.75896583431818e-06,-5.33062731907131e-05,-5.65479730130504e-05
1.6386492772865e-05,5.39511127651402e-05,8.46164724582508e-05,3.56238261730609e-05,-2.36405976232968e-05
-1.99998284496797e-05,3.18443323277247e-05,0.000115499674699806,0.000162369445539312,-8.98503009786061e-05
2.74666017827907e-05,5.7215887070558e-05,1.57610434744882e-05,1.81963638764366e-05,-4.21704179953813e-06
3.7816714373514e-05,5.19918984182727e-05,4.77711311888452e-06,-2.77825421555282e-05,-0.000106673912924461
-1.91849194746966e-05,-5.04457356610503e-05,-2.94194880142714e-05,-1.30216544828407e-05,1.41946214558385e-05
3.90151015346611e-05,3.9989248549345e-05,-0.000239089289408652,-0.000239685351188938,0.000135950913654291
-1.16629668124831e-05,2.94944679548605e-05,-8.68422465837219e-05,-4.76706048176393e-05,1.52425467029274e-05
6.07339337927354e-05,0.000142652624897661,2.85221471964924e-05,-3.32647627127098e-05,-0.000142019687102546
7.88030294680483e-06,-5.1248891800817e-05,-1.94749307804341e-05,-2.01508926659119e-05,1.36969202397096e-05
3.89159879236943e-05,9.50494957582068e-05,0.000190862051361705,0.000110836200777467,-0.000102959747532164
-1.33414190592777e-05,-1.48602226685298e-05,-0.000114885490968098,-0.000106226307557281,2.76174236201225e-05
-3.89749828412508e-05,1.56437944741727e-05,-5.87092274146286e-05,-3.71954673008013e-05,-2.34448889136169e-06
1.70697575676431e-05,4.75113021636917e-05,-4.92284167983656e-07,-6.00257592660312e-05,-1.97515352993711e-05
2.38709549964184e-05,-4.43273644549144e-05,-4.81608845206075e-05,1.05896413259173e-05,-1.11213132745097e-05
1.4181151909323e-05,6.09109407887687e-05,-4.94600127535675e-05,1.2599491755903e-05,-9.7854546906203e-05
-4.00014639121054e-05,-6.44250987126746e-05,3.34190771074429e-06,4.82726005271817e-05,4.69937397100511e-05
3.06849184494741e-05,9.3688021351301e-06,-1.56389152755956e-05,-4.19401429995101e-05,-3.47584745244854e-05
3.15218506417777e-06,-7.32830062248654e-05,-8.50380377215657e-05,-6.60904485288266e-05,0.000141079031379377
2.80070688558903e-05,-2.03414911492747e-05,8.60678431291412e-06,-1.7496384211822e-05,-1.57835794049639e-05
2.02362306800096e-05,-1.81104894335482e-05,2.710693973678e-05,1.80778495952639e-05,-3.11867680235756e-05
-9.66421488823923e-06,4.23428048488433e-05,-9.19375953044713e-05,-8.83787148759764e-05,4.75295237560507e-05
8.77509588817053e-07,2.41105854466394e-05,-3.91777927954632e-05,-6.54272639596114e-05,1.56003016019642e-05
-8.84082302762069e-06,3.57109968261431e-05,0.000147348175891484,7.48494813852309e-05,-7.75514900349303e-05
-8.44456405908616e-06,4.35656829661383e-05,-2.14518786121693e-05,3.93519398833095e-05,-7.11143886916966e-05
-3.38983362484581e-05,-1.07000756178356e-05,1.05571609823998e-05,-5.64762508114733e-05,6.30056566110144e-06
5.2298600630733e-05,6.4620374993817e-05,5.43672819815489e-05,3.72785711449858e-05,6.89787046807095e-07
-1.04606374854097e-05,-9.79381493213912e-05,-6.77201560247425e-05,-7.7933258142619e-05,4.43387136035453e-05
-2.06419082387205e-05,6.80065819236138e-06,1.56408160900391e-05,3.32750707950188e-06,3.69440112162297e-05
-2.71399036743563e-05,-6.8802721860145e-05,-9.79740291813573e-05,-7.26361100450799e-05,0.000156517484332595
8.13561399838488e-06,6.54497001779626e-05,-2.54937753297837e-05,-6.80364038849389e-05,-3.74666503246015e-05
1.2691352893283e-05,-4.63877619050106e-05,2.42265219922389e-05,9.92991252933299e-06,5.41963514957598e-05
-1.67373020116599e-05,-7.98241745209463e-05,-6.43671565189553e-05,-0.000118546903089894,6.19393453391216e-05
-2.92221254610537e-05,-1.82444869236062e-05,1.08950663966281e-06,-5.37652276833268e-05,4.32880886255786e-05
2.6719589117866e-05,-1.41802685155158e-05,0.000126106556175668,9.41863818083048e-05,-3.82943977058467e-05
-2.47914413617299e-05,-4.9079030632704e-05,4.73805161871251e-05,4.06342062857376e-05,9.65574723685646e-06
-2.39014430082656e-05,-5.03197917345522e-05,1.78490066702407e-05,-3.74788956503333e-05,3.76677757986217e-05
9.13851100473715e-06,-4.2567769587827e-05,3.71134095438252e-05,7.62153245761976e-06,4.01304405790079e-05
4.46856210827374e-05,3.62073818560271e-05,-8.69999762849589e-05,-0.000147079685874642,8.80050943774999e-05
2.23493498775843e-05,-2.9688381755201e-05,-4.86910523949644e-05,-3.36789989451816e-05,-5.76305911919805e-06
2.69048342968107e-05,0.000112351237417309,6.58312037975789e-05,1.28686741581059e-05,-0.000140277148173467
-2.7253974098768e-05,3.78085679314568e-05,-9.36801753553302e-05,-0.000108921336800954,6.06119090128278e-05
-1.92770378584373e-05,-9.70664875007171e-05,2.98687094954447e-05,8.12658345557152e-05,5.05041898453664e-05
1.15590818365712e-06,-2.01522069579471e-05,2.26399730377194e-05,-1.32597888636293e-05,1.9273668441151e-05
-3.08215719426162e-05,6.31805457395952e-05,-3.64116367543137e-05,-3.83843637304943e-05,-2.38484523274135e-05
-6.73803740011713e-05,-0.00015881720309001,3.21703235349976e-05,5.04337123870448e-05,0.000100989552302869
2.69429286130404e-05,-7.87701929656844e-05,-0.000120183691317116,-6.71511838750076e-05,7.04189619591521e-05
2.41014607004899e-05,0.00014590932546153,-3.69054918185336e-05,-0.000135103765512189,-9.21174036959631e-05
1.6135219661467e-05,0.000107015661911834,7.22903315107777e-05,0.000100120227975998,-6.35204901592426e-05
-1.08902853965013e-06,-7.15906353459369e-05,-0.000124051519027139,-0.000119226177592338,9.63187157785015e-05
-2.57381670953545e-05,-1.23825700420841e-05,-7.35125147598284e-05,-2.94816256315194e-05,7.52936781404268e-05
1.85918564942115e-05,-2.51009863842125e-05,1.15389757162248e-05,-4.29004503359329e-05,3.79102315982089e-05
1.43465146164381e-05,1.40882583942389e-05,-5.18959025335969e-05,1.59728299740803e-06,-7.70860114165352e-05
-1.3314541033971e-06,-6.31137803170145e-06,1.05383065041043e-05,-2.54080432408933e-06,-9.05037577470766e-07
-1.3491246914985e-05,-6.95521237407882e-05,-4.8957294209935e-05,-1.10341711693482e-05,7.65276650703588e-05
9.88054597605772e-06,-3.32759083716954e-05,3.26734163030272e-05,-1.47243547246943e-08,-4.21762334503862e-05
4.2391034317419e-05,3.16311560194794e-05,5.10658800839192e-05,5.27172588736145e-05,-6.20826856892785e-06
8.09744250923219e-06,-1.02693084770325e-05,-2.7381304269406e-05,-9.56950391551803e-05,2.73514111371693e-05
4.65668289347172e-05,0.000136805714253736,3.39595008292169e-05,-3.88668513482375e-05,-6.7575327765194e-05
-4.21351702723656e-06,-6.86518542721462e-05,-8.07046481531445e-05,-2.51776513858027e-05,0.000109261331113541
1.81969928184275e-05,-4.59932480330638e-06,-2.64038238742292e-05,-8.25750091178287e-05,-4.68449712636043e-06
-2.07228630310685e-05,-0.0001042013571801,-1.97318328880228e-05,2.11149946531792e-05,5.56394491560154e-05
3.63520274025812e-05,-2.48659015082872e-06,-1.39973586047486e-05,2.1593258017249e-05,9.27901656450972e-06
-2.66373863328246e-05,-2.08904887734148e-05,-4.08822913340174e-05,1.53559839399134e-05,2.24050758348388e-05
4.97214174012252e-06,5.09256599060475e-05,-6.45337637844154e-06,2.05520753413095e-05,-1.16679015822444e-05
1.0499205440178e-05,-4.42317771949925e-05,1.28156809691711e-06,-1.05052988171699e-06,3.26544000525985e-05
-1.02809552053287e-05,-6.23087182016827e-05,6.83899018615941e-05,9.1750157137312e-05,3.67533968932625e-05
-9.6494774539839e-06,4.32557146871011e-05,-8.02155718181867e-06,1.5550699337203e-05,-1.84200164761132e-05
-3.48829356184163e-05,-1.30953117313761e-06,-9.32848988411445e-06,-7.14224234329924e-05,6.02355984564207e-06
-1.43652662851181e-05,-4.87359438989353e-05,-2.21181495504878e-05,9.62135146144899e-06,2.91532370826266e-05
-4.40269579086979e-05,-1.88980607440892e-05,9.40881316758017e-05,0.000114649656866636,-2.00200477225946e-05
4.54075863638469e-05,1.70018588801307e-05,9.29590990509193e-05,8.04972486148768e-05,-4.84230329146018e-05
4.4271612486341e-05,1.73680444967637e-05,7.52260289964052e-05,7.3820771551594e-05,-4.48628636352911e-05
2.17653393069364e-06,4.83671054754505e-06,3.72246216967551e-05,-1.27654993858005e-05,-1.35988809628764e-05
-2.72235873421061e-05,2.31419331498449e-05,0.000108445015036854,0.000132166963369651,-2.83829516753783e-05
-1.24093162141236e-05,-3.32298385545432e-06,-5.1426069934502e-05,-3.94110833487665e-05,3.70313276563847e-05
1.09873306280442e-05,5.03304063832079e-05,-8.66223247480648e-05,-7.5262066281059e-05,3.17604315034917e-05
-4.11917582249357e-05,-1.77119412889295e-05,5.26270528904471e-05,3.85159474403993e-05,1.63446331562559e-05
4.17188006899072e-05,-5.75949456059201e-06,5.35497539016959e-05,1.72684382442531e-05,-5.5082996821545e-06
-3.01718948628943e-05,-7.33807553292963e-05,-1.35634280754064e-05,-5.79902799783557e-05,4.47217088107462e-05
8.63067553822519e-06,1.38373966716263e-05,-2.12314148916229e-06,-1.84729296233877e-05,-5.90821828931625e-05
-8.14598152684193e-06,-8.79623978654228e-05,-0.000111769477346878,-6.23892022284443e-05,0.000149270031418539
-1.08634761434649e-05,7.42529624133025e-05,0.000117328674409517,9.37739687059134e-05,-9.90241091034597e-05
-3.12522071306269e-05,1.87309583309321e-05,7.149453542631e-07,2.4405390251297e-05,1.91472248830295e-05
-2.70613094097635e-06,5.07099880669041e-06,-0.000190445461763246,-0.000189690443994037,9.42751725849586e-05
-5.48671242768637e-05,-9.31468437470723e-05,2.58550546328291e-05,1.19573604422877e-06,5.08440768117072e-05
4.81858842280689e-06,-0.000105652590821288,-9.46796048152584e-05,-3.81958348551186e-05,6.69658913927801e-05
-3.93505650310587e-05,1.21309802206331e-05,3.12942054262285e-05,7.97351774000773e-06,-3.19865489513473e-06
-2.33309863515662e-05,-0.000115038988328876,-7.87425443695441e-06,-8.75958163395302e-06,7.15423778885875e-05
3.76644439175204e-05,0.000162739899876916,0.000187496619461627,0.000161866127859118,-0.00020143989465378
-1.33532224100126e-05,5.84651143944361e-05,2.06174013148596e-05,-5.42456731874751e-06,-3.17070738526898e-05
-1.08686423005706e-05,-3.54101494026134e-05,-2.34303410343129e-05,2.14550935543747e-06,4.39682751501619e-06
-5.71231895120759e-06,5.50137368869072e-06,-8.45027800691169e-05,-9.29994663513311e-05,6.82368831435904e-05
-5.50429650107483e-06,-5.48736870580742e-05,5.49646297312675e-05,9.93579236748789e-05,6.0123909146823e-07
1.82353753658078e-05,4.95555988670067e-05,0.000129202865876935,0.000112657040252193,-4.24359486138549e-05
7.18939725252734e-06,8.87092002242779e-05,8.93897359479237e-05,6.89402701518399e-05,-6.58697735840776e-05
3.60133598426504e-06,-2.74687894532802e-05,5.32607789111451e-05,5.67761680046065e-05,1.61688690383375e-05
2.75038661646515e-06,3.51247751613137e-05,8.08511393714941e-05,3.37031996356879e-05,-8.6330895371916e-05
3.54560448169926e-05,5.00221898504688e-06,9.49095769871955e-05,6.51485952908759e-05,4.10694025793477e-05
-9.59883410763119e-06,4.20069547987939e-06,-1.00824969584264e-05,3.59729782008297e-05,5.98674723721241e-06
7.1054223404904e-06,-1.38502329077135e-06,-7.70068998338413e-05,-4.45499819922195e-05,9.32829908539673e-05
-1.8320246062887e-05,-6.95146958376143e-05,5.6964083850328e-05,9.27449663593336e-05,-1.98426957549273e-05
2.16177474787802e-05,-1.10077062365301e-05,-5.95886600047075e-05,-2.45948058685635e-05,-3.1721610371377e-05
-2.31068335854466e-05,-3.83619796868825e-06,-4.32578306802765e-05,-1.04482795214027e-05,5.52304894371856e-05
2.46041169932943e-05,2.24497395540438e-05,8.85404199234571e-05,8.79677465960151e-05,3.85609301794594e-05
-4.09742157089791e-05,-2.77696131338411e-05,-6.5809290231664e-05,-4.32245287112814e-05,7.62886065346192e-05
1.47008300201967e-05,3.76053903822492e-06,5.03018220059332e-05,0.000102691681887212,-2.12360199342881e-05
1.82153119714851e-05,-5.09487095329934e-05,0.000116584162568128,0.00011274057488669,2.94975134267559e-06
-1.65002227914154e-05,2.62242636305005e-05,-6.11978233206672e-05,-7.94566795503097e-05,4.97495373411853e-05
-1.95515788599741e-05,5.65303458816588e-05,-4.10285092136754e-05,-6.74864808104111e-05,3.16789622769105e-05
3.96596735485224e-05,9.5255227852976e-05,2.95876322874448e-05,2.4747110229761e-05,-3.29830945455366e-06
6.6749413028169e-07,-4.2710825971882e-05,-0.000130297832459457,-7.40800969399739e-05,9.66924722159643e-05
-2.65060671193327e-05,-9.04957140900847e-06,-1.06397641365682e-05,1.0517485873573e-05,5.20514014453171e-05
-2.60835099798873e-05,-6.83413844678593e-05,0.000166848730612786,0.000149600080223224,1.64720402703101e-05
-3.77968002317935e-05,-4.97427098541806e-05,6.50718420364e-05,7.38628321441666e-05,-4.50967237516144e-05
2.27150429497624e-05,-3.87883124898004e-05,-4.65207991546878e-05,-3.35855183132076e-05,0.000110821322881212
6.12266080499035e-06,6.59970470402393e-05,-5.5979587861685e-05,-4.39187154766607e-05,-7.75087803951754e-05
1.69573881326299e-05,1.7071279931729e-05,-2.11506370855551e-05,4.0157766241831e-06,-4.56994529008721e-05
-3.42503531792812e-05,-2.61079674269626e-05,6.69230621780334e-05,0.000103813583117339,3.69575578600028e-06
1.11367679662235e-05,5.81148034523533e-05,0.000177327187185159,0.000128678504485145,-8.15197638587588e-05
-4.63378889928036e-05,1.62842248852102e-06,4.24045388038958e-05,5.24096514786916e-05,-1.5616945495559e-05
-2.79580414111772e-05,-6.11709555243312e-08,-5.18232777112118e-07,2.93631941163829e-05,4.85017474044188e-06
-4.62269048799621e-05,1.31119144350934e-05,4.76794852697778e-05,7.23893322918055e-05,-2.09220760481757e-05
3.25665198607368e-05,7.05709886050175e-05,-7.99084506509709e-05,-7.1521526299521e-05,2.99238778903726e-05
-1.43320420032944e-05,5.26912634620625e-05,1.02336868620207e-05,6.11742490125848e-05,-1.67791357258504e-05
-1.34284243511304e-05,-0.000108695848644161,7.15978145926764e-05,0.000110248432884964,1.27227893046411e-05
-9.33148693168828e-06,-5.25094221019622e-05,-1.66587064601771e-05,-6.00096410131892e-05,7.28651826776541e-05
-3.85728593069652e-05,-2.22566818638476e-05,-4.32829522747208e-05,-8.27067211453296e-05,8.20498728975145e-05
-1.57897466763673e-05,-0.00011594203178102,-5.61389049802706e-05,-2.61267755754366e-05,6.07564863377099e-05
2.27783040012541e-05,6.37843189117975e-05,1.81871766819198e-05,-1.22070616126219e-05,-3.11441962315426e-05
3.71467448530444e-05,5.20535587402409e-05,-3.29370809456622e-05,-1.11551820810753e-05,-3.26013413553887e-07
5.84288276668684e-06,6.46028156031631e-05,4.34366887004681e-05,-2.35713576565239e-05,-8.11151894457643e-05
-2.21924814009239e-05,-4.47434755998715e-05,1.66731420788771e-05,5.17555920191005e-05,-1.43084095913893e-05
-2.63625804052773e-05,-7.51791132734575e-06,2.42949475918381e-05,-2.60547261776629e-05,1.47709009742029e-05
-2.29664288543694e-05,-4.17955187878558e-05,-5.16694778452206e-05,-6.2363971607519e-05,2.71698281405263e-05
-3.01678648837394e-05,-0.000108775111231348,-1.69397884212403e-05,-5.11109343186862e-06,7.63933627508329e-05
3.07631257127445e-06,-1.69712233442111e-05,9.12349903316254e-06,-5.26671084144995e-05,-2.8957846587402e-06
1.22004231643326e-05,-3.91674659760195e-05,-3.47018604017159e-05,-3.4094100848533e-05,-2.75546940808275e-05
9.39021363636727e-06,-1.12987597214113e-05,-7.76542810348281e-06,-3.31013631224015e-05,-2.07476067502015e-05
1.78317480785998e-05,-5.13962106412998e-05,2.65670041490512e-05,3.86822133286574e-05,3.84783983804845e-05
-2.40702325248048e-05,2.85874318519985e-05,0.000145544706769109,0.00014067040481105,-6.29818421659968e-05
1.25976838872691e-05,-3.08836121563248e-05,-6.36774800457144e-05,-1.12792513838165e-05,-2.77645983790565e-05
5.36215204424514e-05,5.78221573165366e-05,-2.31941859083475e-05,-6.68724492755117e-05,-3.22386899503099e-05
1.1905904604091e-05,-3.68310142217328e-05,3.99504832973863e-05,8.85819875877266e-05,1.21230539833874e-05
-1.27504097385649e-05,-9.61446684805662e-05,-0.000109971865328006,-2.51074685681196e-05,0.000112963166743005
-2.27285380219416e-05,-5.72505258814581e-05,-0.000118133481112641,-9.2774767942909e-05,0.000151628914266709
2.46732169544313e-06,-1.5154939281983e-05,-6.67969838932728e-05,1.77089189357171e-05,-4.30314773812051e-06
3.43036944295603e-05,8.88135847655455e-06,-0.00010463420466325,-6.53126191848301e-05,-5.35898201906338e-05
2.84848621470138e-05,-4.16582671424098e-06,-6.52245938852595e-05,-3.42166365930647e-05,3.90319177805382e-05
7.34289368220995e-07,-6.34408794208004e-05,4.69176171355256e-05,4.83846377980504e-05,7.68141866114004e-06
4.06638688370588e-06,2.38998051765946e-05,-8.09021574992573e-05,-3.52405792867643e-05,-7.95949337060055e-06
3.29196141435354e-05,5.5033876727633e-05,1.81714817101887e-05,4.8099505646744e-05,-3.89138449936734e-05
-6.8297104073267e-07,4.83671741514749e-05,2.09599088851661e-05,2.09282458932072e-06,-1.4736768677475e-05
-2.28420023353169e-06,5.05374291695036e-05,-5.96333726564929e-05,-3.14316694656504e-05,4.52729218221324e-05
9.73258598216975e-08,-4.85994307476991e-05,-0.000102393287806137,-0.000111856423516551,-1.52521812079135e-05
5.33403418235558e-06,2.37361173577011e-05,2.88269135012474e-05,9.22416342389749e-06,-2.75959635575711e-05
2.82142605363049e-06,9.8783524581992e-06,2.51297798748861e-05,2.61274702298302e-05,-5.38564090828065e-05
3.38712770799376e-05,7.26378299547959e-05,-0.000123091908604916,-0.000131324227287338,-1.77467519001833e-05
5.05581385400843e-06,-1.33956474026486e-05,7.65345831709445e-07,5.94842008994032e-05,1.05357910347104e-05
-5.14663361851536e-05,-6.71477241651291e-05,-0.000110416684801573,-7.09356389511287e-05,6.03669303114389e-05
6.66511488758733e-06,-6.96295139341191e-07,0.000120295111909117,0.000146958954938652,5.53305167922976e-05
3.63434345278604e-06,-5.74985191705169e-05,-0.000113862731590988,-8.33773166168997e-05,8.647020640243e-05
-1.60977246955367e-05,3.68532814108566e-05,6.69526115088583e-06,-3.07326640985951e-05,-6.05258539909548e-05
4.23338963969485e-06,4.64690993288909e-05,0.000137294402360933,9.8186352156811e-05,-0.000117103498450049
-3.03064941442558e-05,-6.72634633605158e-05,-0.000152234200822543,-0.00018849231842914,0.00012417475863409
-3.04156476274306e-05,4.69416090717658e-05,-8.80932267215203e-05,-0.000120920261209686,-1.72479222665996e-05
3.04433370569017e-05,-6.31816993841363e-06,-0.000107231997221136,-7.39208265251121e-05,6.44801107432414e-05
1.39054582723124e-05,5.59193302465528e-05,-0.000156012042875057,-0.000236058601281534,0.000105128865555097
4.01984229539322e-05,-1.08277795178066e-05,-0.000118902556486017,-0.000149437866976328,0.000105039868942036
1.2968429490377e-05,1.27696654463582e-05,7.12975491324123e-06,3.85888858405933e-05,3.22141729186499e-05
-1.9546061058638e-05,1.97654993481902e-05,-0.000142563100115081,-0.000116070378220912,3.46024662953164e-05
-7.23375005534436e-06,-2.08040862431707e-05,-5.25312529266373e-05,-6.21481910591873e-05,0.000109153298174842
-3.3099663225967e-05,-1.72102392774234e-06,0.000149019662338328,0.000161612742500655,-2.54523153501601e-05
-2.69748140310414e-05,-6.97016007807816e-05,2.61893722632382e-05,2.17634822751786e-05,7.27171280994797e-05
-5.54046216490986e-05,-8.46096182170723e-05,-2.4665238221116e-05,-5.31958916374591e-05,6.81960509888663e-05
9.35554281976001e-06,4.50305230082327e-05,-0.000118149397347205,-0.000130112773371943,6.39489470151966e-06
-1.15189759081842e-05,-3.15922770494003e-05,0.000129265901379373,7.94474034264334e-05,-5.66922940266767e-05
4.11123892364185e-06,-3.92845276293263e-05,0.000119316534646183,0.000103077204006882,3.74116443531925e-05
1.50016052920481e-05,-4.75370660064185e-05,-4.80738870369918e-06,3.77888994159697e-05,-3.35201996348819e-05
4.22547853527173e-05,0.00010830872012368,-3.56992391667247e-05,-9.52527063530572e-05,-6.97888621657614e-05
-3.23964933595167e-05,-2.40641376257229e-05,2.37191266946971e-05,2.49170357135965e-05,1.09863693312458e-05
1.94468413726653e-06,6.0435495267228e-06,4.6105708144871e-05,1.06775373161705e-06,-2.57954748642789e-05
3.36096155861798e-05,6.8314874840036e-05,6.77810221980347e-05,3.43650914271332e-05,-5.05200619056089e-05
-1.19547197535415e-06,1.36454504754838e-05,0.000215776739910871,0.000225361347967554,-0.000118655857245459
-3.47579670538027e-07,3.2351748347126e-05,0.000173530975263634,0.000199383963777086,-0.000107187765068459
4.30572516086468e-06,-6.93420580299681e-05,6.51020378461268e-05,3.74655594262744e-05,-3.4267212451498e-06
3.69084253026044e-05,0.000110027853559611,2.89977492570937e-05,-4.8136715165767e-05,-8.09076777404627e-05
-1.88939105430602e-05,-8.30422376854312e-06,-2.6797142022168e-06,-1.4216572531551e-06,-4.73187431759842e-05
-2.06831472741895e-05,9.091505074436e-06,3.09772464023799e-05,-3.31953275878191e-05,-2.65420895872303e-05
-2.02244368199619e-05,-2.10865713203933e-06,-0.000109086721266988,-6.32526048173829e-05,5.48585269200589e-05
4.49863009316659e-07,-3.26961125055276e-05,-7.57236391080481e-05,-2.58758444828553e-05,6.02176721029181e-05
3.35017826114805e-05,-6.84499054708739e-06,1.58394898575038e-05,4.1708443694626e-05,-1.09669403057065e-05
-1.55784164642717e-06,8.00676106140722e-05,-4.68517783482809e-05,-0.000136253490839232,3.4757390156598e-05
1.82500899824483e-05,5.61750904648425e-05,-2.92382144807289e-05,-4.1350921228784e-05,-1.32931357694736e-05
1.03343214292306e-05,1.1067736494186e-05,2.30039134462981e-05,5.03008130577673e-05,4.24098523701601e-05
-5.00178713269834e-05,-4.83355503780996e-05,3.34672176660321e-05,6.74957292752578e-05,7.58616893775499e-06
-1.32790668299848e-05,-9.73090906030795e-05,-2.08679107598809e-05,-5.66464738319305e-05,9.74741646037605e-05
-1.2609666209791e-06,7.2751395611556e-05,1.93629728430554e-06,-3.73557646980602e-05,-1.5953535378721e-05
1.03631415001379e-05,-2.43487010476485e-05,4.52289981159928e-05,3.68205729359631e-05,-3.78479640589163e-05
-1.76286234265115e-05,-4.64162316959418e-05,6.21129030513447e-05,4.05865549766043e-05,4.03536321416301e-05
-3.13588611402641e-05,-3.45613303568644e-05,0.000154900116792062,0.00014554558607326,-1.71460662199611e-05
-1.93836515057973e-05,4.21062488836717e-06,0.000106981460449541,0.000165835422955456,-4.59759402283081e-05
-3.03574685599061e-05,-8.77665200140432e-05,2.16817629930066e-05,3.0663536472461e-06,6.37382926663445e-05
-2.84352723079389e-05,-5.93275431607275e-05,5.21630098034936e-05,3.09151591701391e-05,1.37636481637436e-07
-2.71991775531835e-05,2.87338052203969e-05,-2.30408827831332e-05,-6.88808377104333e-05,-6.37749395163234e-07
1.48619380313177e-06,3.22944398524119e-06,-6.73597911676203e-06,-1.88426054416603e-05,-7.98885441660351e-08
2.05575338743556e-05,-4.43616355366195e-05,-3.64594578585956e-05,-2.65010167891135e-05,-2.74495413410585e-05
3.2534430761328e-05,8.7225651380481e-05,3.36271520961585e-05,2.03280821158653e-06,-9.80667256665202e-05
-2.49756180505521e-06,6.28548960005985e-05,0.000234304713200613,0.000213278527523785,-9.93209352125218e-05
-1.157259427634e-05,9.63179054782513e-05,6.80721565553644e-06,-2.52894431179882e-05,-1.96067941472402e-05
3.36071684027384e-05,9.43700710517162e-06,6.82759275955915e-05,8.37137670532599e-05,9.13926234386404e-06
1.03835909588873e-05,-3.43374190394175e-05,9.4792507201599e-05,0.000106765264838464,4.00897107390789e-05
4.79994819273614e-05,2.96957577671124e-05,-2.07719788744687e-05,-5.77611016414182e-05,1.2646366914675e-05
1.75896884252122e-07,-9.33963966982405e-05,-0.000126434243573378,-0.000102384544889405,0.000139100060883095
-3.26323709562931e-05,-1.79366091879765e-05,-2.69353849093897e-05,3.28404073271734e-05,3.19789048462104e-05
-4.18385841283211e-05,-8.64802002335659e-06,-5.71377322437229e-06,1.48448153944404e-05,5.61305231818948e-05
-6.01978787572125e-06,-2.61889970726569e-05,-1.35932686117843e-05,2.91788466395074e-05,3.61267473164258e-06
-8.51262849849917e-06,-1.31896452927621e-06,-6.94102788189462e-05,-8.5644497321764e-05,4.51479583560273e-05
2.8572648926955e-05,8.34145648691136e-05,2.43091642025217e-05,-2.78097982022148e-05,7.0473981107242e-06
-8.31231926563635e-06,1.63025557144046e-05,-9.02475504990351e-05,-4.39151985787059e-05,4.69005970985548e-05
1.76709840645904e-05,0.000132945435569966,0.000108669613660502,9.09487724009042e-05,-0.000158619557641179
-3.46878793206542e-06,-1.71947461674443e-05,-4.98601469089613e-05,-2.36534282841801e-05,5.10270069612385e-05
3.08079909107924e-05,4.5802838099063e-05,-1.53174867205949e-05,-5.74273259063873e-05,4.92283660411211e-06
-3.52662475608065e-05,-2.7715577852193e-05,-0.00019709284264015,-0.000282208298561288,9.77650504392371e-05
-3.25155758998957e-05,9.12250290386649e-06,7.37027329315989e-05,7.47138880809594e-05,-5.34482902194302e-05
-2.88017103129877e-05,2.05934504877129e-05,8.63571881321259e-06,-4.54531474174583e-05,-5.41540726395964e-06
-3.10550488914525e-05,-0.000116105284125747,3.77509896878514e-05,6.82929315054564e-05,0.000109366326233978
1.93665876751043e-05,2.67163920021694e-06,6.9348604123917e-05,3.21334262819739e-05,-5.95845608975999e-05
3.40425397347336e-05,-1.60050175496189e-05,4.01507605676959e-05,7.35098727307752e-05,5.04590205469813e-05
3.77130268879174e-05,3.61649607107619e-05,-7.22768165755399e-05,-1.52964230319186e-05,-4.6606256838913e-05
-1.00282103505506e-05,-8.68814096034105e-05,-3.54091580361235e-05,2.1579489376842e-05,3.71314517240183e-05
1.23810328354395e-05,6.2054751981543e-05,-6.79846430541315e-05,-4.55806100697711e-05,-5.36934182541962e-06
-2.08451840456552e-05,-5.09968415636492e-06,-4.05767922893744e-05,-0.000100789061107799,4.24221557157901e-06
6.98936818789855e-06,-8.88107749625545e-06,4.76867804056974e-05,2.63181020477614e-05,-3.29147541593792e-05
2.2340313532827e-05,-2.27795198617477e-05,3.03876466556197e-05,4.32666657054583e-05,-5.79296964524073e-05
2.58703399099757e-06,2.61670295958193e-05,0.000119502919668905,0.000148509737364795,-9.46575456480776e-05
2.71123679054599e-05,8.33270926300264e-06,-8.95631233534383e-05,-0.00011065487618779,5.83296472424784e-05
1.64464091355392e-05,-1.27712426866154e-05,-1.06789410889136e-05,4.55693366517476e-05,-7.96304240662569e-06
-1.45357651817742e-06,-1.1883498634947e-05,-0.00012071932385775,-5.47793500053825e-05,0.000102412181563644
-3.9433869209222e-05,-7.10003266792486e-05,3.91765585015256e-05,3.59283054889815e-05,6.52292451962013e-05
3.9429604011157e-05,3.05156772649534e-05,1.57541188962543e-05,1.35516941289366e-05,1.22985420746942e-05
-1.82391549564689e-05,4.846748364643e-05,2.21263991496589e-06,3.88215463888682e-05,-1.92050485593294e-05
2.63823200287005e-05,-4.23264424119581e-05,-3.83645592352715e-05,-3.69598275319093e-05,9.85859220224264e-05
-2.53236310385623e-05,7.4102438601834e-05,0.000184473703474032,0.000184095717094583,-0.00013961969504407
2.25316015510662e-05,3.9798918510022e-05,4.45489844811891e-05,-2.79047485838014e-05,2.55649363503312e-05
-1.51463916320463e-06,9.15287460224727e-06,-4.00852571203465e-06,-3.71081587762302e-05,4.97144167710415e-05
2.459470854317e-05,-3.9725919163804e-05,-0.000109641497807427,-5.10490381191745e-05,-3.39432411536202e-06
1.010745548094e-05,6.24690845259308e-05,-2.55182706775658e-05,-4.54272801093715e-05,1.30861559436387e-05
3.69480931843399e-05,0.000140019528332851,1.36479603982761e-05,-1.20777569059749e-05,-6.35522262663767e-05
-1.7849524924797e-05,4.81513508108958e-06,2.33447923411281e-05,3.21501709024455e-05,1.1176498945704e-05
-1.57789884745318e-05,-0.000142039574045507,-0.00013342817825125,-8.15647449328621e-05,0.000101211724206354
4.30175240591271e-05,1.55018734814003e-05,-3.59424801678025e-05,-6.42192704987733e-05,2.65095103521566e-05
2.29305889765835e-05,8.10847812019992e-05,-4.66015921657535e-05,-2.43510988726521e-05,-4.65406329010679e-06
3.53479333542228e-05,-1.13995003349779e-05,6.03247054155594e-05,8.33843977107036e-05,2.5924539548095e-05
1.18080012294415e-05,-3.47621091568249e-05,-1.91461111253335e-06,8.97862259501409e-06,4.11627488408293e-05
2.61519943595283e-05,2.35751739345737e-05,3.30339245038416e-06,-7.26934607566796e-05,5.47526505392183e-05
-1.29531205076957e-05,-5.16408872414662e-05,-4.5502686430761e-05,-3.09877986075053e-05,3.30758264892565e-05
1.05975250055176e-05,-4.33086910078677e-05,8.275934487752e-06,6.26697597113323e-05,-3.84972927465387e-05
1.46103643693111e-05,2.09653530624548e-05,0.000117887195818448,3.6497752515494e-05,-3.14488980161491e-05
2.71981934358324e-06,-1.18708388000048e-05,5.89344896139498e-05,4.18337982366599e-05,-2.7616531770879e-05
-3.08268937961096e-05,-5.59764776657439e-05,-5.52286317526231e-05,1.51678371640125e-05,2.56468428142204e-05
-2.72809925113699e-05,-1.66779128058043e-05,-6.5257333816446e-05,-1.08956253913862e-05,3.87358803417038e-05
-4.96702953091029e-06,9.9220030291899e-06,-7.44887525509161e-05,-9.63687034508246e-05,0.000126475285733591
-2.51584693107519e-05,6.23229926445128e-05,-2.27546161216129e-05,-4.47813716694582e-05,-3.91346026139702e-05
1.68039552990181e-06,-2.16609492190197e-05,-0.000111638809087253,-8.46834424290523e-05,5.51556163243213e-05
-1.83728870723781e-05,-2.02504226468402e-05,-4.97898742325743e-05,-5.66240252783023e-05,5.87266798470531e-05
-2.69607644316513e-05,-9.68568835198463e-05,6.10072997257501e-05,6.26506416413985e-05,5.99653409688587e-05
2.34858979539952e-06,1.50982789467297e-05,-6.05964056905193e-05,-8.70173702479911e-05,1.02747442896792e-05
-4.61447468023983e-06,4.46094427877814e-06,8.35372355261901e-05,5.73781806315098e-05,1.31635972521912e-05
-1.67329057448529e-05,-1.37215462335514e-05,6.0607015688224e-06,-9.82399446999831e-06,4.62184791208516e-05
2.09176815073285e-05,-4.81986221740504e-05,8.15347395126249e-05,4.18605221969033e-05,2.15881954590968e-05
1.31707117075786e-05,8.13019275242524e-05,0.000229932978079611,0.000253951172184933,-0.000225385073248261
7.02387609857778e-06,1.51553677637498e-05,-5.64624904854607e-06,-0.000101045477077881,5.83927396862831e-05
-3.2980731140718e-05,-9.51822348799095e-06,0.000132912587697947,0.000121054370607656,-3.50002596910394e-05
1.82910042198458e-05,4.73098337078464e-05,5.23657321394746e-05,3.76714988312378e-05,3.46709313490657e-05
-1.38706649112398e-05,-2.22685943015833e-06,2.92615148919422e-05,-1.29937274990797e-05,4.49600695789109e-05
-2.2891215140218e-06,-9.05376124255683e-06,-4.713265621241e-05,-0.000105132280728484,1.71728730348661e-05
-7.3535366159271e-06,3.01539360239749e-05,-1.13818533417195e-05,1.31600565382077e-05,5.02964052429744e-05
-1.37795124918096e-05,-9.96009437554965e-05,-2.34631073321567e-05,-3.20627031272016e-05,5.08973026952059e-05
2.0098710542303e-05,0.000108490951615247,4.15179998804118e-06,-9.22058491494797e-06,-7.75653405872007e-05
4.19749718748098e-05,5.76666456443476e-05,-2.04061291828035e-05,-4.60862693851522e-05,-1.2653037522831e-05
8.54074196797004e-06,3.50246276521773e-05,-8.85970420872052e-06,-2.66623155460248e-05,1.10247327665619e-05
2.14839169299774e-05,-1.22256970656314e-05,-8.62378899206021e-05,-3.6457690338849e-05,7.84723832888382e-05
2.19131690094702e-05,-1.20852985340334e-05,-2.14758279820476e-05,-2.29762127872414e-06,-1.92283073668456e-05
1.11716882233397e-05,-0.000120950816502389,-0.000144138645772369,-6.1253063648165e-05,8.79519644995804e-05
3.78607186294411e-05,0.000115790906248379,6.6237447760482e-05,-1.56927726832517e-05,-9.70374102080614e-05
-3.39204738513477e-06,-9.95972954807642e-06,7.07505516541011e-07,-3.44131846841729e-05,-1.97100680278475e-05
-6.27366351952837e-05,-9.43434680447412e-05,-0.000119528457051869,-0.000103669967283026,8.27995950245922e-05
3.17749259024844e-05,7.32237776498715e-05,-6.03178643530158e-05,-0.0001572907953972,4.01286544821115e-05
-9.67804391411574e-07,5.68817938463002e-06,0.000186399745310303,0.000180052085987043,-0.000119149411862362
-4.22644024343816e-05,1.63631765334484e-05,0.000119208274281548,0.000109615580594969,-5.35603122657098e-05
7.14467398077436e-06,-1.44818388537193e-05,3.10966301122086e-05,8.74307624978787e-05,-3.08389513652835e-05
-1.96620499970128e-05,2.72600379886808e-05,-3.62282071149388e-05,-0.000107768941798024,1.79273462437339e-06
-3.14399334048866e-05,4.39669364808717e-05,7.95201303352612e-05,7.61973046958295e-05,-6.91967911383251e-05
-1.9685616496555e-08,-7.51925559371227e-06,7.08058423682699e-05,4.18031867378761e-05,-3.76051804597419e-05
9.43835463008289e-06,-3.06642024997154e-05,2.53526616843174e-05,5.85767527968067e-05,-3.72378708425373e-05
7.56055344151447e-07,2.81668998307227e-05,-8.35582791742449e-05,-0.000102577966441313,7.10158843220987e-05
5.17450950067695e-05,4.88070575867111e-05,-3.65286727289756e-05,-0.000104035240376112,2.06735571609796e-06
1.30925029792428e-05,5.96901605186747e-05,0.000101737255814627,0.000114978494379423,-6.84126964648306e-05
3.64211218581934e-05,1.24722478820838e-05,4.00254168977081e-05,6.22323435489679e-05,1.94705244098885e-05
-3.65792077516941e-06,8.65129007141092e-06,-1.58219351467827e-05,-9.10071951888137e-05,3.07632553629595e-05
-3.03459323621543e-05,2.18688449616301e-05,3.9128372721172e-05,6.62255676799657e-06,2.34096599665706e-06
3.27551274913166e-05,7.45961958599927e-06,0.000126065954146638,0.000126668026606226,1.4421666598402e-05
-3.1572213653306e-05,2.42283174427866e-05,-8.5567983402067e-06,2.35763082210389e-05,3.05801419528374e-05
-3.3836878119596e-05,5.88224934839129e-06,6.53355614249967e-05,6.36646310594299e-05,1.18956778124742e-05
2.66765615108724e-05,-4.97785518012396e-06,-2.12176356121698e-05,-7.00377079447978e-05,5.17564771110852e-05
8.29983253271333e-06,2.92505052239111e-05,0.000276862325119233,0.000209662768342199,-9.78041934403726e-05
-3.85719204698016e-05,-2.8776389576081e-05,1.9081671650071e-05,4.64880106290861e-05,3.99893199206118e-05
-1.2443936897241e-06,5.5904567833469e-05,7.16804987773696e-05,1.92718154899931e-06,-6.88135238050541e-05
-1.28621185358881e-05,-0.000145558436276204,-0.000112026773066261,-8.55396251951717e-05,0.000149719357266815
4.0225385509388e-05,-7.3968882830101e-06,5.18611086260802e-05,1.18756718984826e-05,1.79540477056774e-05
7.93782452336194e-06,-1.62906770981852e-05,-7.25163396393736e-05,-3.32327236372244e-05,5.01139154424877e-05
2.77068881466523e-05,1.25635691986066e-05,4.46297760802653e-05,1.51967242108316e-05,-6.5295916209387e-06
-4.06529856314598e-05,1.87341442767711e-05,0.000134277609255672,0.00012690063980786,-7.9902634444037e-05
-1.43407582948487e-06,5.4090491021119e-05,2.88657535867158e-05,2.54282515182942e-05,1.82563928751918e-05
4.8502946926903e-05,6.64746710407873e-05,0.000103044693587145,7.28089035332926e-05,-0.000127177411643194
2.28744505400678e-05,8.58210865162889e-05,-9.24116480707605e-06,-9.46167268902521e-05,-4.34765556022185e-05
-3.60004009286421e-05,-1.5593382897163e-05,3.73433214941455e-05,8.32290543438661e-05,2.43703959510964e-05
3.29904870975757e-05,-1.24634073160204e-05,-5.37498335946557e-05,-4.44837121333988e-05,-2.53029382714786e-05
-4.04239643369108e-05,-3.02336704141241e-07,0.000145184469168119,0.00013919032936366,-3.58552545097904e-05
-1.67506028378494e-05,-9.72688769151788e-05,6.31398348528692e-06,-4.08163314306971e-05,7.51373334643374e-05
-1.36719341352337e-05,3.94346703263352e-05,-2.13864848692561e-05,1.17285719545239e-05,-1.3780822286512e-05
-2.84639136718162e-05,7.80942399642252e-06,-3.97290547359562e-05,-1.61813472136404e-05,-2.90765896531982e-05
2.6179494718139e-05,8.52690151263343e-06,-3.96283202653775e-05,-2.47463301817065e-05,4.31314547802177e-05
-3.40042898248085e-05,-1.5231261463056e-05,5.32024996590805e-05,4.28409748750247e-05,1.02710475611429e-07
-3.47000941136197e-05,-6.89799253940616e-05,-0.000151726838968799,-0.00010091660199408,0.000161642493351867
-2.84585612381122e-05,4.15970241162603e-05,6.63108119477306e-06,-2.55762259279368e-06,-5.870075945266e-06
-1.38962385554899e-05,4.45083627268753e-05,-4.14631488582232e-05,-4.38979847567007e-06,-2.54633843753223e-05
-2.82160276847804e-05,2.69365378988802e-05,4.99719349937141e-06,6.49446841809031e-05,-1.36423472441956e-05
-2.20753183095814e-05,-0.000150721282152272,-4.38547201039652e-05,-6.7116816618672e-06,0.000163632072320233
4.2546991867349e-05,-3.86358701655258e-07,0.000150476065449236,0.000142446059124399,-1.88367716704784e-05
-1.1508566801823e-05,7.01516530041154e-06,0.000130853213590551,5.45739673104706e-05,-1.14750251079142e-05
1.02666693461558e-05,2.9177470400575e-05,0.000179721679806225,0.000123844801973698,-3.9382638209901e-05
-4.14854324793785e-05,-5.75670579651913e-06,4.66889824021998e-05,7.06025361657983e-05,-3.26827133678487e-06
-4.75899090139127e-05,-9.45962884496277e-05,-0.000139770677839533,-0.000128948944944519,0.000159007423952844
1.7753740289501e-05,-5.41182617168756e-05,8.57958237700183e-06,4.4267100531195e-05,4.97681420053492e-05
9.99223828316101e-06,3.16270196364725e-05,-9.74677772855651e-05,-7.4014189918621e-05,5.95854891229022e-05
7.77664399708097e-06,-9.17266996552978e-05,-1.24816875325928e-05,-2.36422403107226e-05,5.49160716869085e-05
-3.22377014479738e-05,-1.36437718974417e-05,6.99080144044497e-06,8.00548739670024e-05,-1.32897652057063e-05
-8.29610036779375e-07,-6.1546966821782e-05,1.36060962332713e-05,4.42882184950558e-05,3.86853308493918e-05
7.61655819340145e-06,7.81746087083466e-05,6.89290207966265e-05,-1.57613048580405e-05,-4.21653410059924e-05
-1.54438917143043e-05,-5.1753163027972e-05,-0.000158867885720313,-0.000140306663178817,0.000112280330996851
-3.4888303166682e-05,-7.35157478362603e-05,-2.7260860572117e-05,-9.78819543069871e-06,6.18176967110765e-05
2.55883336665101e-06,8.52262727365293e-05,6.38923569819743e-05,5.47659283672215e-05,-0.000140826889042271
4.76012455497947e-05,6.10267847850658e-05,4.65127165644944e-05,4.5594277628726e-05,-4.37310487589384e-05
4.34839515695493e-05,0.000114897271913861,-5.84120157047423e-05,-3.38454280834052e-05,-0.000113904128761058
-1.26517738351614e-05,3.59727219367458e-05,-1.33039093177002e-05,2.76786726737843e-05,2.85641303220282e-05
-3.7855117396224e-05,-0.000130068494758682,0.000153966258435142,0.000199623301821264,2.14082885175837e-05
-4.66247211929843e-05,-1.85992249646284e-05,5.91477161103575e-06,2.80725842902178e-06,-2.65935998926295e-05
3.25029253496185e-05,-3.7574729689432e-05,2.34654637404537e-05,5.42410549505698e-05,1.43642685615505e-05
2.38451856286307e-05,2.03105463055171e-05,1.62979789766074e-05,5.41818970773054e-05,-9.5140986361639e-05
-9.70667028037506e-06,-8.27959944386269e-05,-1.5179292089441e-05,-3.95177283759972e-05,0.000109349673385196
2.48335483120878e-06,7.87128872348991e-05,-7.18914982896474e-06,1.53500527642156e-05,-7.16234112404362e-05
-1.45217248985122e-05,-4.65493000772258e-05,-4.66169867492995e-06,-5.92595376653682e-05,4.12548770499154e-05
-3.0874313529448e-05,-2.72558626357513e-05,-4.28471083655842e-05,-6.90468682034133e-05,3.75370903537068e-05
4.64081573399621e-05,5.84745305439518e-05,1.76290172297417e-05,-1.35655840532372e-05,-0.000114826427083402
6.47549070824406e-06,4.97338976769949e-05,0.000201077644424662,0.000139829876474021,-0.000119984993520321
5.1765110322188e-05,6.46768248494625e-05,-2.19310600931727e-05,-7.63599767533184e-05,9.17541142422989e-06
-3.52546088657897e-05,2.96629781935053e-05,9.53236088550841e-05,7.26013931498327e-05,-5.82057993079958e-05
-2.50477812285615e-05,5.95840454783331e-05,0.000101683296061531,0.00010260399317749,-9.72388206486863e-05
1.436444086813e-05,7.94672818681245e-05,5.06945244449028e-05,3.74348749238721e-05,-2.25978776744815e-05
2.54243197633418e-05,-2.92581914699943e-05,-2.37859802554566e-05,-3.10537778358198e-06,6.31077784239578e-06
3.66036699925004e-06,6.16401358058323e-05,-4.21315028260896e-05,-2.84604889977206e-06,-5.95206967340386e-05
2.02475124754527e-05,6.01216964413995e-05,-0.000148481289824796,-0.00020703968904507,-1.73538748080157e-05
1.62108598983014e-05,5.95692093119526e-05,-0.000112780805224324,-9.32641194450416e-05,5.46205731337542e-05
2.57814238629317e-05,-5.3479903926252e-05,-1.63635258105092e-05,1.3020746022357e-05,-4.18460568155779e-06
-2.01916565793883e-06,6.74828225133638e-05,-1.53280354081498e-05,3.9677757483493e-07,-5.39705546497981e-05
3.07416489421154e-05,9.33190669971691e-05,6.43354383764202e-05,1.777602096707e-05,-3.22324017671915e-05
6.85734180857222e-06,2.6768501258656e-05,6.08371766528073e-05,1.514175420395e-05,-2.41895734138059e-05
3.68819533876889e-05,-2.50676450676539e-05,-3.58086371516929e-05,2.56896920903704e-06,-9.81704141387393e-06
1.09651866430266e-05,-2.21075081703279e-05,-4.94053346911736e-06,-2.0083185458766e-05,5.56470891083077e-06
-1.92146999818178e-05,5.00993928083517e-05,-9.10880712561233e-05,-9.54606804770776e-05,1.92411926964364e-05
-2.77958179722585e-06,-9.69075454833325e-05,5.26021419121226e-06,-1.31838085373171e-05,4.01079199509838e-05
-2.38399728536076e-06,-7.14919946014978e-05,4.07309956014926e-05,5.43484433167723e-05,3.48201684296236e-05
-3.87324357441548e-05,1.61031439541309e-06,-5.87892065603679e-05,-8.2496927768713e-05,2.62787257645366e-05
4.27443403584654e-05,3.74752123070561e-05,-7.19113235087639e-05,-9.10778071426348e-05,5.91563424256482e-05
1.7367092945061e-06,-5.98524323573659e-05,4.12353105201026e-05,5.08842335237967e-05,8.20934672314298e-06
3.85948145312628e-06,2.88590856576808e-05,-5.66521804873528e-05,-9.56671375036777e-05,2.44991147169004e-05
1.28418635899027e-05,3.39673500344703e-05,1.08435076474575e-06,-1.45971058438491e-05,-1.38066718100443e-05
-1.28499873284827e-05,2.53563501601396e-05,-1.51726464696106e-05,2.83020051224662e-06,-4.64424287354757e-05
-4.11047162999478e-05,-4.89074810892624e-05,7.93239887896972e-05,3.54381984592562e-05,2.79671071208181e-05
3.89946454418833e-05,7.78599817776863e-05,-0.000119052870771335,-0.000116594844230582,4.91817391070825e-05
